{"learner":{"attributes":{"best_iteration":"86","best_score":"0.6115835422098085"},"feature_names":["distance","diff_time_ratio","is_home_team","precipitation","wind_speed","temperature","yards_to_goal","offense_strength","defense_strength"],"feature_types":["int","float","int","float","float","float","int","float","float"],"gradient_booster":{"model":{"gbtree_model_param":{"num_parallel_tree":"1","num_trees":"97"},"iteration_indptr":[0,1,2,3,4,5,6,7,8,9,10,11,12,13,14,15,16,17,18,19,20,21,22,23,24,25,26,27,28,29,30,31,32,33,34,35,36,37,38,39,40,41,42,43,44,45,46,47,48,49,50,51,52,53,54,55,56,57,58,59,60,61,62,63,64,65,66,67,68,69,70,71,72,73,74,75,76,77,78,79,80,81,82,83,84,85,86,87,88,89,90,91,92,93,94,95,96,97],"tree_info":[0,0,0,0,0,0,0,0,0,0,0,0,0,0,0,0,0,0,0,0,0,0,0,0,0,0,0,0,0,0,0,0,0,0,0,0,0,0,0,0,0,0,0,0,0,0,0,0,0,0,0,0,0,0,0,0,0,0,0,0,0,0,0,0,0,0,0,0,0,0,0,0,0,0,0,0,0,0,0,0,0,0,0,0,0,0,0,0,0,0,0,0,0,0,0,0,0],"trees":[{"base_weights":[1.2706765E-2,5.772662E-1,-5.435295E-1,7.1922076E-1,2.2376896E-1,-2.8428376E-1,-1.029676E0,3.300464E-2,5.2792355E-2,2.1073679E-3,2.8980967E-2,-3.87277E-2,-1.0006338E-2,-5.767105E-2,-9.557603E-2],"categories":[],"categories_nodes":[],"categories_segments":[],"categories_sizes":[],"default_left":[0,0,0,0,0,0,0,0,0,0,0,0,0,0,0],"id":0,"left_children":[1,3,5,7,9,11,13,-1,-1,-1,-1,-1,-1,-1,-1],"loss_changes":[9.2989844E2,7.374518E1,1.8798676E2,1.1792603E1,1.55134945E1,3.6981728E1,3.5839478E1,0E0,0E0,0E0,0E0,0E0,0E0,0E0,0E0],"parents":[2147483647,0,0,1,1,2,2,3,3,4,4,5,5,6,6],"right_children":[2,4,6,8,10,12,14,-1,-1,-1,-1,-1,-1,-1,-1],"split_conditions":[3E0,2E0,8E0,-3.788049E2,6.84E1,-1.969522E2,1.2E1,3.300464E-2,5.2792355E-2,2.1073679E-3,2.8980967E-2,-3.87277E-2,-1.0006338E-2,-5.767105E-2,-9.557603E-2],"split_indices":[0,0,0,1,5,1,0,0,0,0,0,0,0,0,0],"split_type":[0,0,0,0,0,0,0,0,0,0,0,0,0,0,0],"sum_hessian":[2.9611892E3,1.4695995E3,1.4915897E3,1.0485359E3,4.2106363E2,9.728194E2,5.187704E2,9.5707634E1,9.5282825E2,2.0865764E2,2.1240598E2,3.3510168E2,6.377177E2,3.2160764E2,1.9716273E2],"tree_param":{"num_deleted":"0","num_feature":"9","num_nodes":"15","size_leaf_vector":"1"}},{"base_weights":[-6.2155025E-3,3.4296894E-1,-7.306281E-1,6.4396155E-1,1.3954886E-2,-5.5644155E-1,-1.2717874E0,5.151745E-2,3.219233E-2,1.0832852E-2,-9.121878E-3,-5.2221403E-2,-2.926489E-2,-7.663295E-2,-9.7578384E-2],"categories":[],"categories_nodes":[],"categories_segments":[],"categories_sizes":[],"default_left":[0,0,0,0,0,0,0,0,0,0,0,0,0,0,0],"id":1,"left_children":[1,3,5,7,9,11,13,-1,-1,-1,-1,-1,-1,-1,-1],"loss_changes":[7.592735E2,2.0057295E2,9.202521E1,1.7912079E1,1.9655565E1,1.937358E1,5.1405334E0,0E0,0E0,0E0,0E0,0E0,0E0,0E0,0E0],"parents":[2147483647,0,0,1,1,2,2,3,3,4,4,5,5,6,6],"right_children":[2,4,6,8,10,12,14,-1,-1,-1,-1,-1,-1,-1,-1],"split_conditions":[5E0,2E0,1.1E1,1.0707655E-1,5.7856966E-2,-2.4046753E2,4.456964E-2,5.151745E-2,3.219233E-2,1.0832852E-2,-9.121878E-3,-5.2221403E-2,-2.926489E-2,-7.663295E-2,-9.7578384E-2],"split_indices":[0,0,0,8,8,1,8,0,0,0,0,0,0,0,0],"split_type":[0,0,0,0,0,0,0,0,0,0,0,0,0,0,0],"sum_hessian":[3.0016294E3,2.0253582E3,9.762712E2,1.0577205E3,9.6763776E2,7.385512E2,2.3772002E2,7.0523016E2,3.5249023E2,4.897036E2,4.7793414E2,3.1161404E2,4.2693716E2,9.70799E1,1.406401E2],"tree_param":{"num_deleted":"0","num_feature":"9","num_nodes":"15","size_leaf_vector":"1"}},{"base_weights":[2.6618433E-3,4.8772746E-1,-4.815043E-1,3.111586E-3,6.0639447E-1,-3.0483824E-1,-9.2203933E-1,2.1781102E-4,1.0066831E-2,5.2631017E-2,1.7938336E-2,-4.2940713E-2,-1.37772E-2,-4.9194314E-2,-8.377301E-2],"categories":[],"categories_nodes":[],"categories_segments":[],"categories_sizes":[],"default_left":[0,0,0,0,0,0,0,0,0,0,0,0,0,0,0],"id":2,"left_children":[1,3,5,7,9,11,13,-1,-1,-1,-1,-1,-1,-1,-1],"loss_changes":[6.946807E2,1.3983438E2,1.1521146E2,8.111868E-1,6.813681E1,4.999581E1,2.5522675E1,0E0,0E0,0E0,0E0,0E0,0E0,0E0,0E0],"parents":[2147483647,0,0,1,1,2,2,3,3,4,4,5,5,6,6],"right_children":[2,4,6,8,10,12,14,-1,-1,-1,-1,-1,-1,-1,-1],"split_conditions":[3E0,7E0,9E0,4E0,2E0,2.3E1,1.2E1,2.1781102E-4,1.0066831E-2,5.2631017E-2,1.7938336E-2,-4.2940713E-2,-1.37772E-2,-4.9194314E-2,-8.377301E-2],"split_indices":[0,6,0,6,0,6,0,0,0,0,0,0,0,0,0],"split_type":[0,0,0,0,0,0,0,0,0,0,0,0,0,0,0],"sum_hessian":[2.9579443E3,1.4775997E3,1.4803447E3,1.3991061E2,1.3376891E3,1.0566161E3,4.2372867E2,9.8935905E1,4.0974712E1,9.450339E2,3.9265515E2,1.8884424E2,8.6777185E2,2.3565056E2,1.8807811E2],"tree_param":{"num_deleted":"0","num_feature":"9","num_nodes":"15","size_leaf_vector":"1"}},{"base_weights":[-2.5402587E-3,4.6515477E-1,-4.7080877E-1,-2.8270036E-3,5.784405E-1,-3.505138E-1,-1.1033832E0,-1.9789026E-4,4.1689295E-3,4.934384E-2,1.8590057E-2,-5.0886396E-2,-1.9724976E-2,-7.017054E-2,-9.921078E-2],"categories":[],"categories_nodes":[],"categories_segments":[],"categories_sizes":[],"default_left":[0,0,0,0,0,0,0,0,0,0,0,0,0,0,0],"id":3,"left_children":[1,3,5,7,9,11,13,-1,-1,-1,-1,-1,-1,-1,-1],"loss_changes":[6.437719E2,1.326871E2,1.11772675E2,1.0013878E-1,5.325891E1,4.440506E1,7.4355164E0,0E0,0E0,0E0,0E0,0E0,0E0,0E0,0E0],"parents":[2147483647,0,0,1,1,2,2,3,3,4,4,5,5,6,6],"right_children":[2,4,6,8,10,12,14,-1,-1,-1,-1,-1,-1,-1,-1],"split_conditions":[3E0,6E0,1.1E1,4E0,2E0,1.6E1,1.8E1,-1.9789026E-4,4.1689295E-3,4.934384E-2,1.8590057E-2,-5.0886396E-2,-1.9724976E-2,-7.017054E-2,-9.921078E-2],"split_indices":[0,6,0,6,0,6,0,0,0,0,0,0,0,0,0],"split_type":[0,0,0,0,0,0,0,0,0,0,0,0,0,0,0],"sum_hessian":[2.9395032E3,1.4706521E3,1.4688511E3,1.2466861E2,1.3459835E3,1.2341566E3,2.3469449E2,9.893873E1,2.572988E1,9.585178E2,3.874657E2,1.2758575E2,1.1065708E3,1.7759058E2,5.7103916E1],"tree_param":{"num_deleted":"0","num_feature":"9","num_nodes":"15","size_leaf_vector":"1"}},{"base_weights":[-7.2155683E-3,4.1190198E-1,-4.2361343E-1,-5.855724E-3,5.163362E-1,-2.3136465E-1,-7.9546964E-1,-4.099007E-4,1.6604908E-2,4.588602E-2,1.29918875E-2,-3.5939198E-2,-9.928196E-3,-4.3058287E-2,-7.752666E-2],"categories":[],"categories_nodes":[],"categories_segments":[],"categories_sizes":[],"default_left":[0,0,0,0,0,0,0,0,0,0,0,0,0,0,0],"id":4,"left_children":[1,3,5,7,9,11,13,-1,-1,-1,-1,-1,-1,-1,-1],"loss_changes":[5.1332074E2,1.1010452E2,1.05478424E2,1.5791423E0,6.177246E1,4.1853954E1,2.8298615E1,0E0,0E0,0E0,0E0,0E0,0E0,0E0,0E0],"parents":[2147483647,0,0,1,1,2,2,3,3,4,4,5,5,6,6],"right_children":[2,4,6,8,10,12,14,-1,-1,-1,-1,-1,-1,-1,-1],"split_conditions":[3E0,6E0,8E0,4E0,2E0,1.6E1,1.2E1,-4.099007E-4,1.6604908E-2,4.588602E-2,1.29918875E-2,-3.5939198E-2,-9.928196E-3,-4.3058287E-2,-7.752666E-2],"split_indices":[0,6,0,6,0,6,0,0,0,0,0,0,0,0,0],"split_type":[0,0,0,0,0,0,0,0,0,0,0,0,0,0,0],"sum_hessian":[2.9413323E3,1.4658789E3,1.4754532E3,1.2391796E2,1.3419609E3,9.7261536E2,5.0283795E2,9.719146E1,2.6726505E1,9.445021E2,3.974589E2,1.0911076E2,8.635046E2,3.1866776E2,1.8417018E2],"tree_param":{"num_deleted":"0","num_feature":"9","num_nodes":"15","size_leaf_vector":"1"}},{"base_weights":[-1.8334704E-3,2.6978767E-1,-5.618892E-1,-1.4605075E-1,3.6596975E-1,-4.441605E-1,-9.2630404E-1,-1.0223553E-2,4.783653E-3,4.3839205E-2,6.1151525E-3,-4.796626E-2,-2.4610477E-2,-7.149614E-2,-4.796626E-2],"categories":[],"categories_nodes":[],"categories_segments":[],"categories_sizes":[],"default_left":[0,0,0,0,0,0,0,0,0,0,0,0,0,0,0],"id":5,"left_children":[1,3,5,7,9,11,13,-1,-1,-1,-1,-1,-1,-1,-1],"loss_changes":[4.5099307E2,1.26116425E2,4.1539154E1,2.2585258E0,1.303884E2,2.5741272E1,6.2422028E0,0E0,0E0,0E0,0E0,0E0,0E0,0E0,0E0],"parents":[2147483647,0,0,1,1,2,2,3,3,4,4,5,5,6,6],"right_children":[2,4,6,8,10,12,14,-1,-1,-1,-1,-1,-1,-1,-1],"split_conditions":[5E0,9E0,1.1E1,6E0,2E0,2.4E1,6.3E1,-1.0223553E-2,4.783653E-3,4.3839205E-2,6.1151525E-3,-4.796626E-2,-2.4610477E-2,-7.149614E-2,-4.796626E-2],"split_indices":[0,6,0,6,0,6,6,0,0,0,0,0,0,0,0],"split_type":[0,0,0,0,0,0,0,0,0,0,0,0,0,0,0],"sum_hessian":[2.9646587E3,1.9964177E3,9.68241E2,1.985422E2,1.7978755E3,7.318201E2,2.3642091E2,1.4940454E2,4.913767E1,9.29472E2,8.684035E2,1.1855328E2,6.1326685E2,1.7684981E2,5.957111E1],"tree_param":{"num_deleted":"0","num_feature":"9","num_nodes":"15","size_leaf_vector":"1"}},{"base_weights":[-2.07106E-2,3.5036156E-1,-3.861895E-1,-1.7913967E-2,4.5762274E-1,-2.5205964E-1,-8.123044E-1,-1.2539778E-3,1.3468716E-2,4.0595155E-2,1.2191942E-2,-3.725274E-2,-1.2856429E-2,-4.971135E-2,-8.5699484E-2],"categories":[],"categories_nodes":[],"categories_segments":[],"categories_sizes":[],"default_left":[0,0,0,0,0,0,0,0,0,0,0,0,0,0,0],"id":6,"left_children":[1,3,5,7,9,11,13,-1,-1,-1,-1,-1,-1,-1,-1],"loss_changes":[3.9715378E2,1.0028731E2,8.432274E1,1.7321041E0,4.5588867E1,3.345571E1,1.486235E1,0E0,0E0,0E0,0E0,0E0,0E0,0E0,0E0],"parents":[2147483647,0,0,1,1,2,2,3,3,4,4,5,5,6,6],"right_children":[2,4,6,8,10,12,14,-1,-1,-1,-1,-1,-1,-1,-1],"split_conditions":[3E0,7E0,1E1,4E0,2E0,1.6E1,1.7E1,-1.2539778E-3,1.3468716E-2,4.0595155E-2,1.2191942E-2,-3.725274E-2,-1.2856429E-2,-4.971135E-2,-8.5699484E-2],"split_indices":[0,6,0,6,0,6,0,0,0,0,0,0,0,0,0],"split_type":[0,0,0,0,0,0,0,0,0,0,0,0,0,0,0],"sum_hessian":[2.928449E3,1.4531053E3,1.4753436E3,1.3810727E2,1.314998E3,1.1221287E3,3.5321497E2,9.8952835E1,3.915443E1,9.186182E2,3.9637985E2,1.2177874E2,1.0003499E3,2.8304236E2,7.0172615E1],"tree_param":{"num_deleted":"0","num_feature":"9","num_nodes":"15","size_leaf_vector":"1"}},{"base_weights":[-2.4879E-2,2.0842971E-1,-5.0242615E-1,-1.4699823E-1,3.1161943E-1,-3.9158404E-1,-8.622862E-1,-1.0289876E-2,2.2820835E-3,3.6992226E-2,5.4843E-3,-4.388546E-2,-1.973039E-2,-8.148708E-2,-4.9545202E-2],"categories":[],"categories_nodes":[],"categories_segments":[],"categories_sizes":[],"default_left":[0,0,0,0,0,0,0,0,0,0,0,0,0,0,0],"id":7,"left_children":[1,3,5,7,9,11,13,-1,-1,-1,-1,-1,-1,-1,-1],"loss_changes":[3.2789926E2,1.2301191E2,3.852806E1,1.5332642E0,8.965019E1,3.0097717E1,1.0605331E1,0E0,0E0,0E0,0E0,0E0,0E0,0E0,0E0],"parents":[2147483647,0,0,1,1,2,2,3,3,4,4,5,5,6,6],"right_children":[2,4,6,8,10,12,14,-1,-1,-1,-1,-1,-1,-1,-1],"split_conditions":[5E0,9E0,1.1E1,6E0,2E0,2.6E1,-1.5653247E-2,-1.0289876E-2,2.2820835E-3,3.6992226E-2,5.4843E-3,-4.388546E-2,-1.973039E-2,-8.148708E-2,-4.9545202E-2],"split_indices":[0,6,0,6,0,6,7,0,0,0,0,0,0,0,0],"split_type":[0,0,0,0,0,0,0,0,0,0,0,0,0,0,0],"sum_hessian":[2.943018E3,1.9770958E3,9.6592224E2,2.047564E2,1.7723395E3,7.384664E2,2.2745583E2,1.5722266E2,4.753375E1,9.1851843E2,8.53821E2,1.4218773E2,5.962787E2,7.7009094E1,1.5044673E2],"tree_param":{"num_deleted":"0","num_feature":"9","num_nodes":"15","size_leaf_vector":"1"}},{"base_weights":[-1.4884026E-2,1.9800948E-1,-4.626824E-1,3.8288015E-1,-6.944423E-4,-3.6681163E-1,-8.853292E-1,1.33764995E-2,2.9820848E-2,-7.932427E-3,1.0287897E-2,-4.1971005E-2,-1.4681965E-2,-5.515316E-2,-8.526067E-2],"categories":[],"categories_nodes":[],"categories_segments":[],"categories_sizes":[],"default_left":[0,0,0,0,0,0,0,0,0,0,0,0,0,0,0],"id":8,"left_children":[1,3,5,7,9,11,13,-1,-1,-1,-1,-1,-1,-1,-1],"loss_changes":[2.7747556E2,7.24666E1,3.800168E1,1.006427E1,1.5812376E1,2.795005E1,5.619339E0,0E0,0E0,0E0,0E0,0E0,0E0,0E0,0E0],"parents":[2147483647,0,0,1,1,2,2,3,3,4,4,5,5,6,6],"right_children":[2,4,6,8,10,12,14,-1,-1,-1,-1,-1,-1,-1,-1],"split_conditions":[5E0,2E0,1.2E1,-2.0689357E2,-2.8449786E0,-2.4046753E2,1.9E1,1.33764995E-2,2.9820848E-2,-7.932427E-3,1.0287897E-2,-4.1971005E-2,-1.4681965E-2,-5.515316E-2,-8.526067E-2],"split_indices":[0,0,0,1,1,1,0,0,0,0,0,0,0,0,0],"split_type":[0,0,0,0,0,0,0,0,0,0,0,0,0,0,0],"sum_hessian":[2.9105796E3,1.9727094E3,9.378701E2,1.0219261E3,9.5078326E2,7.644654E2,1.7340474E2,1.5844218E2,8.634839E2,5.3938574E2,4.1139752E2,3.080045E2,4.564609E2,1.3412852E2,3.927622E1],"tree_param":{"num_deleted":"0","num_feature":"9","num_nodes":"15","size_leaf_vector":"1"}},{"base_weights":[-1.3448309E-2,-8.260916E-1,3.4115445E-2,-1.0980608E0,-4.965483E-1,-2.7820078E-1,1.6090472E-1,-6.6611886E-2,-1.2274E-1,-2.5370607E-2,-7.05319E-2,-3.2115806E-2,-9.298377E-3,4.868518E-3,2.0797435E-2],"categories":[],"categories_nodes":[],"categories_segments":[],"categories_sizes":[],"default_left":[0,0,0,0,0,0,0,0,0,0,0,0,0,0,0],"id":9,"left_children":[1,3,5,7,9,11,13,-1,-1,-1,-1,-1,-1,-1,-1],"loss_changes":[1.13448555E2,1.4544884E1,1.0979866E2,8.532463E0,5.028944E0,2.1018742E1,2.4539001E1,0E0,0E0,0E0,0E0,0E0,0E0,0E0,0E0],"parents":[2147483647,0,0,1,1,2,2,3,3,4,4,5,5,6,6],"right_children":[2,4,6,8,10,12,14,-1,-1,-1,-1,-1,-1,-1,-1],"split_conditions":[6E0,3E0,-2.1256584E2,1.9821477E-1,1.6716564E-1,2.3014206E-3,4E1,-6.6611886E-2,-1.2274E-1,-2.5370607E-2,-7.05319E-2,-3.2115806E-2,-9.298377E-3,4.868518E-3,2.0797435E-2],"split_indices":[6,6,1,8,8,7,6,0,0,0,0,0,0,0,0],"split_type":[0,0,0,0,0,0,0,0,0,0,0,0,0,0,0],"sum_hessian":[2.9350967E3,1.6229042E2,2.7728064E3,8.891056E1,7.337985E1,8.00632E2,1.9721743E3,7.267244E1,1.6238121E1,5.8127796E1,1.5252055E1,3.5704935E2,4.4358267E2,1.1804276E3,7.917467E2],"tree_param":{"num_deleted":"0","num_feature":"9","num_nodes":"15","size_leaf_vector":"1"}},{"base_weights":[4.4546523E-3,2.0812464E-1,-4.2806917E-1,-7.6980586E-3,2.8590754E-1,-3.421846E-1,-8.020746E-1,3.3121843E-2,6.2976168E-3,-4.0049072E-2,-1.4178056E-2,-5.310631E-2,-9.624601E-2],"categories":[],"categories_nodes":[],"categories_segments":[],"categories_sizes":[],"default_left":[0,0,0,0,0,0,0,0,0,0,0,0,0],"id":10,"left_children":[1,3,5,-1,7,9,11,-1,-1,-1,-1,-1,-1],"loss_changes":[2.565053E2,8.634664E1,2.9942307E1,0E0,6.7113144E1,3.074379E1,4.328247E0,0E0,0E0,0E0,0E0,0E0,0E0],"parents":[2147483647,0,0,1,1,2,2,4,4,5,5,6,6],"right_children":[2,4,6,-1,8,10,12,-1,-1,-1,-1,-1,-1],"split_conditions":[5E0,6E0,1.2E1,-7.6980586E-3,2E0,3.2E1,2.5E1,3.3121843E-2,6.2976168E-3,-4.0049072E-2,-1.4178056E-2,-5.310631E-2,-9.624601E-2],"split_indices":[0,6,0,0,0,6,0,0,0,0,0,0,0],"split_type":[0,0,0,0,0,0,0,0,0,0,0,0,0],"sum_hessian":[2.9117822E3,1.9796097E3,9.321725E2,1.5053137E2,1.8290784E3,7.580909E2,1.740816E2,9.352535E2,8.9382495E2,2.3956134E2,5.1852954E2,1.6182118E2,1.2260424E1],"tree_param":{"num_deleted":"0","num_feature":"9","num_nodes":"13","size_leaf_vector":"1"}},{"base_weights":[-3.277229E-2,1.9757198E-1,-3.8213533E-1,-9.228168E-2,2.7514964E-1,-2.3493192E-1,-5.809332E-1,-6.459717E-3,3.939063E-3,2.8541666E-2,6.7866873E-3,-2.8555281E-2,-1.1165591E-2,-5.995337E-2,-3.58213E-2],"categories":[],"categories_nodes":[],"categories_segments":[],"categories_sizes":[],"default_left":[0,0,0,0,0,0,0,0,0,0,0,0,0,0,0],"id":11,"left_children":[1,3,5,7,9,11,13,-1,-1,-1,-1,-1,-1,-1,-1],"loss_changes":[2.325048E2,6.965652E1,3.359491E1,6.592331E-1,3.7791267E1,1.5272156E1,9.312393E0,0E0,0E0,0E0,0E0,0E0,0E0,0E0,0E0],"parents":[2147483647,0,0,1,1,2,2,3,3,4,4,5,5,6,6],"right_children":[2,4,6,8,10,12,14,-1,-1,-1,-1,-1,-1,-1,-1],"split_conditions":[4E0,6E0,8E0,4E0,2E0,2.1E1,2.9E1,-6.459717E-3,3.939063E-3,2.8541666E-2,6.7866873E-3,-2.8555281E-2,-1.1165591E-2,-5.995337E-2,-3.58213E-2],"split_indices":[0,6,0,6,0,6,6,0,0,0,0,0,0,0,0],"split_type":[0,0,0,0,0,0,0,0,0,0,0,0,0,0,0],"sum_hessian":[2.8891973E3,1.741187E3,1.1480101E3,1.416812E2,1.5995059E3,6.5960016E2,4.8841E2,1.1180977E2,2.9871422E1,9.171178E2,6.823881E2,9.225217E1,5.6734796E2,9.803577E1,3.9037424E2],"tree_param":{"num_deleted":"0","num_feature":"9","num_nodes":"15","size_leaf_vector":"1"}},{"base_weights":[-4.034756E-2,2.1235822E-1,-2.913487E-1,2.9585874E-1,1.54780075E-2,-1.8517038E-1,-6.4832866E-1,1.1847147E-2,2.7279947E-2,-2.7646667E-3,1.0475123E-2,-2.593335E-2,-4.9452996E-3,-5.398136E-2,-3.390716E-2],"categories":[],"categories_nodes":[],"categories_segments":[],"categories_sizes":[],"default_left":[0,0,0,0,0,0,0,0,0,0,0,0,0,0,0],"id":12,"left_children":[1,3,5,7,9,11,13,-1,-1,-1,-1,-1,-1,-1,-1],"loss_changes":[1.810698E2,2.338536E1,5.4283905E1,1.1869743E1,7.7105646E0,2.3425571E1,6.6110535E0,0E0,0E0,0E0,0E0,0E0,0E0,0E0,0E0],"parents":[2147483647,0,0,1,1,2,2,3,3,4,4,5,5,6,6],"right_children":[2,4,6,8,10,12,14,-1,-1,-1,-1,-1,-1,-1,-1],"split_conditions":[3E0,2E0,1E1,-8.464747E0,-4.5057804E1,1.0573788E-3,1E0,1.1847147E-2,2.7279947E-2,-2.7646667E-3,1.0475123E-2,-2.593335E-2,-4.9452996E-3,-5.398136E-2,-3.390716E-2],"split_indices":[0,0,0,1,1,7,2,0,0,0,0,0,0,0,0],"split_type":[0,0,0,0,0,0,0,0,0,0,0,0,0,0,0],"sum_hessian":[2.8546624E3,1.4225009E3,1.4321615E3,9.988637E2,4.2363715E2,1.103842E3,3.2831943E2,4.2522366E2,5.7364E2,1.7231468E2,2.5132245E2,4.216241E2,6.822179E2,1.8768835E2,1.4063109E2],"tree_param":{"num_deleted":"0","num_feature":"9","num_nodes":"15","size_leaf_vector":"1"}},{"base_weights":[-9.86776E-3,2.1653163E-1,-2.3528923E-1,-9.378798E-3,3.0702773E-1,-7.985131E-1,-1.7676386E-1,-6.565159E-4,8.525265E-3,3.942036E-3,2.6010878E-2,-9.1089524E-2,-4.3053634E-2,-4.427584E-3,-3.841121E-2],"categories":[],"categories_nodes":[],"categories_segments":[],"categories_sizes":[],"default_left":[0,0,0,0,0,0,0,0,0,0,0,0,0,0,0],"id":13,"left_children":[1,3,5,7,9,11,13,-1,-1,-1,-1,-1,-1,-1,-1],"loss_changes":[1.4614612E2,5.604287E1,4.729873E1,8.471873E-1,2.0848343E1,1.245752E1,5.4883434E1,0E0,0E0,0E0,0E0,0E0,0E0,0E0,0E0],"parents":[2147483647,0,0,1,1,2,2,3,3,4,4,5,5,6,6],"right_children":[2,4,6,8,10,12,14,-1,-1,-1,-1,-1,-1,-1,-1],"split_conditions":[3E0,7E0,1.6E1,3E0,-1.6208965E2,6E0,1E1,-6.565159E-4,8.525265E-3,3.942036E-3,2.6010878E-2,-9.1089524E-2,-4.3053634E-2,-4.427584E-3,-3.841121E-2],"split_indices":[0,6,6,6,1,6,0,0,0,0,0,0,0,0,0],"split_type":[0,0,0,0,0,0,0,0,0,0,0,0,0,0,0],"sum_hessian":[2.8636262E3,1.4287141E3,1.4349122E3,1.4059117E2,1.2881229E3,1.3506714E2,1.2998451E3,9.13522E1,4.9238976E1,2.6376358E2,1.0243594E3,3.6108006E1,9.895914E1,9.9592267E2,3.0392242E2],"tree_param":{"num_deleted":"0","num_feature":"9","num_nodes":"15","size_leaf_vector":"1"}},{"base_weights":[-1.1344455E-2,1.8816106E-1,-3.1777695E-1,-6.4807944E-2,2.7015707E-1,-2.4159656E-1,-6.617892E-1,-4.536556E-3,3.8058145E-3,2.7585514E-2,7.0875464E-3,-3.1618502E-2,-1.2115894E-2,-3.9324883E-2,-7.775356E-2],"categories":[],"categories_nodes":[],"categories_segments":[],"categories_sizes":[],"default_left":[0,0,0,0,0,0,0,0,0,0,0,0,0,0,0],"id":14,"left_children":[1,3,5,7,9,11,13,-1,-1,-1,-1,-1,-1,-1,-1],"loss_changes":[1.762902E2,6.835838E1,2.9799599E1,4.199543E-1,3.3602127E1,2.0264938E1,9.255547E0,0E0,0E0,0E0,0E0,0E0,0E0,0E0,0E0],"parents":[2147483647,0,0,1,1,2,2,3,3,4,4,5,5,6,6],"right_children":[2,4,6,8,10,12,14,-1,-1,-1,-1,-1,-1,-1,-1],"split_conditions":[4E0,6E0,1.1E1,4E0,2E0,2.3E1,1.9E1,-4.536556E-3,3.8058145E-3,2.7585514E-2,7.0875464E-3,-3.1618502E-2,-1.2115894E-2,-3.9324883E-2,-7.775356E-2],"split_indices":[0,6,0,6,0,6,0,0,0,0,0,0,0,0,0],"split_type":[0,0,0,0,0,0,0,0,0,0,0,0,0,0,0],"sum_hessian":[2.88362E3,1.7465282E3,1.1370919E3,1.4116306E2,1.6053651E3,9.3094025E2,2.0615167E2,1.1159641E2,2.9566648E1,9.2599097E2,6.793742E2,1.4048602E2,7.904542E2,1.6860019E2,3.7551487E1],"tree_param":{"num_deleted":"0","num_feature":"9","num_nodes":"15","size_leaf_vector":"1"}},{"base_weights":[-3.1857193E-2,9.26931E-2,-3.9639586E-1,-1.5185139E-1,1.6744325E-1,-6.211808E-1,-2.234618E-1,-1.0629597E-2,-1.2215971E-3,2.3347622E-2,1.858238E-3,-6.2041894E-2,-3.713821E-2,-1.226678E-2,-6.1748434E-2],"categories":[],"categories_nodes":[],"categories_segments":[],"categories_sizes":[],"default_left":[0,0,0,0,0,0,0,0,0,0,0,0,0,0,0],"id":15,"left_children":[1,3,5,7,9,11,13,-1,-1,-1,-1,-1,-1,-1,-1],"loss_changes":[1.2859822E2,7.1302284E1,2.8038124E1,3.17791E-1,4.534678E1,7.535866E0,1.2947834E1,0E0,0E0,0E0,0E0,0E0,0E0,0E0,0E0],"parents":[2147483647,0,0,1,1,2,2,3,3,4,4,5,5,6,6],"right_children":[2,4,6,8,10,12,14,-1,-1,-1,-1,-1,-1,-1,-1],"split_conditions":[6E0,7E0,3.6E1,6E0,2E0,2.1E1,1.9E1,-1.0629597E-2,-1.2215971E-3,2.3347622E-2,1.858238E-3,-6.2041894E-2,-3.713821E-2,-1.226678E-2,-6.1748434E-2],"split_indices":[0,6,6,6,0,6,0,0,0,0,0,0,0,0,0],"split_type":[0,0,0,0,0,0,0,0,0,0,0,0,0,0,0],"sum_hessian":[2.8323452E3,2.1110671E3,7.21278E2,1.7335141E2,1.9377158E3,3.1362097E2,4.0765707E2,1.5575761E2,1.75938E1,8.8933527E2,1.0483805E3,7.9895294E1,2.3372566E2,3.7984885E2,2.7808237E1],"tree_param":{"num_deleted":"0","num_feature":"9","num_nodes":"15","size_leaf_vector":"1"}},{"base_weights":[-8.622513E-4,1.3476913E-1,-2.916497E-1,2.606556E-1,3.1730693E-3,-2.2441335E-1,-5.4613054E-1,2.0752037E-2,9.234005E-3,-5.49082E-3,8.688598E-3,-2.511628E-2,-8.1182085E-3,-4.7418505E-2,-2.6969036E-2],"categories":[],"categories_nodes":[],"categories_segments":[],"categories_sizes":[],"default_left":[0,0,0,0,0,0,0,0,0,0,0,0,0,0,0],"id":16,"left_children":[1,3,5,7,9,11,13,-1,-1,-1,-1,-1,-1,-1,-1],"loss_changes":[1.1150786E2,3.1939709E1,1.538681E1,6.971901E0,1.1461627E1,1.0366402E1,4.499134E0,0E0,0E0,0E0,0E0,0E0,0E0,0E0,0E0],"parents":[2147483647,0,0,1,1,2,2,3,3,4,4,5,5,6,6],"right_children":[2,4,6,8,10,12,14,-1,-1,-1,-1,-1,-1,-1,-1],"split_conditions":[5E0,2E0,1.1E1,1.9821477E-1,5.2732065E-2,-1.8746823E2,1E0,2.0752037E-2,9.234005E-3,-5.49082E-3,8.688598E-3,-2.511628E-2,-8.1182085E-3,-4.7418505E-2,-2.6969036E-2],"split_indices":[0,0,0,8,7,1,2,0,0,0,0,0,0,0,0],"split_type":[0,0,0,0,0,0,0,0,0,0,0,0,0,0,0],"sum_hessian":[2.827283E3,1.9280071E3,8.992758E2,9.8537933E2,9.426278E2,7.1133606E2,1.8793973E2,8.607321E2,1.2464721E2,5.1027582E2,4.3235202E2,3.1765582E2,3.9368024E2,1.0970147E2,7.8238266E1],"tree_param":{"num_deleted":"0","num_feature":"9","num_nodes":"15","size_leaf_vector":"1"}},{"base_weights":[-7.3771277E-3,1.2501907E-1,-2.9729348E-1,-8.6137205E-2,2.0112526E-1,-8.2296205E-1,-2.2587773E-1,-6.0296045E-3,-1.7074225E-3,2.795501E-3,1.7577581E-2,-4.849876E-2,-7.651403E-2,-1.04674585E-2,-4.0116753E-2],"categories":[],"categories_nodes":[],"categories_segments":[],"categories_sizes":[],"default_left":[0,0,0,0,0,0,0,0,0,0,0,0,0,0,0],"id":17,"left_children":[1,3,5,7,9,11,13,-1,-1,-1,-1,-1,-1,-1,-1],"loss_changes":[1.0827772E2,5.9546356E1,3.3199814E1,3.768921E-2,1.4243973E1,3.716713E0,2.0638477E1,0E0,0E0,0E0,0E0,0E0,0E0,0E0,0E0],"parents":[2147483647,0,0,1,1,2,2,3,3,4,4,5,5,6,6],"right_children":[2,4,6,8,10,12,14,-1,-1,-1,-1,-1,-1,-1,-1],"split_conditions":[5E0,7E0,2.1E1,7.2307935E2,-1.6208965E2,7.32E1,1.2E1,-6.0296045E-3,-1.7074225E-3,2.795501E-3,1.7577581E-2,-4.849876E-2,-7.651403E-2,-1.04674585E-2,-4.0116753E-2],"split_indices":[0,6,6,1,1,5,0,0,0,0,0,0,0,0,0],"split_type":[0,0,0,0,0,0,0,0,0,0,0,0,0,0,0],"sum_hessian":[2.8209175E3,1.936552E3,8.8436536E2,1.6859517E2,1.7679569E3,1.0577525E2,7.785901E2,1.5870784E2,9.887326E0,4.1846332E2,1.3494935E3,7.138741E1,3.438784E1,6.3825854E2,1.4033153E2],"tree_param":{"num_deleted":"0","num_feature":"9","num_nodes":"15","size_leaf_vector":"1"}},{"base_weights":[-1.5183203E-2,1.549153E-1,-1.887801E-1,5.0442506E-2,2.4531233E-1,-1.4395356E-1,-5.634775E-1,8.199446E-3,-1.1852678E-3,1.3421081E-2,3.0083012E-2,-1.5972726E-2,-1.1852678E-3,-5.3947594E-2,-3.223061E-2],"categories":[],"categories_nodes":[],"categories_segments":[],"categories_sizes":[],"default_left":[0,0,0,0,0,0,0,0,0,0,0,0,0,0,0],"id":18,"left_children":[1,3,5,7,9,11,13,-1,-1,-1,-1,-1,-1,-1,-1],"loss_changes":[8.255031E1,1.3335255E1,2.323899E1,4.788797E0,7.4814835E0,1.8299515E1,3.155922E0,0E0,0E0,0E0,0E0,0E0,0E0,0E0,0E0],"parents":[2147483647,0,0,1,1,2,2,3,3,4,4,5,5,6,6],"right_children":[2,4,6,8,10,12,14,-1,-1,-1,-1,-1,-1,-1,-1],"split_conditions":[3E0,-8.464747E0,1.2E1,2E0,7.88E1,1.00691676E-1,-5.2627905E2,8.199446E-3,-1.1852678E-3,1.3421081E-2,3.0083012E-2,-1.5972726E-2,-1.1852678E-3,-5.3947594E-2,-3.223061E-2],"split_indices":[0,1,0,0,5,7,1,0,0,0,0,0,0,0,0],"split_type":[0,0,0,0,0,0,0,0,0,0,0,0,0,0,0],"sum_hessian":[2.795605E3,1.4120304E3,1.3835746E3,6.5501953E2,7.5701086E2,1.2357397E3,1.4783484E2,4.318537E2,2.2316583E2,5.866014E2,1.7040952E2,8.568345E2,3.789052E2,4.9097557E1,9.873728E1],"tree_param":{"num_deleted":"0","num_feature":"9","num_nodes":"15","size_leaf_vector":"1"}},{"base_weights":[-2.770386E-2,-8.1436145E-1,1.955879E-2,-1.0666524E0,-5.0162125E-1,1.4422339E-1,-3.2126546E-1,-6.732395E-2,-1.120332E-1,-5.42582E-3,-6.478827E-2,1.8898252E-2,2.7171033E-3,-3.1831913E-2,-1.0352118E-2],"categories":[],"categories_nodes":[],"categories_segments":[],"categories_sizes":[],"default_left":[0,0,0,0,0,0,0,0,0,0,0,0,0,0,0],"id":19,"left_children":[1,3,5,7,9,11,13,-1,-1,-1,-1,-1,-1,-1,-1],"loss_changes":[1.04093124E2,1.2519203E1,1.12215614E2,4.91539E0,1.2738525E1,2.5632225E1,1.6368515E1,0E0,0E0,0E0,0E0,0E0,0E0,0E0,0E0],"parents":[2147483647,0,0,1,1,2,2,3,3,4,4,5,5,6,6],"right_children":[2,4,6,8,10,12,14,-1,-1,-1,-1,-1,-1,-1,-1],"split_conditions":[6E0,3E0,6E0,1.9821477E-1,3E0,2E0,4E1,-6.732395E-2,-1.120332E-1,-5.42582E-3,-6.478827E-2,1.8898252E-2,2.7171033E-3,-3.1831913E-2,-1.0352118E-2],"split_indices":[6,6,0,8,0,0,6,0,0,0,0,0,0,0,0],"split_type":[0,0,0,0,0,0,0,0,0,0,0,0,0,0,0],"sum_hessian":[2.7997407E3,1.5867503E2,2.6410657E3,8.7823784E1,7.085124E1,1.933751E3,7.073148E2,7.340492E1,1.4418867E1,3.5418625E1,3.5432617E1,8.817812E2,1.0519697E3,3.996443E2,3.0767053E2],"tree_param":{"num_deleted":"0","num_feature":"9","num_nodes":"15","size_leaf_vector":"1"}},{"base_weights":[-1.9497013E-2,6.77075E-2,-2.8026086E-1,1.7247654E-1,-2.1851944E-2,-2.513822E-1,-8.6459786E-1,1.6198205E-2,5.2718613E-3,-6.9222823E-3,5.2718613E-3,-3.313686E-2,-1.3125134E-2,-5.207403E-2,-8.21755E-2],"categories":[],"categories_nodes":[],"categories_segments":[],"categories_sizes":[],"default_left":[0,0,0,0,0,0,0,0,0,0,0,0,0,0,0],"id":20,"left_children":[1,3,5,7,9,11,13,-1,-1,-1,-1,-1,-1,-1,-1],"loss_changes":[6.3586056E1,1.966201E1,1.1825153E1,6.812559E0,9.714774E0,9.469868E0,1.2310123E0,0E0,0E0,0E0,0E0,0E0,0E0,0E0,0E0],"parents":[2147483647,0,0,1,1,2,2,3,3,4,4,5,5,6,6],"right_children":[2,4,6,8,10,12,14,-1,-1,-1,-1,-1,-1,-1,-1],"split_conditions":[6E0,2E0,1.9E1,1.1088164E-1,7.08211E-2,-5.382282E2,2.5E1,1.6198205E-2,5.2718613E-3,-6.9222823E-3,5.2718613E-3,-3.313686E-2,-1.3125134E-2,-5.207403E-2,-8.21755E-2],"split_indices":[0,0,0,8,7,1,0,0,0,0,0,0,0,0,0],"split_type":[0,0,0,0,0,0,0,0,0,0,0,0,0,0,0],"sum_hessian":[2.7962449E3,2.0954773E3,7.0076764E2,9.657343E2,1.1297428E3,6.677674E2,3.3000214E1,6.5382355E2,3.1191077E2,6.7159735E2,4.5814548E2,1.4921097E2,5.1855646E2,2.3741716E1,9.258498E0],"tree_param":{"num_deleted":"0","num_feature":"9","num_nodes":"15","size_leaf_vector":"1"}},{"base_weights":[-9.799172E-3,-8.7452084E-1,1.7950557E-2,-1.071975E0,-5.8666205E-1,-1.8097322E-1,1.278889E-1,-9.5899805E-2,-6.7355774E-2,-2.6114345E-2,-5.8052298E-2,-2.2380797E-2,-5.640287E-3,3.5652062E-3,1.5245382E-2],"categories":[],"categories_nodes":[],"categories_segments":[],"categories_sizes":[],"default_left":[0,0,0,0,0,0,0,0,0,0,0,0,0,0,0],"id":21,"left_children":[1,3,5,7,9,11,13,-1,-1,-1,-1,-1,-1,-1,-1],"loss_changes":[6.717595E1,4.9468E0,5.931937E1,1.6871567E0,2.1699162E0,1.3449577E1,1.2086573E1,0E0,0E0,0E0,0E0,0E0,0E0,0E0,0E0],"parents":[2147483647,0,0,1,1,2,2,3,3,4,4,5,5,6,6],"right_children":[2,4,6,8,10,12,14,-1,-1,-1,-1,-1,-1,-1,-1],"split_conditions":[3E0,5.994453E0,-1.2853534E2,5.68E1,7.05E1,-4.866976E-3,3.7E1,-9.5899805E-2,-6.7355774E-2,-2.6114345E-2,-5.8052298E-2,-2.2380797E-2,-5.640287E-3,3.5652062E-3,1.5245382E-2],"split_indices":[6,1,1,5,5,7,6,0,0,0,0,0,0,0,0],"split_type":[0,0,0,0,0,0,0,0,0,0,0,0,0,0,0],"sum_hessian":[2.7994841E3,8.704367E1,2.7124404E3,5.162725E1,3.541642E1,9.65483E2,1.7469576E3,1.3891631E1,3.773562E1,2.0444523E1,1.4971898E1,4.0531857E2,5.6016437E2,9.4124396E2,8.057136E2],"tree_param":{"num_deleted":"0","num_feature":"9","num_nodes":"15","size_leaf_vector":"1"}},{"base_weights":[-1.8926447E-2,-6.6120154E-1,3.08182E-2,-9.688807E-1,-4.2586184E-1,1.00800596E-1,-3.1716627E-1,-6.1254043E-2,-1.0517042E-1,-1.3591743E-2,-7.330296E-2,1.5896035E-2,1.1428347E-3,-1.8155074E-2,-5.3454597E-2],"categories":[],"categories_nodes":[],"categories_segments":[],"categories_sizes":[],"default_left":[0,0,0,0,0,0,0,0,0,0,0,0,0,0,0],"id":22,"left_children":[1,3,5,7,9,11,13,-1,-1,-1,-1,-1,-1,-1,-1],"loss_changes":[8.854172E1,1.442408E1,6.2637154E1,4.320366E0,1.6248978E1,2.284442E1,1.111483E1,0E0,0E0,0E0,0E0,0E0,0E0,0E0,0E0],"parents":[2147483647,0,0,1,1,2,2,3,3,4,4,5,5,6,6],"right_children":[2,4,6,8,10,12,14,-1,-1,-1,-1,-1,-1,-1,-1],"split_conditions":[8E0,3E0,8E0,2.086772E-1,4E0,2E0,1.7E1,-6.1254043E-2,-1.0517042E-1,-1.3591743E-2,-7.330296E-2,1.5896035E-2,1.1428347E-3,-1.8155074E-2,-5.3454597E-2],"split_indices":[6,6,0,8,0,0,0,0,0,0,0,0,0,0,0],"split_type":[0,0,0,0,0,0,0,0,0,0,0,0,0,0,0],"sum_hessian":[2.7712776E3,1.9920753E2,2.57207E3,8.633325E1,1.12874275E2,2.1414155E3,4.3065454E2,7.342487E1,1.290838E1,8.221681E1,3.0657465E1,8.582965E2,1.283119E3,3.8128802E2,4.9366497E1],"tree_param":{"num_deleted":"0","num_feature":"9","num_nodes":"15","size_leaf_vector":"1"}},{"base_weights":[-2.2174995E-2,-7.3765624E-1,2.1596354E-2,-9.2600155E-1,-5.057565E-1,1.860621E-1,-1.3220584E-1,-7.8141235E-2,-4.671303E-2,-7.7841417E-3,-6.516245E-2,1.7892754E-2,3.1873195E-3,-3.1891137E-3,-2.1627804E-2],"categories":[],"categories_nodes":[],"categories_segments":[],"categories_sizes":[],"default_left":[0,0,0,0,0,0,0,0,0,0,0,0,0,0,0],"id":23,"left_children":[1,3,5,7,9,11,13,-1,-1,-1,-1,-1,-1,-1,-1],"loss_changes":[8.6856125E1,6.9829407E0,6.6109276E1,4.342247E0,1.2020254E1,1.2343777E1,2.0684807E1,0E0,0E0,0E0,0E0,0E0,0E0,0E0,0E0],"parents":[2147483647,0,0,1,1,2,2,3,3,4,4,5,5,6,6],"right_children":[2,4,6,8,10,12,14,-1,-1,-1,-1,-1,-1,-1,-1],"split_conditions":[6E0,3E0,3E0,5.994453E0,3E0,1.0856516E-1,8E0,-7.8141235E-2,-4.671303E-2,-7.7841417E-3,-6.516245E-2,1.7892754E-2,3.1873195E-3,-3.1891137E-3,-2.1627804E-2],"split_indices":[6,6,0,1,0,8,0,0,0,0,0,0,0,0,0],"split_type":[0,0,0,0,0,0,0,0,0,0,0,0,0,0,0],"sum_hessian":[2.7733955E3,1.5988683E2,2.6135085E3,8.822686E1,7.1659966E1,1.2629716E3,1.3505371E3,5.082891E1,3.7397953E1,3.7167503E1,3.4492462E1,8.4484924E2,4.1812228E2,9.062872E2,4.4424994E2],"tree_param":{"num_deleted":"0","num_feature":"9","num_nodes":"15","size_leaf_vector":"1"}},{"base_weights":[-2.5036208E-2,-8.4881777E-1,4.394952E-4,-7.5764096E-1,-9.648253E-2,-1.5551013E-1,8.322494E-2,-5.760015E-2,-2.7517265E-2,-1.904773E-2,-2.5299818E-3,8.531849E-3,-2.5299818E-3],"categories":[],"categories_nodes":[],"categories_segments":[],"categories_sizes":[],"default_left":[0,0,0,0,0,0,0,0,0,0,0,0,0],"id":24,"left_children":[1,3,5,7,-1,9,11,-1,-1,-1,-1,-1,-1],"loss_changes":[5.842116E1,4.030369E0,3.4861263E1,1.693367E0,0E0,1.5557426E1,1.4296915E1,0E0,0E0,0E0,0E0,0E0,0E0],"parents":[2147483647,0,0,1,1,2,2,3,3,5,5,6,6],"right_children":[2,4,6,8,-1,10,12,-1,-1,-1,-1,-1,-1],"split_conditions":[3E0,2.086772E-1,-1.3849504E2,8.29E1,-9.648253E-2,4.5E1,2.0459545E-1,-5.760015E-2,-2.7517265E-2,-1.904773E-2,-2.5299818E-3,8.531849E-3,-2.5299818E-3],"split_indices":[6,8,1,5,0,6,8,0,0,0,0,0,0],"split_type":[0,0,0,0,0,0,0,0,0,0,0,0,0],"sum_hessian":[2.7837573E3,8.350504E1,2.7002522E3,7.1240715E1,1.2264329E1,9.363579E2,1.7638943E3,6.042819E1,1.0812523E1,5.190149E2,4.1734308E2,1.5789496E3,1.8494476E2],"tree_param":{"num_deleted":"0","num_feature":"9","num_nodes":"13","size_leaf_vector":"1"}},{"base_weights":[-2.1456895E-2,-5.9896964E-1,1.7021077E-2,-8.343029E-1,-3.7909743E-1,1.7414188E-1,-1.3107245E-1,-4.7743764E-2,-8.4710576E-2,-4.3601225E-4,-4.3137576E-2,1.7749336E-2,1.5074303E-3,-6.321782E-3,-3.3645995E-2],"categories":[],"categories_nodes":[],"categories_segments":[],"categories_sizes":[],"default_left":[0,0,0,0,0,0,0,0,0,0,0,0,0,0,0],"id":25,"left_children":[1,3,5,7,9,11,13,-1,-1,-1,-1,-1,-1,-1,-1],"loss_changes":[6.0751778E1,8.836063E0,5.964066E1,4.7191315E0,7.807187E0,1.53660965E1,1.8801846E1,0E0,0E0,0E0,0E0,0E0,0E0,0E0,0E0],"parents":[2147483647,0,0,1,1,2,2,3,3,4,4,5,5,6,6],"right_children":[2,4,6,8,10,12,14,-1,-1,-1,-1,-1,-1,-1,-1],"split_conditions":[7E0,3E0,3E0,1.2380304E-1,2E0,1.0707655E-1,1.2E1,-4.7743764E-2,-8.4710576E-2,-4.3601225E-4,-4.3137576E-2,1.7749336E-2,1.5074303E-3,-6.321782E-3,-3.3645995E-2],"split_indices":[6,6,0,8,0,8,0,0,0,0,0,0,0,0,0],"split_type":[0,0,0,0,0,0,0,0,0,0,0,0,0,0,0],"sum_hessian":[2.7339128E3,1.7077336E2,2.5631394E3,8.248495E1,8.828842E1,1.2436649E3,1.3194746E3,5.870706E1,2.3777884E1,3.4323692E1,5.3964725E1,8.2341144E2,4.2025345E2,1.1816918E3,1.3778278E2],"tree_param":{"num_deleted":"0","num_feature":"9","num_nodes":"15","size_leaf_vector":"1"}},{"base_weights":[-2.5564667E-2,-6.380443E-1,2.1351012E-4,-5.49498E-1,-7.975725E-2,1.4109577E-1,-1.3296176E-1,-2.689894E-2,-5.853872E-2,1.5206193E-2,2.8469026E-4,-8.164003E-3,-5.617211E-2],"categories":[],"categories_nodes":[],"categories_segments":[],"categories_sizes":[],"default_left":[0,0,0,0,0,0,0,0,0,0,0,0,0],"id":26,"left_children":[1,3,5,7,-1,9,11,-1,-1,-1,-1,-1,-1],"loss_changes":[4.3693916E1,4.9611053E0,4.9825607E1,4.50078E0,0E0,1.4573559E1,1.4928047E1,0E0,0E0,0E0,0E0,0E0,0E0],"parents":[2147483647,0,0,1,1,2,2,3,3,5,5,6,6],"right_children":[2,4,6,8,-1,10,12,-1,-1,-1,-1,-1,-1],"split_conditions":[4E0,1.9996984E-1,3E0,7.32E1,-7.975725E-2,1.0707655E-1,3.1162813E-1,-2.689894E-2,-5.853872E-2,1.5206193E-2,2.8469026E-4,-8.164003E-3,-5.617211E-2],"split_indices":[6,8,0,5,0,8,8,0,0,0,0,0,0],"split_type":[0,0,0,0,0,0,0,0,0,0,0,0,0],"sum_hessian":[2.7674292E3,1.1177083E2,2.6556584E3,9.49954E1,1.6775425E1,1.2904883E3,1.3651702E3,6.0271564E1,3.4723835E1,8.5399884E2,4.364895E2,1.3326597E3,3.25104E1],"tree_param":{"num_deleted":"0","num_feature":"9","num_nodes":"13","size_leaf_vector":"1"}},{"base_weights":[-2.1031372E-2,-4.8243964E-1,1.0455598E-2,-5.907788E-1,-2.599891E-1,-1.5822014E-1,9.0171665E-2,-5.036313E-2,-3.3399925E-2,-3.9494606E-3,-2.9702948E-2,-2.0191502E-2,-3.2830117E-3,-1.7953046E-3,8.346357E-3],"categories":[],"categories_nodes":[],"categories_segments":[],"categories_sizes":[],"default_left":[0,0,0,0,0,0,0,0,0,0,0,0,0,0,0],"id":27,"left_children":[1,3,5,7,9,11,13,-1,-1,-1,-1,-1,-1,-1,-1],"loss_changes":[4.005638E1,4.2445602E0,3.470442E1,1.7317696E0,1.9298537E0,1.2008207E1,5.899393E0,0E0,0E0,0E0,0E0,0E0,0E0,0E0,0E0],"parents":[2147483647,0,0,1,1,2,2,3,3,4,4,5,5,6,6],"right_children":[2,4,6,8,10,12,14,-1,-1,-1,-1,-1,-1,-1,-1],"split_conditions":[7E0,7.679944E0,-1.6208965E2,3E0,6.78E1,5.672128E-3,-5.019895E-2,-5.036313E-2,-3.3399925E-2,-3.9494606E-3,-2.9702948E-2,-2.0191502E-2,-3.2830117E-3,-1.7953046E-3,8.346357E-3],"split_indices":[6,1,1,6,5,7,7,0,0,0,0,0,0,0,0],"split_type":[0,0,0,0,0,0,0,0,0,0,0,0,0,0,0],"sum_hessian":[2.757115E3,1.761281E2,2.580987E3,1.1844186E2,5.768624E1,8.2831244E2,1.7526746E3,5.5538277E1,6.290358E1,2.5768345E1,3.1917896E1,3.8173276E2,4.4657968E2,3.5157324E2,1.4011013E3],"tree_param":{"num_deleted":"0","num_feature":"9","num_nodes":"15","size_leaf_vector":"1"}},{"base_weights":[7.2802324E-3,-3.8024545E-1,4.261012E-2,-6.62969E-1,-2.9595202E-1,-1.032099E-1,9.934484E-2,-3.6387578E-2,-6.275639E-2,-5.1270653E-2,-1.3811709E-2,-1.9037621E-2,-1.3527695E-4,2.1233114E-4,1.1712109E-2],"categories":[],"categories_nodes":[],"categories_segments":[],"categories_sizes":[],"default_left":[0,0,0,0,0,0,0,0,0,0,0,0,0,0,0],"id":28,"left_children":[1,3,5,7,9,11,13,-1,-1,-1,-1,-1,-1,-1,-1],"loss_changes":[3.748393E1,5.4511795E0,2.0757599E1,1.7558308E0,7.586751E0,1.3299616E1,1.1824625E1,0E0,0E0,0E0,0E0,0E0,0E0,0E0,0E0],"parents":[2147483647,0,0,1,1,2,2,3,3,4,4,5,5,6,6],"right_children":[2,4,6,8,10,12,14,-1,-1,-1,-1,-1,-1,-1,-1],"split_conditions":[1E1,2E0,-2.1256584E2,7.05E1,-3.788049E2,3.9E1,0E0,-3.6387578E-2,-6.275639E-2,-5.1270653E-2,-1.3811709E-2,-1.9037621E-2,-1.3527695E-4,2.1233114E-4,1.1712109E-2],"split_indices":[6,6,1,5,1,6,2,0,0,0,0,0,0,0,0],"split_type":[0,0,0,0,0,0,0,0,0,0,0,0,0,0,0],"sum_hessian":[2.7378008E3,2.2874426E2,2.5090566E3,5.2534237E1,1.7621002E2,7.0277576E2,1.8062809E3,3.2573353E1,1.9960886E1,3.2479996E1,1.4373003E2,2.8124686E2,4.2152887E2,7.473394E2,1.0589415E3],"tree_param":{"num_deleted":"0","num_feature":"9","num_nodes":"15","size_leaf_vector":"1"}},{"base_weights":[-4.2754467E-4,1.21622175E-1,-1.2284956E-1,1.9008183E-1,-6.1369315E-4,-9.3317464E-2,-5.3086305E-1,6.631385E-3,1.7700467E-2,-4.295852E-5,6.631385E-3,-4.295852E-5,-9.564033E-3,-5.5540495E-2,-2.1846317E-2],"categories":[],"categories_nodes":[],"categories_segments":[],"categories_sizes":[],"default_left":[0,0,0,0,0,0,0,0,0,0,0,0,0,0,0],"id":29,"left_children":[1,3,5,7,9,11,13,-1,-1,-1,-1,-1,-1,-1,-1],"loss_changes":[4.0862328E1,1.4445791E1,1.645138E1,6.691536E0,2.2725234E0,8.394533E0,7.20047E0,0E0,0E0,0E0,0E0,0E0,0E0,0E0,0E0],"parents":[2147483647,0,0,1,1,2,2,3,3,4,4,5,5,6,6],"right_children":[2,4,6,8,10,12,14,-1,-1,-1,-1,-1,-1,-1,-1],"split_conditions":[3E0,1.20430596E-1,1.4E1,6.21E1,8.29E1,-5.430931E-2,1E0,6.631385E-3,1.7700467E-2,-4.295852E-5,6.631385E-3,-4.295852E-5,-9.564033E-3,-5.5540495E-2,-2.1846317E-2],"split_indices":[0,8,0,5,5,8,2,0,0,0,0,0,0,0,0],"split_type":[0,0,0,0,0,0,0,0,0,0,0,0,0,0,0],"sum_hessian":[2.7348044E3,1.3694845E3,1.36532E3,9.599415E2,4.0954297E2,1.2731691E3,9.215079E1,3.433233E2,6.166182E2,3.6287717E2,4.66658E1,2.2798341E2,1.0451857E3,5.011295E1,4.203784E1],"tree_param":{"num_deleted":"0","num_feature":"9","num_nodes":"15","size_leaf_vector":"1"}},{"base_weights":[-1.4072423E-2,-4.0118104E-1,2.1442946E-2,-3.2186666E-1,-7.425227E-1,1.5386292E-1,-1.0340287E-1,-3.7253626E-2,-1.3481781E-3,-6.625267E-2,-3.7253626E-2,6.7863152E-3,2.1940373E-2,-3.1153858E-2,-4.7892323E-3],"categories":[],"categories_nodes":[],"categories_segments":[],"categories_sizes":[],"default_left":[0,0,0,0,0,0,0,0,0,0,0,0,0,0,0],"id":30,"left_children":[1,3,5,7,9,11,13,-1,-1,-1,-1,-1,-1,-1,-1],"loss_changes":[3.752648E1,6.2097397E0,4.1332813E1,1.3027737E1,1.9068909E0,1.1019024E1,1.538181E1,0E0,0E0,0E0,0E0,0E0,0E0,0E0,0E0],"parents":[2147483647,0,0,1,1,2,2,3,3,4,4,5,5,6,6],"right_children":[2,4,6,8,10,12,14,-1,-1,-1,-1,-1,-1,-1,-1],"split_conditions":[1E1,4E0,3E0,4E0,7E0,7.66E1,-1.1930087E-1,-3.7253626E-2,-1.3481781E-3,-6.625267E-2,-3.7253626E-2,6.7863152E-3,2.1940373E-2,-3.1153858E-2,-4.7892323E-3],"split_indices":[6,0,0,6,6,5,7,0,0,0,0,0,0,0,0],"split_type":[0,0,0,0,0,0,0,0,0,0,0,0,0,0,0],"sum_hessian":[2.7295317E3,2.293763E2,2.5001553E3,1.8612943E2,4.324688E1,1.213274E3,1.2868813E3,1.0531755E2,8.0811874E1,2.2259516E1,2.0987362E1,8.942987E2,3.1897534E2,1.1953507E2,1.1673462E3],"tree_param":{"num_deleted":"0","num_feature":"9","num_nodes":"15","size_leaf_vector":"1"}},{"base_weights":[-8.849582E-3,-6.139391E-1,1.6003005E-2,-5.329612E-1,-9.4843066E-1,6.772539E-2,-1.5479152E-1,-5.1848717E-2,-3.2338038E-2,-5.3347632E-2,-8.247328E-2,1.3689294E-3,1.3689273E-2,-9.115303E-3,-6.42199E-2],"categories":[],"categories_nodes":[],"categories_segments":[],"categories_sizes":[],"default_left":[0,0,0,0,0,0,0,0,0,0,0,0,0,0,0],"id":31,"left_children":[1,3,5,7,9,11,13,-1,-1,-1,-1,-1,-1,-1,-1],"loss_changes":[4.0771942E1,2.8967247E0,2.3006025E1,1.7824707E0,8.914051E-1,1.2308969E1,1.1344193E1,0E0,0E0,0E0,0E0,0E0,0E0,0E0,0E0],"parents":[2147483647,0,0,1,1,2,2,3,3,4,4,5,5,6,6],"right_children":[2,4,6,8,10,12,14,-1,-1,-1,-1,-1,-1,-1,-1],"split_conditions":[4E0,1.7607571E-1,1.5575135E-1,-6.8835355E-2,7.1E0,1.00691676E-1,7.6E1,-5.1848717E-2,-3.2338038E-2,-5.3347632E-2,-8.247328E-2,1.3689294E-3,1.3689273E-2,-9.115303E-3,-6.42199E-2],"split_indices":[6,8,8,7,4,7,6,0,0,0,0,0,0,0,0],"split_type":[0,0,0,0,0,0,0,0,0,0,0,0,0,0,0],"sum_hessian":[2.7112495E3,1.0696365E2,2.6042856E3,8.611811E1,2.0845545E1,1.9989397E3,6.05346E2,1.5329256E1,7.078886E1,1.15136385E1,9.331906E0,1.4518684E3,5.4707135E2,5.864513E2,1.8894707E1],"tree_param":{"num_deleted":"0","num_feature":"9","num_nodes":"15","size_leaf_vector":"1"}},{"base_weights":[-1.1235186E-2,2.232908E-1,-4.212321E-2,9.0583794E-2,3.070695E-1,-9.150225E-2,5.332709E-2,6.3408655E-3,1.3917866E-2,3.070854E-2,1.5448339E-2,-4.4703134E-3,-1.9250412E-2,6.3408655E-3,-1.3361305E-3],"categories":[],"categories_nodes":[],"categories_segments":[],"categories_sizes":[],"default_left":[0,0,0,0,0,0,0,0,0,0,0,0,0,0,0],"id":32,"left_children":[1,3,5,7,9,11,13,-1,-1,-1,-1,-1,-1,-1,-1],"loss_changes":[1.9783188E1,4.9874125E0,1.137372E1,2.785438E-1,2.5676765E0,8.066676E0,4.9578032E0,0E0,0E0,0E0,0E0,0E0,0E0,0E0,0E0],"parents":[2147483647,0,0,1,1,2,2,3,3,4,4,5,5,6,6],"right_children":[2,4,6,8,10,12,14,-1,-1,-1,-1,-1,-1,-1,-1],"split_conditions":[-8.649922E-2,-2.2721994E1,9.766341E-2,1.2114428E-1,6.57E1,1.9587998E-1,1.4361306E-1,6.3408655E-3,1.3917866E-2,3.070854E-2,1.5448339E-2,-4.4703134E-3,-1.9250412E-2,6.3408655E-3,-1.3361305E-3],"split_indices":[8,1,7,7,5,8,8,0,0,0,0,0,0,0,0],"split_type":[0,0,0,0,0,0,0,0,0,0,0,0,0,0,0],"sum_hessian":[2.7309556E3,3.1781888E2,2.4131367E3,9.197229E1,2.2584657E2,1.5903866E3,8.227501E2,8.227048E1,9.701816E0,8.948492E1,1.3636166E2,1.3821925E3,2.081941E2,5.06622E2,3.161281E2],"tree_param":{"num_deleted":"0","num_feature":"9","num_nodes":"15","size_leaf_vector":"1"}},{"base_weights":[7.2033466E-3,5.3141266E-2,-2.4406104E-1,-9.5459886E-2,9.403534E-2,-5.167676E-1,-1.332835E-1,-6.682192E-3,2.2524924E-3,2.4011869E-3,1.5605277E-2,-3.2648884E-2,-6.7831084E-2,-6.682192E-3,-4.50254E-2],"categories":[],"categories_nodes":[],"categories_segments":[],"categories_sizes":[],"default_left":[0,0,0,0,0,0,0,0,0,0,0,0,0,0,0],"id":33,"left_children":[1,3,5,7,9,11,13,-1,-1,-1,-1,-1,-1,-1,-1],"loss_changes":[3.1596779E1,2.1408695E1,1.2782162E1,1.793869E0,1.5548151E1,2.782936E0,6.0023975E0,0E0,0E0,0E0,0E0,0E0,0E0,0E0,0E0],"parents":[2147483647,0,0,1,1,2,2,3,3,4,4,5,5,6,6],"right_children":[2,4,6,8,10,12,14,-1,-1,-1,-1,-1,-1,-1,-1],"split_conditions":[8E0,1.4E1,3.3E1,5.994453E0,1.0241204E-1,2.342364E-1,2.6533303E-1,-6.682192E-3,2.2524924E-3,2.4011869E-3,1.5605277E-2,-3.2648884E-2,-6.7831084E-2,-6.682192E-3,-4.50254E-2],"split_indices":[0,6,6,1,7,8,8,0,0,0,0,0,0,0,0],"split_type":[0,0,0,0,0,0,0,0,0,0,0,0,0,0,0],"sum_hessian":[2.7374116E3,2.3142966E3,4.23115E2,2.9489178E2,2.0194048E3,1.2222449E2,3.008905E2,1.8478214E2,1.10109634E2,1.379929E3,6.394759E2,1.0998112E2,1.2243368E1,2.7945175E2,2.1438757E1],"tree_param":{"num_deleted":"0","num_feature":"9","num_nodes":"15","size_leaf_vector":"1"}},{"base_weights":[-2.2944657E-2,3.6000922E-2,-2.0418546E-1,-8.409227E-2,7.1734376E-2,-5.9727573E-1,-1.2982534E-1,-5.886459E-3,3.6457172E-3,8.3859294E-4,1.3803779E-2,-3.7912495E-2,-7.9690844E-2,-6.3263807E-3,-4.5213982E-2],"categories":[],"categories_nodes":[],"categories_segments":[],"categories_sizes":[],"default_left":[0,0,0,0,0,0,0,0,0,0,0,0,0,0,0],"id":34,"left_children":[1,3,5,7,9,11,13,-1,-1,-1,-1,-1,-1,-1,-1],"loss_changes":[2.9393036E1,1.6491547E1,1.9736523E1,1.7074966E-1,1.4336174E1,3.235115E0,1.15598E1,0E0,0E0,0E0,0E0,0E0,0E0,0E0,0E0],"parents":[2147483647,0,0,1,1,2,2,3,3,4,4,5,5,6,6],"right_children":[2,4,6,8,10,12,14,-1,-1,-1,-1,-1,-1,-1,-1],"split_conditions":[6E0,7E0,2.6E1,6.1704956E2,1.0241204E-1,1.4E1,1.7E1,-5.886459E-3,3.6457172E-3,8.3859294E-4,1.3803779E-2,-3.7912495E-2,-7.9690844E-2,-6.3263807E-3,-4.5213982E-2],"split_indices":[0,6,6,1,7,0,0,0,0,0,0,0,0,0,0],"split_type":[0,0,0,0,0,0,0,0,0,0,0,0,0,0,0],"sum_hessian":[2.751293E3,2.0760823E3,6.752107E2,1.638145E2,1.9122677E3,1.0740846E2,5.6780225E2,1.5460735E2,9.207158E0,1.2953351E3,6.169326E2,9.739223E1,1.0016238E1,5.274841E2,4.0318127E1],"tree_param":{"num_deleted":"0","num_feature":"9","num_nodes":"15","size_leaf_vector":"1"}},{"base_weights":[8.8073744E-4,1.369326E-1,-7.21631E-2,1.8326083E-1,5.1341776E-2,-4.7647025E-2,-3.1018808E-1,8.211091E-3,1.5668767E-2,2.2669325E-3,8.211091E-3,-5.744021E-3,2.2669325E-3,-4.014124E-2,-1.2875019E-2],"categories":[],"categories_nodes":[],"categories_segments":[],"categories_sizes":[],"default_left":[0,0,0,0,0,0,0,0,0,0,0,0,0,0,0],"id":35,"left_children":[1,3,5,7,9,11,13,-1,-1,-1,-1,-1,-1,-1,-1],"loss_changes":[2.6780478E1,3.7328453E0,1.0232042E1,2.3908443E0,1.8622634E0,7.9431486E0,5.4422455E0,0E0,0E0,0E0,0E0,0E0,0E0,0E0,0E0],"parents":[2147483647,0,0,1,1,2,2,3,3,4,4,5,5,6,6],"right_children":[2,4,6,8,10,12,14,-1,-1,-1,-1,-1,-1,-1,-1],"split_conditions":[2E0,1.05656505E-1,1.1E1,-4.2232923E-2,4.1163817E-2,1.8728791E-1,-1.5653247E-2,8.211091E-3,1.5668767E-2,2.2669325E-3,8.211091E-3,-5.744021E-3,2.2669325E-3,-4.014124E-2,-1.2875019E-2],"split_indices":[0,8,0,7,7,7,7,0,0,0,0,0,0,0,0],"split_type":[0,0,0,0,0,0,0,0,0,0,0,0,0,0,0],"sum_hessian":[2.6948198E3,9.413868E2,1.753433E3,6.1078314E2,3.3060364E2,1.5896989E3,1.6373418E2,1.6602734E2,4.447558E2,1.2535742E2,2.0524622E2,1.3839258E3,2.0577303E2,5.307189E1,1.10662285E2],"tree_param":{"num_deleted":"0","num_feature":"9","num_nodes":"15","size_leaf_vector":"1"}},{"base_weights":[-7.4811596E-3,5.1609866E-2,-1.9180356E-1,-7.009685E-2,8.847195E-2,-6.653838E-1,-1.3900192E-1,-4.9067796E-3,-6.222716E-4,2.5455286E-3,1.198559E-2,-5.7814132E-2,-3.0987857E-2,-7.2010113E-3,-4.1970607E-2],"categories":[],"categories_nodes":[],"categories_segments":[],"categories_sizes":[],"default_left":[0,0,0,0,0,0,0,0,0,0,0,0,0,0,0],"id":36,"left_children":[1,3,5,7,9,11,13,-1,-1,-1,-1,-1,-1,-1,-1],"loss_changes":[2.9548927E1,1.7105368E1,1.6468636E1,5.7430744E-2,8.151791E0,2.3613968E0,9.860191E0,0E0,0E0,0E0,0E0,0E0,0E0,0E0,0E0],"parents":[2147483647,0,0,1,1,2,2,3,3,4,4,5,5,6,6],"right_children":[2,4,6,8,10,12,14,-1,-1,-1,-1,-1,-1,-1,-1],"split_conditions":[6E0,7E0,2.1E1,6E0,7.6618E-2,4.5601275E-2,1.7E1,-4.9067796E-3,-6.222716E-4,2.5455286E-3,1.198559E-2,-5.7814132E-2,-3.0987857E-2,-7.2010113E-3,-4.1970607E-2],"split_indices":[0,6,6,6,7,7,0,0,0,0,0,0,0,0,0],"split_type":[0,0,0,0,0,0,0,0,0,0,0,0,0,0,0],"sum_hessian":[2.7129487E3,2.054354E3,6.585947E2,1.6382721E2,1.8905267E3,6.6062614E1,5.925321E2,1.4849623E2,1.533098E1,1.1600548E3,7.30472E2,3.838778E1,2.7674837E1,5.494329E2,4.3099148E1],"tree_param":{"num_deleted":"0","num_feature":"9","num_nodes":"15","size_leaf_vector":"1"}},{"base_weights":[1.4241577E-2,-5.25205E-1,3.5835613E-2,-6.490124E-1,-2.4401973E-1,-9.488131E-2,9.59325E-2,-7.399799E-2,-4.126152E-2,-3.1256124E-2,-5.334906E-3,-1.5809657E-2,-1.12979185E-4,3.6791564E-5,8.25156E-3],"categories":[],"categories_nodes":[],"categories_segments":[],"categories_sizes":[],"default_left":[0,0,0,0,0,0,0,0,0,0,0,0,0,0,0],"id":37,"left_children":[1,3,5,7,9,11,13,-1,-1,-1,-1,-1,-1,-1,-1],"loss_changes":[3.1166325E1,3.5847607E0,2.020884E1,1.7371788E0,1.6983044E0,9.897014E0,6.310442E0,0E0,0E0,0E0,0E0,0E0,0E0,0E0,0E0],"parents":[2147483647,0,0,1,1,2,2,3,3,4,4,5,5,6,6],"right_children":[2,4,6,8,10,12,14,-1,-1,-1,-1,-1,-1,-1,-1],"split_conditions":[4E0,2.9070484E1,-1.6889131E2,-9.3379505E-2,5.72E1,-8.292885E-3,-1.1930087E-1,-7.399799E-2,-4.126152E-2,-3.1256124E-2,-5.334906E-3,-1.5809657E-2,-1.12979185E-4,3.6791564E-5,8.25156E-3],"split_indices":[6,1,1,7,5,7,7,0,0,0,0,0,0,0,0],"split_type":[0,0,0,0,0,0,0,0,0,0,0,0,0,0,0],"sum_hessian":[2.6754863E3,1.0297642E2,2.5725098E3,7.149515E1,3.1481262E1,8.102127E2,1.7622971E3,9.103215E0,6.2391937E1,9.681274E0,2.1799988E1,3.3699063E2,4.7322205E2,1.393061E2,1.6229911E3],"tree_param":{"num_deleted":"0","num_feature":"9","num_nodes":"15","size_leaf_vector":"1"}},{"base_weights":[-6.9551496E-3,4.502763E-2,-1.2398403E-1,8.866773E-2,-3.94782E-2,-8.260856E-2,-3.5592613E-1,1.7216335E-3,8.620391E-3,-2.7634741E-3,1.7216335E-3,-2.7634741E-3,-1.5348714E-2,-4.2481013E-2,-1.7270088E-2],"categories":[],"categories_nodes":[],"categories_segments":[],"categories_sizes":[],"default_left":[0,0,0,0,0,0,0,0,0,0,0,0,0,0,0],"id":38,"left_children":[1,3,5,7,9,11,13,-1,-1,-1,-1,-1,-1,-1,-1],"loss_changes":[1.6365698E1,8.098673E0,7.9404583E0,4.622922E0,1.8298079E0,8.600762E0,3.4325857E0,0E0,0E0,0E0,0E0,0E0,0E0,0E0,0E0],"parents":[2147483647,0,0,1,1,2,2,3,3,4,4,5,5,6,6],"right_children":[2,4,6,8,10,12,14,-1,-1,-1,-1,-1,-1,-1,-1],"split_conditions":[5E0,1.2214323E-1,1.2E1,5.34E1,2.4701178E-1,1.4361306E-1,-2.3793006E-2,1.7216335E-3,8.620391E-3,-2.7634741E-3,1.7216335E-3,-2.7634741E-3,-1.5348714E-2,-4.2481013E-2,-1.7270088E-2],"split_indices":[0,8,0,5,7,8,7,0,0,0,0,0,0,0,0],"split_type":[0,0,0,0,0,0,0,0,0,0,0,0,0,0,0],"sum_hessian":[2.6901804E3,1.8627642E3,8.274162E2,1.3032461E3,5.59518E2,7.021613E2,1.25254875E2,2.764401E2,1.026806E3,4.9643494E2,6.308308E1,5.0127655E2,2.0088478E2,3.7979565E1,8.7275314E1],"tree_param":{"num_deleted":"0","num_feature":"9","num_nodes":"15","size_leaf_vector":"1"}},{"base_weights":[-2.6359674E-2,9.875874E-3,-1.6600889E-1,6.48653E-2,-7.7925906E-2,-4.9745637E-1,-1.07998624E-1,2.5907807E-2,3.86564E-3,-5.4646553E-3,-4.5712123E-4,-2.1190925E-2,-4.912336E-2,-5.666373E-3,-2.1190925E-2],"categories":[],"categories_nodes":[],"categories_segments":[],"categories_sizes":[],"default_left":[0,0,0,0,0,0,0,0,0,0,0,0,0,0,0],"id":39,"left_children":[1,3,5,7,9,11,13,-1,-1,-1,-1,-1,-1,-1,-1],"loss_changes":[1.3460161E1,1.0196944E1,1.0536604E1,3.822072E0,3.149362E0,5.8561954E0,3.36269E0,0E0,0E0,0E0,0E0,0E0,0E0,0E0,0E0],"parents":[2147483647,0,0,1,1,2,2,3,3,4,4,5,5,6,6],"right_children":[2,4,6,8,10,12,14,-1,-1,-1,-1,-1,-1,-1,-1],"split_conditions":[1.6716564E-1,4E0,-4.2232923E-2,-1.9142352E-1,-4.0398254E-3,2E0,3.3115575E-1,2.5907807E-2,3.86564E-3,-5.4646553E-3,-4.5712123E-4,-2.1190925E-2,-4.912336E-2,-5.666373E-3,-2.1190925E-2],"split_indices":[8,0,7,8,7,0,8,0,0,0,0,0,0,0,0],"split_type":[0,0,0,0,0,0,0,0,0,0,0,0,0,0,0],"sum_hessian":[2.659968E3,2.1119656E3,5.480024E2,1.29864E3,8.1332544E2,8.162437E1,4.66378E2,3.9762993E1,1.2588771E3,3.3196048E2,4.81365E2,2.5407797E1,5.6216568E1,4.279164E2,3.8461586E1],"tree_param":{"num_deleted":"0","num_feature":"9","num_nodes":"15","size_leaf_vector":"1"}},{"base_weights":[-3.2358095E-2,-6.343121E-1,-1.4618709E-2,-8.8609713E-1,-2.5675485E-1,6.647387E-2,-1.3459916E-1,-4.606787E-2,-7.3522545E-2,-3.0374196E-3,-3.4701508E-2,3.1873537E-3,2.0507392E-2,-5.0043326E-2,-6.2606153E-3],"categories":[],"categories_nodes":[],"categories_segments":[],"categories_sizes":[],"default_left":[0,0,0,0,0,0,0,0,0,0,0,0,0,0,0],"id":40,"left_children":[1,3,5,7,9,11,13,-1,-1,-1,-1,-1,-1,-1,-1],"loss_changes":[2.8842934E1,7.350149E0,2.5527962E1,1.7359505E0,1.5773969E0,7.425216E0,2.7731842E1,0E0,0E0,0E0,0E0,0E0,0E0,0E0,0E0],"parents":[2147483647,0,0,1,1,2,2,3,3,4,4,5,5,6,6],"right_children":[2,4,6,8,10,12,14,-1,-1,-1,-1,-1,-1,-1,-1],"split_conditions":[3E0,5.994453E0,4E0,5.44366E-2,1.7813185E-2,2.2682564E-1,1.5E1,-4.606787E-2,-7.3522545E-2,-3.0374196E-3,-3.4701508E-2,3.1873537E-3,2.0507392E-2,-5.0043326E-2,-6.2606153E-3],"split_indices":[6,1,0,8,8,7,6,0,0,0,0,0,0,0,0],"split_type":[0,0,0,0,0,0,0,0,0,0,0,0,0,0,0],"sum_hessian":[2.7010793E3,7.732012E1,2.623759E3,4.638521E1,3.093491E1,1.5655996E3,1.0581595E3,1.9424723E1,2.6960487E1,1.6344187E1,1.4590723E1,1.4331022E3,1.3249742E2,7.640307E1,9.8175653E2],"tree_param":{"num_deleted":"0","num_feature":"9","num_nodes":"15","size_leaf_vector":"1"}},{"base_weights":[-2.991612E-2,-5.9738183E-1,-8.299807E-3,-4.9426413E-1,-8.323313E-2,3.5843946E-2,-1.547425E-1,-4.5114193E-2,-2.0964129E-2,5.58506E-3,-4.161449E-3,-4.161449E-3,-1.7297426E-2],"categories":[],"categories_nodes":[],"categories_segments":[],"categories_sizes":[],"default_left":[0,0,0,0,0,0,0,0,0,0,0,0,0],"id":41,"left_children":[1,3,5,7,-1,9,11,-1,-1,-1,-1,-1,-1],"loss_changes":[3.313131E1,6.0462036E0,1.6819714E1,2.4694386E0,0E0,1.1008034E1,8.740175E0,0E0,0E0,0E0,0E0,0E0,0E0],"parents":[2147483647,0,0,1,1,2,2,3,3,5,5,6,6],"right_children":[2,4,6,8,-1,10,12,-1,-1,-1,-1,-1,-1],"split_conditions":[4E0,1.9821477E-1,1.5575135E-1,2E0,-8.323313E-2,6E0,2E0,-4.5114193E-2,-2.0964129E-2,5.58506E-3,-4.161449E-3,-4.161449E-3,-1.7297426E-2],"split_indices":[6,8,8,6,0,0,0,0,0,0,0,0,0],"split_type":[0,0,0,0,0,0,0,0,0,0,0,0,0],"sum_hessian":[2.7009531E3,9.91101E1,2.601843E3,8.440223E1,1.4707873E1,1.999203E3,6.0264E2,4.7649277E1,3.675295E1,1.5042532E3,4.9494986E2,1.9904605E2,4.0359393E2],"tree_param":{"num_deleted":"0","num_feature":"9","num_nodes":"13","size_leaf_vector":"1"}},{"base_weights":[-9.658192E-4,-4.323905E-1,2.403E-2,-3.5390416E-1,-9.442271E-1,7.498262E-2,-8.755064E-2,-2.0573027E-2,-4.5434594E-2,-7.9090185E-2,-5.3383745E-2,9.525873E-3,-4.3988068E-4,-1.1296334E-2,-4.3988068E-4],"categories":[],"categories_nodes":[],"categories_segments":[],"categories_sizes":[],"default_left":[0,0,0,0,0,0,0,0,0,0,0,0,0,0,0],"id":42,"left_children":[1,3,5,7,9,11,13,-1,-1,-1,-1,-1,-1,-1,-1],"loss_changes":[2.878918E1,5.872963E0,1.4346705E1,3.3323622E0,6.5429306E-1,9.769643E0,7.031389E0,0E0,0E0,0E0,0E0,0E0,0E0,0E0,0E0],"parents":[2147483647,0,0,1,1,2,2,3,3,4,4,5,5,6,6],"right_children":[2,4,6,8,10,12,14,-1,-1,-1,-1,-1,-1,-1,-1],"split_conditions":[6E0,1.9821477E-1,1.20430596E-1,4E0,1.1611172E-1,4E0,1.2787637E-1,-2.0573027E-2,-4.5434594E-2,-7.9090185E-2,-5.3383745E-2,9.525873E-3,-4.3988068E-4,-1.1296334E-2,-4.3988068E-4],"split_indices":[6,8,8,0,7,0,7,0,0,0,0,0,0,0,0],"split_type":[0,0,0,0,0,0,0,0,0,0,0,0,0,0,0],"sum_hessian":[2.6696619E3,1.4620277E2,2.523459E3,1.267661E2,1.9436672E1,1.7323793E3,7.910799E2,1.1397204E2,1.2794059E1,9.60868E0,9.827992E0,1.0464806E3,6.858987E2,5.095235E2,2.8155637E2],"tree_param":{"num_deleted":"0","num_feature":"9","num_nodes":"15","size_leaf_vector":"1"}},{"base_weights":[-1.1112278E-2,-1.0865174E-1,4.5340057E-2,2.7921324E-4,-2.2709078E-1,-5.0108034E-2,1.5719688E-1,-7.938405E-3,4.2485707E-3,-1.0590917E-2,-3.1553864E-2,-1.9878853E-2,-1.8164351E-3,4.1243434E-2,7.6596458E-3],"categories":[],"categories_nodes":[],"categories_segments":[],"categories_sizes":[],"default_left":[0,0,0,0,0,0,0,0,0,0,0,0,0,0,0],"id":43,"left_children":[1,3,5,7,9,11,13,-1,-1,-1,-1,-1,-1,-1,-1],"loss_changes":[1.4765779E1,1.2683079E1,1.8134548E1,4.897277E0,7.9843636E0,5.1783648E0,1.6139776E1,0E0,0E0,0E0,0E0,0E0,0E0,0E0,0E0],"parents":[2147483647,0,0,1,1,2,2,3,3,4,4,5,5,6,6],"right_children":[2,4,6,8,10,12,14,-1,-1,-1,-1,-1,-1,-1,-1],"split_conditions":[3.2E1,5.7856966E-2,1E0,1.1E1,5E0,-1.1662348E-1,-1.0499112E-1,-7.938405E-3,4.2485707E-3,-1.0590917E-2,-3.1553864E-2,-1.9878853E-2,-1.8164351E-3,4.1243434E-2,7.6596458E-3],"split_indices":[6,8,2,6,0,7,8,0,0,0,0,0,0,0,0],"split_type":[0,0,0,0,0,0,0,0,0,0,0,0,0,0,0],"sum_hessian":[2.681597E3,9.830548E2,1.6985422E3,5.120824E2,4.7097238E2,9.164934E2,7.820488E2,1.3216476E2,3.7991763E2,3.5177716E2,1.19195206E2,8.580717E1,8.306862E2,7.7871895E1,7.041769E2],"tree_param":{"num_deleted":"0","num_feature":"9","num_nodes":"15","size_leaf_vector":"1"}},{"base_weights":[4.21414E-3,4.4956062E-2,-1.2312501E-1,-3.908447E-2,7.02117E-2,-2.4283333E-1,-3.908447E-2,-2.735913E-3,2.0127563E-5,-3.6346063E-4,1.0734535E-2,-2.735913E-3,-2.3344154E-2,-2.735913E-3,-3.2028828E-2],"categories":[],"categories_nodes":[],"categories_segments":[],"categories_sizes":[],"default_left":[0,0,0,0,0,0,0,0,0,0,0,0,0,0,0],"id":44,"left_children":[1,3,5,7,9,11,13,-1,-1,-1,-1,-1,-1,-1,-1],"loss_changes":[1.3903628E1,7.1368966E0,1.0261559E1,1.1003733E-1,1.1270871E1,9.878778E0,3.0854917E0,0E0,0E0,0E0,0E0,0E0,0E0,0E0,0E0],"parents":[2147483647,0,0,1,1,2,2,3,3,4,4,5,5,6,6],"right_children":[2,4,6,8,10,12,14,-1,-1,-1,-1,-1,-1,-1,-1],"split_conditions":[6E0,1.1E1,4E1,7E0,1E0,-3.527099E-2,1.9E1,-2.735913E-3,2.0127563E-5,-3.6346063E-4,1.0734535E-2,-2.735913E-3,-2.3344154E-2,-2.735913E-3,-3.2028828E-2],"split_indices":[0,6,6,6,2,8,0,0,0,0,0,0,0,0,0],"split_type":[0,0,0,0,0,0,0,0,0,0,0,0,0,0,0],"sum_hessian":[2.6799343E3,2.0303339E3,6.496006E2,2.3246188E2,1.797872E3,3.5770258E2,2.91898E2,1.6147821E2,7.098368E1,9.4279266E2,8.550793E2,7.2398766E1,2.853038E2,2.7427966E2,1.7618341E1],"tree_param":{"num_deleted":"0","num_feature":"9","num_nodes":"15","size_leaf_vector":"1"}},{"base_weights":[4.7160448E-3,-3.053388E-1,2.4501292E-2,-2.4636215E-1,-5.8335233E-2,5.8831356E-2,-1.5441833E-1,-2.9796073E-2,-4.0879413E-3,1.3812641E-2,2.7658E-3,-3.0290809E-2,-5.2967845E-3],"categories":[],"categories_nodes":[],"categories_segments":[],"categories_sizes":[],"default_left":[0,0,0,0,0,0,0,0,0,0,0,0,0],"id":45,"left_children":[1,3,5,7,-1,9,11,-1,-1,-1,-1,-1,-1],"loss_changes":[1.6461905E1,5.012452E0,1.549416E1,4.879758E0,0E0,5.6628456E0,8.90011E0,0E0,0E0,0E0,0E0,0E0,0E0],"parents":[2147483647,0,0,1,1,2,2,3,3,5,5,6,6],"right_children":[2,4,6,8,-1,10,12,-1,-1,-1,-1,-1,-1],"split_conditions":[7E0,4E0,8E0,3E0,-5.8335233E-2,-8.649922E-2,3.1E1,-2.9796073E-2,-4.0879413E-3,1.3812641E-2,2.7658E-3,-3.0290809E-2,-5.2967845E-3],"split_indices":[6,0,0,6,0,8,6,0,0,0,0,0,0],"split_type":[0,0,0,0,0,0,0,0,0,0,0,0,0],"sum_hessian":[2.6834873E3,1.6096623E2,2.522521E3,1.4479524E2,1.617099E1,2.1164329E3,4.0608807E2,7.410534E1,7.0689896E1,2.591001E2,1.8573329E3,8.956262E1,3.1652545E2],"tree_param":{"num_deleted":"0","num_feature":"9","num_nodes":"13","size_leaf_vector":"1"}},{"base_weights":[-1.33487955E-2,-2.0429026E-3,-3.8228372E-1,-1.3577841E-1,3.317741E-2,-5.930635E-1,-1.921633E-1,-3.1480694E-3,-1.3451431E-2,-1.0837599E-3,9.94802E-3,-3.2136798E-2,-6.72623E-2,-4.0038966E-2,-1.3451431E-2],"categories":[],"categories_nodes":[],"categories_segments":[],"categories_sizes":[],"default_left":[0,0,0,0,0,0,0,0,0,0,0,0,0,0,0],"id":46,"left_children":[1,3,5,7,9,11,13,-1,-1,-1,-1,-1,-1,-1,-1],"loss_changes":[1.1124866E1,1.21890955E1,5.2853127E0,4.3650703E0,1.0858021E1,2.498808E0,1.3348103E0,0E0,0E0,0E0,0E0,0E0,0E0,0E0,0E0],"parents":[2147483647,0,0,1,1,2,2,3,3,4,4,5,5,6,6],"right_children":[2,4,6,8,10,12,14,-1,-1,-1,-1,-1,-1,-1,-1],"split_conditions":[1.4E1,2.3E1,6E1,6.91E1,1.00691676E-1,1.9E1,-5.506994E2,-3.1480694E-3,-1.3451431E-2,-1.0837599E-3,9.94802E-3,-3.2136798E-2,-6.72623E-2,-4.0038966E-2,-1.3451431E-2],"split_indices":[0,6,6,5,7,0,1,0,0,0,0,0,0,0,0],"split_type":[0,0,0,0,0,0,0,0,0,0,0,0,0,0,0],"sum_hessian":[2.6671023E3,2.5878013E3,7.930114E1,5.394491E2,2.048352E3,5.0719006E1,2.8582136E1,2.8064142E2,2.588077E2,1.4159022E3,6.324498E2,3.718019E1,1.3538814E1,9.251555E0,1.933058E1],"tree_param":{"num_deleted":"0","num_feature":"9","num_nodes":"15","size_leaf_vector":"1"}},{"base_weights":[-1.39017245E-2,4.61746E-3,-3.1820756E-1,-1.5679505E-1,2.5089901E-2,-5.8695304E-1,-1.937192E-1,-7.448833E-3,-1.0975654E-2,-1.0975654E-2,3.2949867E-3,-4.9003497E-2,-2.732353E-2,-2.732353E-2,-1.0975654E-2],"categories":[],"categories_nodes":[],"categories_segments":[],"categories_sizes":[],"default_left":[0,0,0,0,0,0,0,0,0,0,0,0,0,0,0],"id":47,"left_children":[1,3,5,7,9,11,13,-1,-1,-1,-1,-1,-1,-1,-1],"loss_changes":[1.4897001E1,1.0865069E1,5.0731773E0,2.793436E-1,1.0331519E1,1.7610073E0,3.01853E0,0E0,0E0,0E0,0E0,0E0,0E0,0E0,0E0],"parents":[2147483647,0,0,1,1,2,2,3,3,4,4,5,5,6,6],"right_children":[2,4,6,8,10,12,14,-1,-1,-1,-1,-1,-1,-1,-1],"split_conditions":[1.1E1,9E0,-1.5653247E-2,2E0,-1.1662348E-1,6.8E1,0E0,-7.448833E-3,-1.0975654E-2,-1.0975654E-2,3.2949867E-3,-4.9003497E-2,-2.732353E-2,-2.732353E-2,-1.0975654E-2],"split_indices":[0,6,7,0,7,6,2,0,0,0,0,0,0,0,0],"split_type":[0,0,0,0,0,0,0,0,0,0,0,0,0,0,0],"sum_hessian":[2.6434185E3,2.491777E3,1.5164139E2,2.0093813E2,2.290839E3,4.800462E1,1.0363677E2,1.10054955E2,9.088316E1,2.1879016E2,2.0720488E3,3.770626E1,1.0298358E1,5.0516502E1,5.3120274E1],"tree_param":{"num_deleted":"0","num_feature":"9","num_nodes":"15","size_leaf_vector":"1"}},{"base_weights":[1.2113896E-2,2.0053597E-2,-5.213326E-1,6.1471175E-2,-7.9303585E-2,-5.4880116E-2,-3.9190388E-1,1.8902004E-3,1.1389578E-2,-1.276712E-2,-6.241343E-4,-1.7544765E-2,-4.115669E-2],"categories":[],"categories_nodes":[],"categories_segments":[],"categories_sizes":[],"default_left":[0,0,0,0,0,0,0,0,0,0,0,0,0],"id":48,"left_children":[1,3,5,7,9,-1,11,-1,-1,-1,-1,-1,-1],"loss_changes":[1.1282286E1,1.0801134E1,1.327776E0,6.4642644E0,7.5899467E0,0E0,1.9212275E0,0E0,0E0,0E0,0E0,0E0,0E0],"parents":[2147483647,0,0,1,1,2,2,3,3,4,4,6,6],"right_children":[2,4,6,8,10,-1,12,-1,-1,-1,-1,-1,-1],"split_conditions":[1.7E1,1.2833157E-1,-5.2627905E2,1.00691676E-1,0E0,-5.4880116E-2,1.9E1,1.8902004E-3,1.1389578E-2,-1.276712E-2,-6.241343E-4,-1.7544765E-2,-4.115669E-2],"split_indices":[0,8,1,7,2,0,0,0,0,0,0,0,0],"split_type":[0,0,0,0,0,0,0,0,0,0,0,0,0],"sum_hessian":[2.663796E3,2.6247312E3,3.9064793E1,1.8525051E3,7.7222614E2,1.28930645E1,2.6171726E1,1.3819817E3,4.7052338E2,3.7936053E2,3.9286557E2,9.571992E0,1.6599735E1],"tree_param":{"num_deleted":"0","num_feature":"9","num_nodes":"13","size_leaf_vector":"1"}},{"base_weights":[-6.5761534E-3,-2.4316576E-1,1.2283253E-2,-1.525896E-1,-7.420323E-1,-1.2400948E-2,2.2635873E-1,-3.1311765E-2,-3.6427605E-3,-3.2007206E-2,-6.885453E-2,6.975877E-3,-4.6757543E-3,7.488522E-3,2.5697157E-2],"categories":[],"categories_nodes":[],"categories_segments":[],"categories_sizes":[],"default_left":[0,0,0,0,0,0,0,0,0,0,0,0,0,0,0],"id":49,"left_children":[1,3,5,7,9,11,13,-1,-1,-1,-1,-1,-1,-1,-1],"loss_changes":[1.1845018E1,8.855803E0,1.2992406E1,6.256673E0,2.071659E0,1.3437216E1,7.7876434E0,0E0,0E0,0E0,0E0,0E0,0E0,0E0,0E0],"parents":[2147483647,0,0,1,1,2,2,3,3,4,4,5,5,6,6],"right_children":[2,4,6,8,10,12,14,-1,-1,-1,-1,-1,-1,-1,-1],"split_conditions":[9E0,4E0,2.0567851E-1,5.38E1,6.2E0,2E0,6.04E1,-3.1311765E-2,-3.6427605E-3,-3.2007206E-2,-6.885453E-2,6.975877E-3,-4.6757543E-3,7.488522E-3,2.5697157E-2],"split_indices":[6,0,7,5,4,0,5,0,0,0,0,0,0,0,0],"split_type":[0,0,0,0,0,0,0,0,0,0,0,0,0,0,0],"sum_hessian":[2.6546743E3,1.9598958E2,2.4586848E3,1.6587433E2,3.011526E1,2.2044941E3,2.5419058E2,3.3610897E1,1.3226343E2,1.3823918E1,1.629134E1,7.204159E2,1.4840782E3,8.5560715E1,1.6862987E2],"tree_param":{"num_deleted":"0","num_feature":"9","num_nodes":"15","size_leaf_vector":"1"}},{"base_weights":[-3.201085E-4,-2.2490172E-1,1.7192617E-2,-1.4822946E-1,-6.458207E-1,-9.895886E-2,5.0021514E-2,-2.2179682E-2,5.690251E-3,-2.7791755E-2,-5.7350904E-2,-5.9941667E-3,-5.025381E-2,-1.597048E-3,6.473297E-3],"categories":[],"categories_nodes":[],"categories_segments":[],"categories_sizes":[],"default_left":[0,0,0,0,0,0,0,0,0,0,0,0,0,0,0],"id":50,"left_children":[1,3,5,7,9,11,13,-1,-1,-1,-1,-1,-1,-1,-1],"loss_changes":[1.0417128E1,6.183275E0,9.368943E0,6.2727365E0,1.726366E0,4.466325E0,5.9234476E0,0E0,0E0,0E0,0E0,0E0,0E0,0E0,0E0],"parents":[2147483647,0,0,1,1,2,2,3,3,4,4,5,5,6,6],"right_children":[2,4,6,8,10,12,14,-1,-1,-1,-1,-1,-1,-1,-1],"split_conditions":[9E0,4E0,-3.2273883E2,4E0,6.26E1,1.9E1,6.21E1,-2.2179682E-2,5.690251E-3,-2.7791755E-2,-5.7350904E-2,-5.9941667E-3,-5.025381E-2,-1.597048E-3,6.473297E-3],"split_indices":[6,0,1,6,5,0,5,0,0,0,0,0,0,0,0],"split_type":[0,0,0,0,0,0,0,0,0,0,0,0,0,0,0],"sum_hessian":[2.648617E3,1.9159592E2,2.457021E3,1.6207484E2,2.9521069E1,5.414217E2,1.9155995E3,9.343186E1,6.864298E1,9.591515E0,1.9929554E1,5.300103E2,1.141138E1,7.053925E2,1.2102069E3],"tree_param":{"num_deleted":"0","num_feature":"9","num_nodes":"15","size_leaf_vector":"1"}},{"base_weights":[1.8782215E-3,-4.0122655E-1,1.7008819E-2,-3.3379173E-1,-5.0666224E-2,2.491068E-2,-4.5158842E-1,-1.8981839E-2,-3.0767152E-2,-4.9761296E-3,3.9358665E-3,-4.870931E-2,-1.7333882E-2],"categories":[],"categories_nodes":[],"categories_segments":[],"categories_sizes":[],"default_left":[0,0,0,0,0,0,0,0,0,0,0,0,0],"id":51,"left_children":[1,3,5,7,-1,9,11,-1,-1,-1,-1,-1,-1],"loss_changes":[1.6181276E1,2.0875378E0,9.468162E0,5.25527E-1,0E0,7.559679E0,2.1123295E0,0E0,0E0,0E0,0E0,0E0,0E0],"parents":[2147483647,0,0,1,1,2,2,3,3,5,5,6,6],"right_children":[2,4,6,8,-1,10,12,-1,-1,-1,-1,-1,-1],"split_conditions":[4E0,1.7607571E-1,3.3115575E-1,5.6485843E-2,-5.0666224E-2,-4.2232923E-2,9.64783E-2,-1.8981839E-2,-3.0767152E-2,-4.9761296E-3,3.9358665E-3,-4.870931E-2,-1.7333882E-2],"split_indices":[6,8,8,8,0,7,7,0,0,0,0,0,0],"split_type":[0,0,0,0,0,0,0,0,0,0,0,0,0],"sum_hessian":[2.6530051E3,9.597729E1,2.557028E3,7.938433E1,1.6592953E1,2.5146255E3,4.240249E1,4.9859764E1,2.9524572E1,6.1853186E2,1.8960936E3,1.929385E1,2.3108639E1],"tree_param":{"num_deleted":"0","num_feature":"9","num_nodes":"13","size_leaf_vector":"1"}},{"base_weights":[-9.716489E-3,8.006465E-2,-5.7001162E-2,3.894737E-2,3.399093E-1,-4.2013076E-1,-3.7283838E-2,8.07222E-4,5.2141757E-3,3.0848177E-2,4.6336967E-3,8.07222E-4,-3.4989428E-2,-1.9706993E-3,-6.2189568E-2],"categories":[],"categories_nodes":[],"categories_segments":[],"categories_sizes":[],"default_left":[0,0,0,0,0,0,0,0,0,0,0,0,0,0,0],"id":52,"left_children":[1,3,5,7,9,11,13,-1,-1,-1,-1,-1,-1,-1,-1],"loss_changes":[1.1226608E1,9.747017E0,1.240247E1,1.6280973E0,3.4380178E0,3.915434E0,1.2768896E1,0E0,0E0,0E0,0E0,0E0,0E0,0E0,0E0],"parents":[2147483647,0,0,1,1,2,2,3,3,4,4,5,5,6,6],"right_children":[2,4,6,8,10,12,14,-1,-1,-1,-1,-1,-1,-1,-1],"split_conditions":[2E0,6.1E1,9E0,5.81E1,7.1E1,4.71E1,8.4E1,8.07222E-4,5.2141757E-3,3.0848177E-2,4.6336967E-3,8.07222E-4,-3.4989428E-2,-1.9706993E-3,-6.2189568E-2],"split_indices":[0,6,6,5,6,5,6,0,0,0,0,0,0,0,0],"split_type":[0,0,0,0,0,0,0,0,0,0,0,0,0,0,0],"sum_hessian":[2.6444937E3,9.1229144E2,1.7322023E3,7.876558E2,1.24635635E2,8.921038E1,1.642992E3,2.2752019E2,5.601356E2,9.109462E1,3.3541016E1,1.0673726E1,7.853666E1,1.6255542E3,1.7437696E1],"tree_param":{"num_deleted":"0","num_feature":"9","num_nodes":"15","size_leaf_vector":"1"}},{"base_weights":[-5.7013896E-3,-2.7870786E-1,8.864563E-3,-2.0738582E-1,-5.4988157E-2,3.484721E-2,-1.3403107E-1,-3.4752585E-2,-9.563778E-3,-3.471435E-3,3.7952042E-3,-6.7308843E-3,-3.5762563E-2],"categories":[],"categories_nodes":[],"categories_segments":[],"categories_sizes":[],"default_left":[0,0,0,0,0,0,0,0,0,0,0,0,0],"id":53,"left_children":[1,3,5,7,-1,9,11,-1,-1,-1,-1,-1,-1],"loss_changes":[1.0599322E1,4.8801613E0,9.394944E0,2.5849962E0,0E0,4.5488234E0,5.556988E0,0E0,0E0,0E0,0E0,0E0,0E0],"parents":[2147483647,0,0,1,1,2,2,3,3,5,5,6,6],"right_children":[2,4,6,8,-1,10,12,-1,-1,-1,-1,-1,-1],"split_conditions":[6E0,1.9821477E-1,8E0,-7.646675E-2,-5.4988157E-2,-8.728797E-2,2.3807353E-1,-3.4752585E-2,-9.563778E-3,-3.471435E-3,3.7952042E-3,-6.7308843E-3,-3.5762563E-2],"split_indices":[6,8,0,7,0,7,8,0,0,0,0,0,0],"split_type":[0,0,0,0,0,0,0,0,0,0,0,0,0],"sum_hessian":[2.665418E3,1.3500623E2,2.5304116E3,1.18353226E2,1.6653E1,2.141098E3,3.893138E2,2.200487E1,9.634836E1,3.0236707E2,1.8387307E3,3.5376147E2,3.5552364E1],"tree_param":{"num_deleted":"0","num_feature":"9","num_nodes":"13","size_leaf_vector":"1"}},{"base_weights":[-2.1668503E-2,-4.7323804E-2,1.7110126E-1,-3.838314E-1,-3.6319274E-2,-1.2041872E-2,2.5840998E-1,-3.3481058E-2,-1.7494062E-2,-2.0477006E-3,-4.00759E-2,-3.1181667E-2,8.622884E-3,2.2840256E-2,8.622884E-3],"categories":[],"categories_nodes":[],"categories_segments":[],"categories_sizes":[],"default_left":[0,0,0,0,0,0,0,0,0,0,0,0,0,0,0],"id":54,"left_children":[1,3,5,7,9,11,13,-1,-1,-1,-1,-1,-1,-1,-1],"loss_changes":[1.30128E1,8.599175E0,4.941725E0,9.301472E-1,8.519924E0,6.2425904E0,2.808797E0,0E0,0E0,0E0,0E0,0E0,0E0,0E0,0E0],"parents":[2147483647,0,0,1,1,2,2,3,3,4,4,5,5,6,6],"right_children":[2,4,6,8,10,12,14,-1,-1,-1,-1,-1,-1,-1,-1],"split_conditions":[6.3E1,3E0,-3.955839E2,5.994453E0,1.6E1,-4.7700394E-2,7.5E1,-3.3481058E-2,-1.7494062E-2,-2.0477006E-3,-4.00759E-2,-3.1181667E-2,8.622884E-3,2.2840256E-2,8.622884E-3],"split_indices":[6,6,1,1,0,7,6,0,0,0,0,0,0,0,0],"split_type":[0,0,0,0,0,0,0,0,0,0,0,0,0,0,0],"sum_hessian":[2.6312014E3,2.3221523E3,3.0904913E2,7.35334E1,2.248619E3,9.976916E1,2.0927998E2,4.311525E1,3.0418152E1,2.2193713E3,2.9247494E1,2.4947243E1,7.4821915E1,1.6085844E2,4.842155E1],"tree_param":{"num_deleted":"0","num_feature":"9","num_nodes":"15","size_leaf_vector":"1"}},{"base_weights":[-1.8117784E-2,-5.8497474E-2,4.9247332E-2,-4.625071E-3,-1.410326E-1,1.00627966E-1,-4.625071E-3,-3.2375497E-4,-5.098019E-3,-5.098019E-3,-1.6312258E-2,4.8618293E-3,1.5233792E-2,-3.2375497E-4,3.3601013E-3],"categories":[],"categories_nodes":[],"categories_segments":[],"categories_sizes":[],"default_left":[0,0,0,0,0,0,0,0,0,0,0,0,0,0,0],"id":55,"left_children":[1,3,5,7,9,11,13,-1,-1,-1,-1,-1,-1,-1,-1],"loss_changes":[7.1952114E0,8.295584E0,3.7777975E0,1.8806657E0,6.162652E0,2.1909056E0,1.6102048E0,0E0,0E0,0E0,0E0,0E0,0E0,0E0,0E0],"parents":[2147483647,0,0,1,1,2,2,3,3,4,4,5,5,6,6],"right_children":[2,4,6,8,10,12,14,-1,-1,-1,-1,-1,-1,-1,-1],"split_conditions":[7.7470705E-2,5.7856966E-2,1.2833157E-1,1.2E1,3E0,7.9E1,2.6692533E-1,-3.2375497E-4,-5.098019E-3,-5.098019E-3,-1.6312258E-2,4.8618293E-3,1.5233792E-2,-3.2375497E-4,3.3601013E-3],"split_indices":[7,8,8,0,0,5,7,0,0,0,0,0,0,0,0],"split_type":[0,0,0,0,0,0,0,0,0,0,0,0,0,0,0],"sum_hessian":[2.6451172E3,1.6538027E3,9.913144E2,9.500203E2,7.037824E2,6.007126E2,3.9060184E2,9.113308E2,3.868954E1,3.3610663E2,3.6767578E2,4.743319E2,1.2638065E2,3.166839E2,7.391795E1],"tree_param":{"num_deleted":"0","num_feature":"9","num_nodes":"15","size_leaf_vector":"1"}},{"base_weights":[-7.907134E-3,-1.3313073E-1,1.8682584E-2,-2.730614E-1,-5.7224073E-2,-5.7224073E-2,3.689139E-2,-1.2448616E-2,-3.0795982E-2,-4.005685E-3,-1.1559991E-2,-4.005685E-3,1.3313481E-2,-9.33061E-4,6.0826098E-3],"categories":[],"categories_nodes":[],"categories_segments":[],"categories_sizes":[],"default_left":[0,0,0,0,0,0,0,0,0,0,0,0,0,0,0],"id":56,"left_children":[1,3,5,7,9,11,13,-1,-1,-1,-1,-1,-1,-1,-1],"loss_changes":[8.786874E0,6.552867E0,5.2944355E0,3.1436405E0,2.0641406E0,6.3806176E-1,5.056724E0,0E0,0E0,0E0,0E0,0E0,0E0,0E0,0E0],"parents":[2147483647,0,0,1,1,2,2,3,3,4,4,5,5,6,6],"right_children":[2,4,6,8,10,12,14,-1,-1,-1,-1,-1,-1,-1,-1],"split_conditions":[-3.955839E2,-8.292885E-3,4.21E1,7.2E1,1.1E1,5.269099E2,1E0,-1.2448616E-2,-3.0795982E-2,-4.005685E-3,-1.1559991E-2,-4.005685E-3,1.3313481E-2,-9.33061E-4,6.0826098E-3],"split_indices":[1,7,5,5,0,1,2,0,0,0,0,0,0,0,0],"split_type":[0,0,0,0,0,0,0,0,0,0,0,0,0,0,0],"sum_hessian":[2.638966E3,4.6220758E2,2.1767585E3,1.9782825E2,2.6437933E2,1.6308835E2,2.0136702E3,1.25957924E2,7.1870316E1,2.264237E2,3.795564E1,1.526663E2,1.0422046E1,1.00464734E3,1.0090228E3],"tree_param":{"num_deleted":"0","num_feature":"9","num_nodes":"15","size_leaf_vector":"1"}},{"base_weights":[6.2555852E-3,1.6544083E-2,-4.2682832E-1,-2.0514213E-1,2.8665967E-2,-6.544774E-1,-2.8559485E-1,-1.4359949E-2,-8.284275E-3,-1.0591416E-2,3.056461E-3,-1.677724E-2,-6.9584444E-2,-3.0574018E-2,-1.4359949E-2],"categories":[],"categories_nodes":[],"categories_segments":[],"categories_sizes":[],"default_left":[0,0,0,0,0,0,0,0,0,0,0,0,0,0,0],"id":57,"left_children":[1,3,5,7,9,11,13,-1,-1,-1,-1,-1,-1,-1,-1],"loss_changes":[1.1625648E1,9.07034E0,1.9463987E0,2.7346992E-1,6.6320944E0,3.2648468E0,1.1341019E0,0E0,0E0,0E0,0E0,0E0,0E0,0E0,0E0],"parents":[2147483647,0,0,1,1,2,2,3,3,4,4,5,5,6,6],"right_children":[2,4,6,8,10,12,14,-1,-1,-1,-1,-1,-1,-1,-1],"split_conditions":[3.1162813E-1,4E0,6.26E1,5.994453E0,4.17E1,5.16E1,1E0,-1.4359949E-2,-8.284275E-3,-1.0591416E-2,3.056461E-3,-1.677724E-2,-6.9584444E-2,-3.0574018E-2,-1.4359949E-2],"split_indices":[8,6,5,1,5,5,2,0,0,0,0,0,0,0,0],"split_type":[0,0,0,0,0,0,0,0,0,0,0,0,0,0,0],"sum_hessian":[2.6091096E3,2.5485662E3,6.054351E1,9.1489716E1,2.4570764E3,2.3178556E1,3.7364952E1,5.5183235E1,3.6306484E1,1.8900616E2,2.2680703E3,1.0434667E1,1.274389E1,2.5645514E1,1.171944E1],"tree_param":{"num_deleted":"0","num_feature":"9","num_nodes":"15","size_leaf_vector":"1"}},{"base_weights":[3.0284505E-3,-2.766632E-1,1.7691974E-2,-1.9582735E-1,-6.99683E-1,1.3756964E-2,7.0165634E-2,-3.1342864E-2,-8.100858E-3,-3.1342864E-2,-7.9179406E-2,-1.1639162E-2,2.145753E-3],"categories":[],"categories_nodes":[],"categories_segments":[],"categories_sizes":[],"default_left":[0,0,0,0,0,0,0,0,0,0,0,0,0],"id":58,"left_children":[1,3,5,7,9,11,-1,-1,-1,-1,-1,-1,-1],"loss_changes":[1.0754705E1,4.4668064E0,9.654431E0,2.8852806E0,3.344818E0,7.5492563E0,0E0,0E0,0E0,0E0,0E0,0E0,0E0],"parents":[2147483647,0,0,1,1,2,2,3,3,4,4,5,5],"right_children":[2,4,6,8,10,12,-1,-1,-1,-1,-1,-1,-1],"split_conditions":[6E0,1.7788798E-1,4.21705E-1,5.36E1,6.2E0,4.3E1,7.0165634E-2,-3.1342864E-2,-8.100858E-3,-3.1342864E-2,-7.9179406E-2,-1.1639162E-2,2.145753E-3],"split_indices":[6,8,7,5,4,5,0,0,0,0,0,0,0],"split_type":[0,0,0,0,0,0,0,0,0,0,0,0,0],"sum_hessian":[2.6222856E3,1.3063005E2,2.4916555E3,1.0967391E2,2.0956133E1,2.4817393E3,9.916489E0,2.0360294E1,8.931362E1,1.0946424E1,1.0009709E1,2.129358E2,2.2688032E3],"tree_param":{"num_deleted":"0","num_feature":"9","num_nodes":"13","size_leaf_vector":"1"}},{"base_weights":[-7.910884E-3,-2.411279E-1,6.6257706E-3,-1.8851975E-1,-5.9930307E-1,1.1478568E-2,-4.8095772E-1,-2.75738E-2,-1.0954358E-2,-5.6705944E-2,-2.75738E-2,-2.1854832E-3,4.1494854E-3,-1.643177E-2,-6.65122E-2],"categories":[],"categories_nodes":[],"categories_segments":[],"categories_sizes":[],"default_left":[0,0,0,0,0,0,0,0,0,0,0,0,0,0,0],"id":59,"left_children":[1,3,5,7,9,11,13,-1,-1,-1,-1,-1,-1,-1,-1],"loss_changes":[9.0058975E0,2.9368162E0,5.9167643E0,1.1858239E0,1.0462046E0,5.0535073E0,3.3641977E0,0E0,0E0,0E0,0E0,0E0,0E0,0E0,0E0],"parents":[2147483647,0,0,1,1,2,2,3,3,4,4,5,5,6,6],"right_children":[2,4,6,8,10,12,14,-1,-1,-1,-1,-1,-1,-1,-1],"split_conditions":[7E0,1.9821477E-1,2.27E1,-1.067407E-1,-3.257965E1,1E0,4.1E1,-2.75738E-2,-1.0954358E-2,-5.6705944E-2,-2.75738E-2,-2.1854832E-3,4.1494854E-3,-1.643177E-2,-6.65122E-2],"split_indices":[6,8,4,7,1,2,6,0,0,0,0,0,0,0,0],"split_type":[0,0,0,0,0,0,0,0,0,0,0,0,0,0,0],"sum_hessian":[2.6564482E3,1.55863E2,2.5005852E3,1.3590352E2,1.9959486E1,2.4759438E3,2.4641306E1,1.3154617E1,1.2274891E2,1.0901987E1,9.057498E0,1.3077369E3,1.168207E3,1.515103E1,9.490276E0],"tree_param":{"num_deleted":"0","num_feature":"9","num_nodes":"15","size_leaf_vector":"1"}},{"base_weights":[-1.6182013E-2,-4.5759973E-1,-8.343759E-3,-3.7526348E-1,-5.4371953E-2,3.2396145E-2,-8.243825E-2,-7.4350643E-3,-4.03202E-2,-1.2198967E-3,9.205773E-3,-1.7671788E-2,-3.5660402E-3],"categories":[],"categories_nodes":[],"categories_segments":[],"categories_sizes":[],"default_left":[0,0,0,0,0,0,0,0,0,0,0,0,0],"id":60,"left_children":[1,3,5,7,-1,9,11,-1,-1,-1,-1,-1,-1],"loss_changes":[9.0117235E0,1.1937666E0,7.725045E0,3.0924616E0,0E0,8.154177E0,4.861502E0,0E0,0E0,0E0,0E0,0E0,0E0],"parents":[2147483647,0,0,1,1,2,2,3,3,5,5,6,6],"right_children":[2,4,6,8,-1,10,12,-1,-1,-1,-1,-1,-1],"split_conditions":[2E0,1.3206936E-1,1.05656505E-1,7.05E1,-5.4371953E-2,4.4E1,-4.3552976E-2,-7.4350643E-3,-4.03202E-2,-1.2198967E-3,9.205773E-3,-1.7671788E-2,-3.5660402E-3],"split_indices":[6,8,8,5,0,6,7,0,0,0,0,0,0],"split_type":[0,0,0,0,0,0,0,0,0,0,0,0,0],"sum_hessian":[2.6045837E3,4.5441475E1,2.559142E3,3.6124245E1,9.317233E0,1.6512333E3,9.0790894E2,2.060856E1,1.5515683E1,1.0988582E3,5.523751E2,1.41899E2,7.6600995E2],"tree_param":{"num_deleted":"0","num_feature":"9","num_nodes":"13","size_leaf_vector":"1"}},{"base_weights":[-1.0365994E-2,7.68049E-2,-5.6692444E-2,7.124391E-2,4.174017E-2,-3.3612078E-1,-2.7722768E-2,7.039359E-4,6.0058646E-3,-3.6604363E-2,-1.2734525E-2,-9.893527E-3,1.409565E-4],"categories":[],"categories_nodes":[],"categories_segments":[],"categories_sizes":[],"default_left":[0,0,0,0,0,0,0,0,0,0,0,0,0],"id":61,"left_children":[1,3,5,7,-1,9,11,-1,-1,-1,-1,-1,-1],"loss_changes":[1.0604289E1,2.6324167E0,1.3880135E1,1.5330739E0,0E0,5.3876324E0,5.248773E0,0E0,0E0,0E0,0E0,0E0,0E0],"parents":[2147483647,0,0,1,1,2,2,3,3,5,5,6,6],"right_children":[2,4,6,8,-1,10,12,-1,-1,-1,-1,-1,-1],"split_conditions":[2E0,1.369245E3,-1.1930087E-1,2E0,4.174017E-2,3.7E1,2.6E1,7.039359E-4,6.0058646E-3,-3.6604363E-2,-1.2734525E-2,-9.893527E-3,1.409565E-4],"split_indices":[0,1,7,6,0,6,6,0,0,0,0,0,0],"split_type":[0,0,0,0,0,0,0,0,0,0,0,0,0],"sum_hessian":[2.6259138E3,9.112482E2,1.7146656E3,9.015981E2,9.650139E0,1.6106764E2,1.553598E3,4.5969288E1,8.556288E2,7.926867E1,8.1798965E1,3.222772E2,1.2313209E3],"tree_param":{"num_deleted":"0","num_feature":"9","num_nodes":"13","size_leaf_vector":"1"}},{"base_weights":[6.06563E-3,-4.8448484E-2,6.7873396E-2,2.8171886E-2,-1.2546155E-1,7.5054266E-2,-4.0098093E-2,5.1856186E-2,1.272847E-3,-4.33699E-2,-7.5845774E-3,1.1838916E-3,1.0242444E-2],"categories":[],"categories_nodes":[],"categories_segments":[],"categories_sizes":[],"default_left":[0,0,0,0,0,0,0,0,0,0,0,0,0],"id":62,"left_children":[1,3,5,7,9,11,-1,-1,-1,-1,-1,-1,-1],"loss_changes":[8.846558E0,8.232142E0,5.6612053E0,4.977845E0,5.8822174E0,5.0419726E0,0E0,0E0,0E0,0E0,0E0,0E0,0E0],"parents":[2147483647,0,0,1,1,2,2,3,3,4,4,5,5],"right_children":[2,4,6,8,10,12,-1,-1,-1,-1,-1,-1,-1],"split_conditions":[3.8E1,3E0,2E1,-2.3391217E-1,6E0,1E0,-4.0098093E-2,5.1856186E-2,1.272847E-3,-4.33699E-2,-7.5845774E-3,1.1838916E-3,1.0242444E-2],"split_indices":[6,0,0,8,6,2,0,0,0,0,0,0,0],"split_type":[0,0,0,0,0,0,0,0,0,0,0,0,0],"sum_hessian":[2.6255586E3,1.3950936E3,1.2304651E3,6.9933E2,6.957636E2,1.2168281E3,1.3636932E1,9.665266E0,6.8966473E2,2.3285751E1,6.7247784E2,6.701217E2,5.467064E2],"tree_param":{"num_deleted":"0","num_feature":"9","num_nodes":"13","size_leaf_vector":"1"}},{"base_weights":[-1.9181158E-2,4.4084232E-2,-5.21372E-2,-4.0264837E-3,9.285961E-2,-9.318476E-2,-4.0264837E-3,-2.8185386E-4,1.4805139E-2,9.603814E-3,-2.8185386E-4,-6.0039796E-3,-2.9890181E-2,-3.4023935E-3,-2.8185386E-4],"categories":[],"categories_nodes":[],"categories_segments":[],"categories_sizes":[],"default_left":[0,0,0,0,0,0,0,0,0,0,0,0,0,0,0],"id":63,"left_children":[1,3,5,7,9,11,13,-1,-1,-1,-1,-1,-1,-1,-1],"loss_changes":[5.4692364E0,2.9099548E0,5.463143E0,1.8890733E0,3.975749E0,2.9436398E0,1.4880284E0,0E0,0E0,0E0,0E0,0E0,0E0,0E0,0E0],"parents":[2147483647,0,0,1,1,2,2,3,3,4,4,5,5,6,6],"right_children":[2,4,6,8,10,12,14,-1,-1,-1,-1,-1,-1,-1,-1],"split_conditions":[2E0,3.2E1,9.766341E-2,8.38E1,1.24E1,1.7E1,2.2E1,-2.8185386E-4,1.4805139E-2,9.603814E-3,-2.8185386E-4,-6.0039796E-3,-2.9890181E-2,-3.4023935E-3,-2.8185386E-4],"split_indices":[0,6,7,5,4,0,6,0,0,0,0,0,0,0,0],"split_type":[0,0,0,0,0,0,0,0,0,0,0,0,0,0,0],"sum_hessian":[2.6231602E3,8.984375E2,1.7247227E3,3.6689926E2,5.3153827E2,1.1894595E3,5.352632E2,3.2623383E2,4.0665436E1,4.495168E2,8.202143E1,1.1636187E3,2.5840832E1,8.4951294E1,4.503119E2],"tree_param":{"num_deleted":"0","num_feature":"9","num_nodes":"15","size_leaf_vector":"1"}},{"base_weights":[-1.1138906E-2,-5.2317347E-2,4.455399E-2,-1.09046465E-2,-1.9055472E-1,2.7306113E-2,3.9888865E-1,8.552176E-3,-1.8727154E-3,-7.8109372E-3,-3.0249596E-2,5.9051667E-3,-5.0074663E-3,1.4916817E-2,4.703267E-2],"categories":[],"categories_nodes":[],"categories_segments":[],"categories_sizes":[],"default_left":[0,0,0,0,0,0,0,0,0,0,0,0,0,0,0],"id":64,"left_children":[1,3,5,7,9,11,13,-1,-1,-1,-1,-1,-1,-1,-1],"loss_changes":[6.0539975E0,8.688318E0,6.857973E0,2.4630375E0,6.674308E0,6.034298E0,3.1342144E0,0E0,0E0,0E0,0E0,0E0,0E0,0E0,0E0],"parents":[2147483647,0,0,1,1,2,2,3,3,4,4,5,5,6,6],"right_children":[2,4,6,8,10,12,14,-1,-1,-1,-1,-1,-1,-1,-1],"split_conditions":[4E1,6E0,2.6692533E-1,-1.0499112E-1,1.4709449E-1,1.0707655E-1,1E0,8.552176E-3,-1.8727154E-3,-7.8109372E-3,-3.0249596E-2,5.9051667E-3,-5.0074663E-3,1.4916817E-2,4.703267E-2],"split_indices":[6,0,7,8,8,8,2,0,0,0,0,0,0,0,0],"split_type":[0,0,0,0,0,0,0,0,0,0,0,0,0,0,0],"sum_hessian":[2.639805E3,1.5176667E3,1.1221383E3,1.1678173E3,3.4984952E2,1.0700527E3,5.2085464E1,1.2427517E2,1.0435421E3,2.636634E2,8.6186134E1,6.7844165E2,3.9161118E2,2.8655226E1,2.3430239E1],"tree_param":{"num_deleted":"0","num_feature":"9","num_nodes":"15","size_leaf_vector":"1"}},{"base_weights":[4.554285E-3,1.4829966E-1,-1.3324899E-2,6.748738E-2,2.2707799E-1,-1.6254403E-1,1.1200294E-3,4.7241165E-3,1.0309788E-2,1.1695033E-2,2.5170311E-2,4.7241165E-3,-1.7642105E-2,2.0971477E-3,-5.715272E-3],"categories":[],"categories_nodes":[],"categories_segments":[],"categories_sizes":[],"default_left":[0,0,0,0,0,0,0,0,0,0,0,0,0,0,0],"id":65,"left_children":[1,3,5,7,9,11,13,-1,-1,-1,-1,-1,-1,-1,-1],"loss_changes":[6.689745E0,3.269349E0,4.989932E0,1.6685379E-1,1.607543E0,4.293384E0,5.0380845E0,0E0,0E0,0E0,0E0,0E0,0E0,0E0,0E0],"parents":[2147483647,0,0,1,1,2,2,3,3,4,4,5,5,6,6],"right_children":[2,4,6,8,10,12,14,-1,-1,-1,-1,-1,-1,-1,-1],"split_conditions":[-9.050602E-2,-2.4595827E1,4.33E1,1.0888066E-1,7.72E1,3.4E1,1.5575135E-1,4.7241165E-3,1.0309788E-2,1.1695033E-2,2.5170311E-2,4.7241165E-3,-1.7642105E-2,2.0971477E-3,-5.715272E-3],"split_indices":[8,1,5,7,5,5,8,0,0,0,0,0,0,0,0],"split_type":[0,0,0,0,0,0,0,0,0,0,0,0,0,0,0],"sum_hessian":[2.6029573E3,2.8794278E2,2.3150146E3,8.574625E1,2.0219653E2,2.043214E2,2.110693E3,7.67182E1,9.0280485E0,1.39171E2,6.3025524E1,5.636688E1,1.4795453E2,1.5652863E3,5.4540686E2],"tree_param":{"num_deleted":"0","num_feature":"9","num_nodes":"15","size_leaf_vector":"1"}},{"base_weights":[-2.2361355E-2,-1.9945306E-1,-3.5201479E-3,-4.2854068E-1,-1.014866E-1,1.9790333E-2,-1.014866E-1,-1.9707028E-2,-5.9147295E-2,-1.8550955E-2,-7.104062E-3,4.83331E-3,-1.874297E-3,-2.8593696E-3,-7.104062E-3],"categories":[],"categories_nodes":[],"categories_segments":[],"categories_sizes":[],"default_left":[0,0,0,0,0,0,0,0,0,0,0,0,0,0,0],"id":66,"left_children":[1,3,5,7,9,11,13,-1,-1,-1,-1,-1,-1,-1,-1],"loss_changes":[8.771672E0,5.986534E0,7.128735E0,4.8145943E0,2.8118827E0,4.6680427E0,1.3093982E0,0E0,0E0,0E0,0E0,0E0,0E0,0E0,0E0],"parents":[2147483647,0,0,1,1,2,2,3,3,4,4,5,5,6,6],"right_children":[2,4,6,8,10,12,14,-1,-1,-1,-1,-1,-1,-1,-1],"split_conditions":[-1.14321895E-1,-2.7034363E2,8E0,7.86E1,5.36E1,5.7856966E-2,-3.3779833E-2,-1.9707028E-2,-5.9147295E-2,-1.8550955E-2,-7.104062E-3,4.83331E-3,-1.874297E-3,-2.8593696E-3,-7.104062E-3],"split_indices":[7,1,0,5,5,8,8,0,0,0,0,0,0,0,0],"split_type":[0,0,0,0,0,0,0,0,0,0,0,0,0,0,0],"sum_hessian":[2.6289065E3,2.527985E2,2.376108E3,7.864901E1,1.7414949E2,2.035155E3,3.4095297E2,5.8129227E1,2.0519781E1,3.815389E1,1.359956E2,9.890013E2,1.0461538E3,6.51013E1,2.7585165E2],"tree_param":{"num_deleted":"0","num_feature":"9","num_nodes":"15","size_leaf_vector":"1"}},{"base_weights":[3.2136913E-3,-4.5983937E-1,8.54285E-3,-3.1677252E-1,-5.165602E-2,5.6254704E-2,-3.9925326E-2,-4.0907096E-2,-2.9473987E-3,9.331495E-3,2.4577125E-3,-1.2047554E-2,5.715282E-4],"categories":[],"categories_nodes":[],"categories_segments":[],"categories_sizes":[],"default_left":[0,0,0,0,0,0,0,0,0,0,0,0,0],"id":67,"left_children":[1,3,5,7,-1,9,11,-1,-1,-1,-1,-1,-1],"loss_changes":[6.3855267E0,1.1711493E0,5.915894E0,1.4291116E0,0E0,2.1003528E0,1.1470127E1,0E0,0E0,0E0,0E0,0E0,0E0],"parents":[2147483647,0,0,1,1,2,2,3,3,5,5,6,6],"right_children":[2,4,6,8,-1,10,12,-1,-1,-1,-1,-1,-1],"split_conditions":[2.73E1,4.3E1,5.7856966E-2,3.2E1,-5.165602E-2,-9.050602E-2,3.2E1,-4.0907096E-2,-2.9473987E-3,9.331495E-3,2.4577125E-3,-1.2047554E-2,5.715282E-4],"split_indices":[5,6,8,6,0,8,6,0,0,0,0,0,0],"split_type":[0,0,0,0,0,0,0,0,0,0,0,0,0],"sum_hessian":[2.5876538E3,2.9440655E1,2.5582131E3,1.9441658E1,9.998999E0,1.289165E3,1.2690481E3,9.846559E0,9.5950985E0,2.775916E2,1.0115734E3,4.4325363E2,8.2579443E2],"tree_param":{"num_deleted":"0","num_feature":"9","num_nodes":"13","size_leaf_vector":"1"}},{"base_weights":[1.636357E-2,-2.4789101E-1,2.340267E-2,-4.191371E-2,-1.5539432E-1,3.186429E-2,-2.1926926E-1,6.419327E-3,-2.9560903E-2,-4.235309E-3,3.6883608E-3,-6.714083E-3,-3.527693E-2],"categories":[],"categories_nodes":[],"categories_segments":[],"categories_sizes":[],"default_left":[0,0,0,0,0,0,0,0,0,0,0,0,0],"id":68,"left_children":[1,3,5,-1,7,9,11,-1,-1,-1,-1,-1,-1],"loss_changes":[4.882348E0,2.2101707E0,5.249828E0,0E0,3.554656E0,4.7525787E0,3.0250492E0,0E0,0E0,0E0,0E0,0E0,0E0],"parents":[2147483647,0,0,1,1,2,2,4,4,5,5,6,6],"right_children":[2,4,6,-1,8,10,12,-1,-1,-1,-1,-1,-1],"split_conditions":[3E0,5.4E1,3.1E-2,-4.191371E-2,7.11E1,-3.8545767E2,4.7E1,6.419327E-3,-2.9560903E-2,-4.235309E-3,3.6883608E-3,-6.714083E-3,-3.527693E-2],"split_indices":[6,5,3,0,5,1,6,0,0,0,0,0,0],"split_type":[0,0,0,0,0,0,0,0,0,0,0,0,0],"sum_hessian":[2.6247485E3,6.8101746E1,2.5566467E3,1.4206076E1,5.389567E1,2.470505E3,8.614185E1,2.7986525E1,2.5909145E1,4.545428E2,2.015962E3,6.0101627E1,2.6040228E1],"tree_param":{"num_deleted":"0","num_feature":"9","num_nodes":"13","size_leaf_vector":"1"}},{"base_weights":[-1.845027E-3,-2.2371033E-1,1.6403655E-2,-2.6249856E-1,3.5414305E-2,2.4340524E-1,-6.57131E-3,-3.004002E-2,-1.04673095E-2,2.5471484E-3,2.6699414E-2,-1.9102591E-3,1.209037E-2],"categories":[],"categories_nodes":[],"categories_segments":[],"categories_sizes":[],"default_left":[0,0,0,0,0,0,0,0,0,0,0,0,0],"id":69,"left_children":[1,3,5,7,-1,9,11,-1,-1,-1,-1,-1,-1],"loss_changes":[1.0636489E1,5.650749E0,1.2659983E1,3.5688343E0,0E0,6.374358E0,8.188182E0,0E0,0E0,0E0,0E0,0E0,0E0],"parents":[2147483647,0,0,1,1,2,2,3,3,5,5,6,6],"right_children":[2,4,6,8,-1,10,12,-1,-1,-1,-1,-1,-1],"split_conditions":[4.21E1,2.5936845E-1,4.93E1,3.3E1,3.5414305E-2,-6.494247E1,6.6E1,-3.004002E-2,-1.04673095E-2,2.5471484E-3,2.6699414E-2,-1.9102591E-3,1.209037E-2],"split_indices":[5,7,5,6,0,1,6,0,0,0,0,0,0],"split_type":[0,0,0,0,0,0,0,0,0,0,0,0,0],"sum_hessian":[2.6270996E3,1.9965887E2,2.4274407E3,1.8958119E2,1.0077677E1,2.2310146E2,2.204339E3,7.659153E1,1.1298967E2,8.9242516E1,1.3385893E2,1.9760017E3,2.2833746E2],"tree_param":{"num_deleted":"0","num_feature":"9","num_nodes":"13","size_leaf_vector":"1"}},{"base_weights":[-1.6235732E-2,-7.6742955E-2,5.126009E-2,-4.09376E-2,-2.0150542E-1,6.459969E-2,-3.5757214E-1,3.035631E-2,-3.6554253E-3,-1.2565571E-2,-5.7019066E-2,2.643029E-3,1.863985E-2,-1.0254036E-2,-4.9121E-2],"categories":[],"categories_nodes":[],"categories_segments":[],"categories_sizes":[],"default_left":[0,0,0,0,0,0,0,0,0,0,0,0,0,0,0],"id":70,"left_children":[1,3,5,7,9,11,13,-1,-1,-1,-1,-1,-1,-1,-1],"loss_changes":[1.059474E1,6.1107407E0,6.6877995E0,5.6915927E0,4.113405E0,6.428902E0,3.659453E0,0E0,0E0,0E0,0E0,0E0,0E0,0E0,0E0],"parents":[2147483647,0,0,1,1,2,2,3,3,4,4,5,5,6,6],"right_children":[2,4,6,8,10,12,14,-1,-1,-1,-1,-1,-1,-1,-1],"split_conditions":[3.8E1,6E0,3.1E-2,-1.9142352E-1,2.786259E-1,1.8980564E-1,5.4E1,3.035631E-2,-3.6554253E-3,-1.2565571E-2,-5.7019066E-2,2.643029E-3,1.863985E-2,-1.0254036E-2,-4.9121E-2],"split_indices":[6,0,3,8,8,7,6,0,0,0,0,0,0,0,0],"split_type":[0,0,0,0,0,0,0,0,0,0,0,0,0,0,0],"sum_hessian":[2.5942126E3,1.3679247E3,1.2262881E3,1.0628896E3,3.0503513E2,1.1875413E3,3.874675E1,2.4680538E1,1.0382091E3,2.9447058E2,1.0564547E1,1.0480568E3,1.3948457E2,2.1277674E1,1.7469076E1],"tree_param":{"num_deleted":"0","num_feature":"9","num_nodes":"15","size_leaf_vector":"1"}},{"base_weights":[-7.0856824E-3,1.3588431E-3,-3.706644E-1,-1.4137202E-2,1.2017113E-1,-4.8425323E-1,-1.2925695E-2,-2.0511781E-3,1.0787321E-2,-3.0549488E-3,1.3829016E-2,-1.2925695E-2,-4.1011784E-2],"categories":[],"categories_nodes":[],"categories_segments":[],"categories_sizes":[],"default_left":[0,0,0,0,0,0,0,0,0,0,0,0,0],"id":71,"left_children":[1,3,5,7,9,11,-1,-1,-1,-1,-1,-1,-1],"loss_changes":[8.031661E0,4.706978E0,2.3545055E0,5.7703795E0,3.739316E0,1.9564123E0,0E0,0E0,0E0,0E0,0E0,0E0,0E0],"parents":[2147483647,0,0,1,1,2,2,3,3,4,4,5,5],"right_children":[2,4,6,8,10,12,-1,-1,-1,-1,-1,-1,-1],"split_conditions":[3.1162813E-1,6.3E1,6E1,2.2273412E-1,-3.955839E2,1E-1,-1.2925695E-2,-2.0511781E-3,1.0787321E-2,-3.0549488E-3,1.3829016E-2,-1.2925695E-2,-4.1011784E-2],"split_indices":[8,6,6,7,1,4,0,0,0,0,0,0,0],"split_type":[0,0,0,0,0,0,0,0,0,0,0,0,0],"sum_hessian":[2.615955E3,2.5565767E3,5.93783E1,2.2616082E3,2.949685E2,4.911949E1,1.0258807E1,2.0746042E3,1.8700407E2,9.463753E1,2.00331E2,9.579555E0,3.9539936E1],"tree_param":{"num_deleted":"0","num_feature":"9","num_nodes":"13","size_leaf_vector":"1"}},{"base_weights":[1.2628886E-2,2.1849938E-2,-2.784976E-1,3.270322E-2,-1.2832384E-1,-5.063304E-1,-1.2832384E-1,9.499045E-3,1.0182357E-3,-3.3467216E-3,-8.982669E-3,-4.761481E-2,-1.8801823E-2,-8.982669E-3,-3.5741884E-2],"categories":[],"categories_nodes":[],"categories_segments":[],"categories_sizes":[],"default_left":[0,0,0,0,0,0,0,0,0,0,0,0,0,0,0],"id":72,"left_children":[1,3,5,7,9,11,13,-1,-1,-1,-1,-1,-1,-1,-1],"loss_changes":[6.9385815E0,5.0346327E0,3.7381134E0,4.4381E0,1.2760372E0,1.598939E0,1.4096707E0,0E0,0E0,0E0,0E0,0E0,0E0,0E0,0E0],"parents":[2147483647,0,0,1,1,2,2,3,3,4,4,5,5,6,6],"right_children":[2,4,6,8,10,12,14,-1,-1,-1,-1,-1,-1,-1,-1],"split_conditions":[2.9753524E-1,1.1E1,4E1,-7.288782E-2,6.13E1,1.3247721E-1,9.4E0,9.499045E-3,1.0182357E-3,-3.3467216E-3,-8.982669E-3,-4.761481E-2,-1.8801823E-2,-8.982669E-3,-3.5741884E-2],"split_indices":[8,0,6,8,5,7,4,0,0,0,0,0,0,0,0],"split_type":[0,0,0,0,0,0,0,0,0,0,0,0,0,0,0],"sum_hessian":[2.5846838E3,2.505332E3,7.935199E1,2.3731577E3,1.3217413E2,3.8684208E1,4.066778E1,3.5565573E2,2.0175021E3,4.760356E1,8.457058E1,2.2341282E1,1.6342928E1,3.1022463E1,9.645321E0],"tree_param":{"num_deleted":"0","num_feature":"9","num_nodes":"15","size_leaf_vector":"1"}},{"base_weights":[5.094121E-3,-1.5455386E-2,1.01864226E-1,-2.6456082E-1,-7.752167E-3,-1.6551417E-1,1.7982244E-1,-3.1720612E-2,-7.2359317E-4,-1.3930947E-4,-1.4112569E-2,5.007896E-4,-2.4767986E-2,3.2275382E-2,9.525578E-3],"categories":[],"categories_nodes":[],"categories_segments":[],"categories_sizes":[],"default_left":[0,0,0,0,0,0,0,0,0,0,0,0,0,0,0],"id":73,"left_children":[1,3,5,7,9,11,13,-1,-1,-1,-1,-1,-1,-1,-1],"loss_changes":[5.2323623E0,4.164674E0,9.606736E0,3.1212077E0,2.351552E0,3.4479547E0,4.390047E0,0E0,0E0,0E0,0E0,0E0,0E0,0E0,0E0],"parents":[2147483647,0,0,1,1,2,2,3,3,4,4,5,5,6,6],"right_children":[2,4,6,8,10,12,14,-1,-1,-1,-1,-1,-1,-1,-1],"split_conditions":[5.6E1,3E0,-4.912875E2,5.994453E0,2.9753524E-1,7.5E0,5.8E1,-3.1720612E-2,-7.2359317E-4,-1.3930947E-4,-1.4112569E-2,5.007896E-4,-2.4767986E-2,3.2275382E-2,9.525578E-3],"split_indices":[6,6,1,1,8,4,6,0,0,0,0,0,0,0,0],"split_type":[0,0,0,0,0,0,0,0,0,0,0,0,0,0,0],"sum_hessian":[2.6312031E3,2.1703267E3,4.6087653E2,6.5099785E1,2.1052268E3,1.0404049E2,3.5683603E2,3.737381E1,2.7725979E1,2.04446E3,6.0766766E1,5.3777164E1,5.026333E1,4.802656E1,3.0880945E2],"tree_param":{"num_deleted":"0","num_feature":"9","num_nodes":"15","size_leaf_vector":"1"}},{"base_weights":[-1.34431925E-2,5.1462483E-2,-4.7066115E-2,4.257923E-3,1.2691595E-1,-1.0460982E-1,2.198184E-3,1.5387287E-4,1.4296226E-2,1.175419E-2,1.5387287E-4,-6.454512E-3,-4.141752E-2,-3.5844073E-3,1.5387287E-4],"categories":[],"categories_nodes":[],"categories_segments":[],"categories_sizes":[],"default_left":[0,0,0,0,0,0,0,0,0,0,0,0,0,0,0],"id":74,"left_children":[1,3,5,7,9,11,13,-1,-1,-1,-1,-1,-1,-1,-1],"loss_changes":[5.6170955E0,3.1284542E0,6.0924406E0,2.7428532E0,2.5510745E0,5.405154E0,2.7636895E0,0E0,0E0,0E0,0E0,0E0,0E0,0E0,0E0],"parents":[2147483647,0,0,1,1,2,2,3,3,4,4,5,5,6,6],"right_children":[2,4,6,8,10,12,14,-1,-1,-1,-1,-1,-1,-1,-1],"split_conditions":[2E0,7.05E1,1E0,6.3E1,5.7E1,8E1,2.1E1,1.5387287E-4,1.4296226E-2,1.175419E-2,1.5387287E-4,-6.454512E-3,-4.141752E-2,-3.5844073E-3,1.5387287E-4],"split_indices":[0,5,2,6,6,6,6,0,0,0,0,0,0,0,0],"split_type":[0,0,0,0,0,0,0,0,0,0,0,0,0,0,0],"sum_hessian":[2.5739082E3,8.783468E2,1.6955614E3,5.4031866E2,3.380281E2,8.947714E2,8.007899E2,4.7306598E2,6.725266E1,2.8434634E2,5.368178E1,8.725545E2,2.2216923E1,1.23629524E2,6.771604E2],"tree_param":{"num_deleted":"0","num_feature":"9","num_nodes":"15","size_leaf_vector":"1"}},{"base_weights":[9.174057E-3,8.0798805E-2,-2.8137028E-2,2.7859865E-2,1.7555499E-1,-8.422067E-2,2.6330888E-2,6.2887766E-3,1.8431622E-3,9.4133215E-3,2.9824259E-2,-2.0261423E-3,-8.87915E-3,-2.0261423E-3,1.8431622E-3],"categories":[],"categories_nodes":[],"categories_segments":[],"categories_sizes":[],"default_left":[0,0,0,0,0,0,0,0,0,0,0,0,0,0,0],"id":75,"left_children":[1,3,5,7,9,11,13,-1,-1,-1,-1,-1,-1,-1,-1],"loss_changes":[6.922991E0,4.4508424E0,6.0214014E0,9.464879E-1,3.2726364E0,3.30907E0,2.862671E0,0E0,0E0,0E0,0E0,0E0,0E0,0E0,0E0],"parents":[2147483647,0,0,1,1,2,2,3,3,4,4,5,5,6,6],"right_children":[2,4,6,8,10,12,14,-1,-1,-1,-1,-1,-1,-1,-1],"split_conditions":[2E0,4.5E1,1E0,2.2E1,8.191843E1,3.1E1,3E1,6.2887766E-3,1.8431622E-3,9.4133215E-3,2.9824259E-2,-2.0261423E-3,-8.87915E-3,-2.0261423E-3,1.8431622E-3],"split_indices":[0,6,2,6,1,6,6,0,0,0,0,0,0,0,0],"split_type":[0,0,0,0,0,0,0,0,0,0,0,0,0,0,0],"sum_hessian":[2.590551E3,8.8727686E2,1.7032742E3,5.6924786E2,3.1802902E2,9.0614514E2,7.971291E2,2.3499295E2,3.3425488E2,2.732261E2,4.4802906E1,2.720221E2,6.3412305E2,2.293551E2,5.67774E2],"tree_param":{"num_deleted":"0","num_feature":"9","num_nodes":"15","size_leaf_vector":"1"}},{"base_weights":[-2.2561566E-3,2.0900958E-3,-5.5286324E-1,-1.5225837E-2,1.3245893E-1,-5.3194363E-2,-2.2568448E-2,2.7601814E-3,-3.0773901E-3,4.550444E-2,7.3508634E-3],"categories":[],"categories_nodes":[],"categories_segments":[],"categories_sizes":[],"default_left":[0,0,0,0,0,0,0,0,0,0,0],"id":76,"left_children":[1,3,5,7,9,-1,-1,-1,-1,-1,-1],"loss_changes":[6.184833E0,5.788616E0,9.6556187E-1,3.5553188E0,4.271145E0,0E0,0E0,0E0,0E0,0E0,0E0],"parents":[2147483647,0,0,1,1,2,2,3,3,4,4],"right_children":[2,4,6,8,10,-1,-1,-1,-1,-1,-1],"split_conditions":[1.9E1,6.3E1,0E0,2E0,6.4E1,-5.3194363E-2,-2.2568448E-2,2.7601814E-3,-3.0773901E-3,4.550444E-2,7.3508634E-3],"split_indices":[0,6,2,0,6,0,0,0,0,0,0],"split_type":[0,0,0,0,0,0,0,0,0,0,0],"sum_hessian":[2.584453E3,2.5642131E3,2.0239683E1,2.2635618E3,3.006514E2,1.0659683E1,9.58E0,7.800053E2,1.4835564E3,1.5138262E1,2.8551315E2],"tree_param":{"num_deleted":"0","num_feature":"9","num_nodes":"11","size_leaf_vector":"1"}},{"base_weights":[1.2313792E-2,2.189854E-2,-3.4290147E-1,-1.6050147E-1,3.0396117E-2,-1.6050147E-1,-5.3543615E-1,-1.1235103E-2,-3.8231122E-3,-3.52072E-3,3.4859644E-3,-1.1235103E-2,-2.4357818E-2,-4.85402E-2,-2.4357818E-2],"categories":[],"categories_nodes":[],"categories_segments":[],"categories_sizes":[],"default_left":[0,0,0,0,0,0,0,0,0,0,0,0,0,0,0],"id":77,"left_children":[1,3,5,7,9,11,13,-1,-1,-1,-1,-1,-1,-1,-1],"loss_changes":[8.878651E0,5.6731653E0,3.3298435E0,3.1079102E-1,3.8734272E0,1.7997559E0,2.2815914E0,0E0,0E0,0E0,0E0,0E0,0E0,0E0,0E0],"parents":[2147483647,0,0,1,1,2,2,3,3,4,4,5,5,6,6],"right_children":[2,4,6,8,10,12,14,-1,-1,-1,-1,-1,-1,-1,-1],"split_conditions":[3.9E-2,3E0,5.1584795E-2,5.994453E0,-3.539853E2,7.09E1,3.908121E0,-1.1235103E-2,-3.8231122E-3,-3.52072E-3,3.4859644E-3,-1.1235103E-2,-2.4357818E-2,-4.85402E-2,-2.4357818E-2],"split_indices":[3,6,8,1,1,5,1,0,0,0,0,0,0,0,0],"split_type":[0,0,0,0,0,0,0,0,0,0,0,0,0,0,0],"sum_hessian":[2.6077961E3,2.53928E3,6.851609E1,6.535675E1,2.4739233E3,2.861413E1,3.990196E1,3.763482E1,2.7721928E1,4.7956607E2,1.9943573E3,1.9003132E1,9.610999E0,3.0868124E1,9.033836E0],"tree_param":{"num_deleted":"0","num_feature":"9","num_nodes":"15","size_leaf_vector":"1"}},{"base_weights":[2.550872E-3,-5.3516775E-1,8.455276E-3,-2.0641496E-2,-6.59322E-2,5.1362734E-2,4.9468298E-3,2.759464E-3,-5.1378193E-3],"categories":[],"categories_nodes":[],"categories_segments":[],"categories_sizes":[],"default_left":[0,0,0,0,0,0,0,0,0],"id":78,"left_children":[1,3,5,-1,-1,-1,7,-1,-1],"loss_changes":[8.176959E0,2.7334976E0,6.4826E0,0E0,0E0,0E0,6.847344E0,0E0,0E0],"parents":[2147483647,0,0,1,1,2,2,6,6],"right_children":[2,4,6,-1,-1,-1,8,-1,-1],"split_conditions":[2.73E1,1.05656505E-1,3E1,-2.0641496E-2,-6.59322E-2,5.1362734E-2,5E0,2.759464E-3,-5.1378193E-3],"split_indices":[5,8,5,0,0,0,0,0,0],"split_type":[0,0,0,0,0,0,0,0,0],"sum_hessian":[2.5754888E3,2.797178E1,2.547517E3,1.7584772E1,1.0387008E1,1.2262478E1,2.5352546E3,1.7605532E3,7.7470135E2],"tree_param":{"num_deleted":"0","num_feature":"9","num_nodes":"9","size_leaf_vector":"1"}},{"base_weights":[1.9759217E-2,-1.2378216E-3,1.4542346E-1,2.0811425E-3,-4.081305E-2,4.4127572E-1,9.48829E-2,4.2514E-4,-2.0333685E-2,1.8765552E-2,4.5700304E-2,-2.4609508E-2,8.085532E-3],"categories":[],"categories_nodes":[],"categories_segments":[],"categories_sizes":[],"default_left":[0,0,0,0,0,0,0,0,0,0,0,0,0],"id":79,"left_children":[1,3,5,7,-1,9,11,-1,-1,-1,-1,-1,-1],"loss_changes":[6.8803124E0,4.314381E0,5.5820303E0,3.1991165E0,0E0,3.6649475E0,2.9359922E0,0E0,0E0,0E0,0E0,0E0,0E0],"parents":[2147483647,0,0,1,1,2,2,3,3,5,5,6,6],"right_children":[2,4,6,8,-1,10,12,-1,-1,-1,-1,-1,-1],"split_conditions":[5.9E1,1.8E1,1E0,5.8E1,-4.081305E-2,6.6E1,-1.604205E-1,4.2514E-4,-2.0333685E-2,1.8765552E-2,4.5700304E-2,-2.4609508E-2,8.085532E-3],"split_indices":[6,0,4,6,0,6,7,0,0,0,0,0,0],"split_type":[0,0,0,0,0,0,0,0,0,0,0,0,0],"sum_hessian":[2.60758E3,2.2342617E3,3.733183E2,2.2215896E3,1.267216E1,5.446778E1,3.1885052E2,2.1985547E3,2.3034931E1,1.8679237E1,3.5788544E1,1.407877E1,3.0477176E2],"tree_param":{"num_deleted":"0","num_feature":"9","num_nodes":"13","size_leaf_vector":"1"}},{"base_weights":[6.9946994E-4,-3.9071092E-1,7.219765E-3,-5.334505E-1,9.10134E-3,-2.6554298E-2,8.1212886E-2,-2.6347576E-2,-6.24918E-2,-1.5521658E-3,-2.310021E-2,5.264559E-3,4.1049596E-2],"categories":[],"categories_nodes":[],"categories_segments":[],"categories_sizes":[],"default_left":[0,0,0,0,0,0,0,0,0,0,0,0,0],"id":80,"left_children":[1,3,5,7,-1,9,11,-1,-1,-1,-1,-1,-1],"loss_changes":[6.589099E0,3.1445293E0,6.3463783E0,1.8732367E0,0E0,2.3177376E0,2.4144492E0,0E0,0E0,0E0,0E0,0E0,0E0],"parents":[2147483647,0,0,1,1,2,2,3,3,5,5,6,6],"right_children":[2,4,6,8,-1,10,12,-1,-1,-1,-1,-1,-1],"split_conditions":[2E0,7.97E1,1.00691676E-1,7.05E1,9.10134E-3,8.2E1,4.21705E-1,-2.6347576E-2,-6.24918E-2,-1.5521658E-3,-2.310021E-2,5.264559E-3,4.1049596E-2],"split_indices":[6,5,7,5,0,6,7,0,0,0,0,0,0],"split_type":[0,0,0,0,0,0,0,0,0,0,0,0,0],"sum_hessian":[2.5818171E3,4.2303223E1,2.539514E3,3.3202072E1,9.101152E0,1.7436345E3,7.958793E2,2.3104689E1,1.00973835E1,1.7188234E3,2.4811165E1,7.865319E2,9.347328E0],"tree_param":{"num_deleted":"0","num_feature":"9","num_nodes":"13","size_leaf_vector":"1"}},{"base_weights":[6.7925206E-3,-1.3698117E-1,1.8978264E-2,-8.2110934E-2,-5.8561134E-1,-4.428297E-2,5.360472E-2,-1.9883427E-3,-2.337028E-2,-6.1723802E-2,-2.337028E-2,-1.1007592E-2,3.2626122E-4,3.2626122E-4,8.180918E-3],"categories":[],"categories_nodes":[],"categories_segments":[],"categories_sizes":[],"default_left":[0,0,0,0,0,0,0,0,0,0,0,0,0,0,0],"id":81,"left_children":[1,3,5,7,9,11,13,-1,-1,-1,-1,-1,-1,-1,-1],"loss_changes":[4.5697756E0,5.0167723E0,5.2671638E0,2.6469996E0,2.137968E0,5.2006655E0,5.535785E0,0E0,0E0,0E0,0E0,0E0,0E0,0E0,0E0],"parents":[2147483647,0,0,1,1,2,2,3,3,4,4,5,5,6,6],"right_children":[2,4,6,8,10,12,14,-1,-1,-1,-1,-1,-1,-1,-1],"split_conditions":[1E1,5E0,-4.0398254E-3,8E0,-2.8369373E2,-2.3129552E2,1E0,-1.9883427E-3,-2.337028E-2,-6.1723802E-2,-2.337028E-2,-1.1007592E-2,3.2626122E-4,3.2626122E-4,8.180918E-3],"split_indices":[6,0,7,6,1,1,2,0,0,0,0,0,0,0,0],"split_type":[0,0,0,0,0,0,0,0,0,0,0,0,0,0,0],"sum_hessian":[2.6083298E3,2.0379836E2,2.4045315E3,1.8159015E2,2.2208206E1,8.505704E2,1.5539612E3,1.5171931E2,2.9870842E1,1.180979E1,1.0398416E1,2.7610226E2,5.7446814E2,8.186483E2,7.353129E2],"tree_param":{"num_deleted":"0","num_feature":"9","num_nodes":"15","size_leaf_vector":"1"}},{"base_weights":[-1.8344453E-2,-2.0622134E-2,3.577038E-2,-1.6701205E-2,-3.3741906E-1,1.1458446E-3,-3.441211E-3,-5.1460486E-2,-1.2394209E-2],"categories":[],"categories_nodes":[],"categories_segments":[],"categories_sizes":[],"default_left":[0,0,0,0,0,0,0,0,0],"id":82,"left_children":[1,3,-1,5,7,-1,-1,-1,-1],"loss_changes":[3.144916E0,3.226084E0,0E0,2.7538378E0,3.7180033E0,0E0,0E0,0E0,0E0],"parents":[2147483647,0,0,1,1,3,3,4,4],"right_children":[2,4,-1,6,8,-1,-1,-1,-1],"split_conditions":[4.21705E-1,1.7E1,3.577038E-2,6.8E1,4.9E1,1.1458446E-3,-3.441211E-3,-5.1460486E-2,-1.2394209E-2],"split_indices":[7,0,0,5,6,0,0,0,0],"split_type":[0,0,0,0,0,0,0,0,0],"sum_hessian":[2.6083748E3,2.5972004E3,1.1174077E1,2.5654497E3,3.175078E1,1.2707556E3,1.2946941E3,1.4557596E1,1.7193184E1],"tree_param":{"num_deleted":"0","num_feature":"9","num_nodes":"9","size_leaf_vector":"1"}},{"base_weights":[4.5473953E-3,-6.489041E-2,2.7453974E-2,-4.4584207E-2,-4.181393E-1,1.2116024E-2,1.4744632E-1,-1.3102752E-3,-9.932484E-3,-5.2087832E-2,-1.9310504E-2,3.9077597E-3,-1.3102752E-3,-1.3102752E-3,2.0932712E-2],"categories":[],"categories_nodes":[],"categories_segments":[],"categories_sizes":[],"default_left":[0,0,0,0,0,0,0,0,0,0,0,0,0,0,0],"id":83,"left_children":[1,3,5,7,9,11,13,-1,-1,-1,-1,-1,-1,-1,-1],"loss_changes":[4.1440134E0,4.6357756E0,3.6055455E0,3.422347E0,1.6290483E0,3.2455704E0,7.4650493E0,0E0,0E0,0E0,0E0,0E0,0E0,0E0,0E0],"parents":[2147483647,0,0,1,1,2,2,3,3,4,4,5,5,6,6],"right_children":[2,4,6,8,10,12,14,-1,-1,-1,-1,-1,-1,-1,-1],"split_conditions":[-4.2232923E-2,2.1378767E-1,6.3E1,7.05E1,3.6E1,3E0,6.4E1,-1.3102752E-3,-9.932484E-3,-5.2087832E-2,-1.9310504E-2,3.9077597E-3,-1.3102752E-3,-1.3102752E-3,2.0932712E-2],"split_indices":[7,8,6,5,6,0,5,0,0,0,0,0,0,0,0],"split_type":[0,0,0,0,0,0,0,0,0,0,0,0,0,0,0],"sum_hessian":[2.605339E3,6.462693E2,1.9590698E3,6.111398E2,3.512949E1,1.7370358E3,2.2203413E2,3.5862024E2,2.5251956E2,1.0672436E1,2.4457052E1,8.812858E2,8.5574994E2,8.738484E1,1.3464929E2],"tree_param":{"num_deleted":"0","num_feature":"9","num_nodes":"15","size_leaf_vector":"1"}},{"base_weights":[2.0092796E-3,2.0763189E-2,-1.1610477E-1,5.424476E-2,-1.3323157E-2,-9.34342E-2,-3.786475E-2,2.840461E-3,2.0285884E-2,1.4322561E-3,