{"learner":{"attributes":{"best_iteration":"28","best_score":"0.616170468331248"},"feature_names":["distance","diff_time_ratio","is_home_team","precipitation","wind_speed","temperature","yards_to_goal","offense_strength","defense_strength"],"feature_types":["int","float","int","float","float","float","int","float","float"],"gradient_booster":{"model":{"gbtree_model_param":{"num_parallel_tree":"1","num_trees":"39"},"iteration_indptr":[0,1,2,3,4,5,6,7,8,9,10,11,12,13,14,15,16,17,18,19,20,21,22,23,24,25,26,27,28,29,30,31,32,33,34,35,36,37,38,39],"tree_info":[0,0,0,0,0,0,0,0,0,0,0,0,0,0,0,0,0,0,0,0,0,0,0,0,0,0,0,0,0,0,0,0,0,0,0,0,0,0,0],"trees":[{"base_weights":[3.2029176E-4,5.7845753E-1,-5.596685E-1,7.4781334E-1,1.5341046E-1,-3.082606E-1,-1.0191236E0,1.2999566E-1,1.9136335E-1,7.995558E-2,2.2546863E-3,-1.411644E-1,-4.262921E-2,-1.840107E-1,-3.1606612E-1],"categories":[],"categories_nodes":[],"categories_segments":[],"categories_sizes":[],"default_left":[0,0,0,0,0,0,0,0,0,0,0,0,0,0,0],"id":0,"left_children":[1,3,5,7,9,11,13,-1,-1,-1,-1,-1,-1,-1,-1],"loss_changes":[1.4485597E3,1.5835999E2,2.624392E2,1.599707E1,2.4632599E1,5.3738052E1,6.030139E1,0E0,0E0,0E0,0E0,0E0,0E0,0E0,0E0],"parents":[2147483647,0,0,1,1,2,2,3,3,4,4,5,5,6,6],"right_children":[2,4,6,8,10,12,14,-1,-1,-1,-1,-1,-1,-1,-1],"split_conditions":[3E0,2E0,8E0,-1.6247963E2,7.8884006E-2,-2.6131433E2,1.1E1,1.2999566E-1,1.9136335E-1,7.995558E-2,2.2546863E-3,-1.411644E-1,-4.262921E-2,-1.840107E-1,-3.1606612E-1],"split_indices":[0,0,0,1,8,1,0,0,0,0,0,0,0,0,0],"split_type":[0,0,0,0,0,0,0,0,0,0,0,0,0,0,0],"sum_hessian":[4.4725073E3,2.200797E3,2.2717102E3,1.5733177E3,6.274794E2,1.4686963E3,8.030138E2,3.0587436E2,1.2674435E3,3.5830997E2,2.6916943E2,4.6667688E2,1.0020194E3,4.352155E2,3.677983E2],"tree_param":{"num_deleted":"0","num_feature":"9","num_nodes":"15","size_leaf_vector":"1"}},{"base_weights":[2.1043778E-3,4.473096E-1,-4.3289533E-1,5.805256E-1,1.1323574E-1,-2.3342066E-1,-8.070638E-1,1.1545929E-1,1.5742432E-1,5.804668E-2,1.7297136E-3,-1.7926466E-2,-1.0019446E-1,-1.4388473E-1,-2.5343975E-1],"categories":[],"categories_nodes":[],"categories_segments":[],"categories_sizes":[],"default_left":[0,0,0,0,0,0,0,0,0,0,0,0,0,0,0],"id":1,"left_children":[1,3,5,7,9,11,13,-1,-1,-1,-1,-1,-1,-1,-1],"loss_changes":[8.620604E2,9.781543E1,1.6796863E2,1.1755127E1,1.6255142E1,4.2896416E1,4.0361755E1,0E0,0E0,0E0,0E0,0E0,0E0,0E0,0E0],"parents":[2147483647,0,0,1,1,2,2,3,3,4,4,5,5,6,6],"right_children":[2,4,6,8,10,12,14,-1,-1,-1,-1,-1,-1,-1,-1],"split_conditions":[3E0,2E0,8E0,-1.1106174E1,1.09470546E-1,5E0,1.1E1,1.1545929E-1,1.5742432E-1,5.804668E-2,1.7297136E-3,-1.7926466E-2,-1.0019446E-1,-1.4388473E-1,-2.5343975E-1],"split_indices":[0,0,0,1,8,0,0,0,0,0,0,0,0,0,0],"split_type":[0,0,0,0,0,0,0,0,0,0,0,0,0,0,0],"sum_hessian":[4.4490356E3,2.1989883E3,2.2500474E3,1.5715575E3,6.274308E2,1.4681201E3,7.819271E2,6.793428E2,8.9221466E2,4.2216687E2,2.0526389E2,7.8903894E2,6.7908124E2,4.2707E2,3.5485712E2],"tree_param":{"num_deleted":"0","num_feature":"9","num_nodes":"15","size_leaf_vector":"1"}},{"base_weights":[-3.5988435E-3,3.330146E-1,-3.351778E-1,-1.0816008E-3,4.5307133E-1,-2.4409229E-1,-8.4154904E-1,-2.595842E-4,-0E0,1.3577724E-1,4.093633E-2,-1.3027696E-1,-3.874598E-2,-1.795811E-1,-2.971074E-1],"categories":[],"categories_nodes":[],"categories_segments":[],"categories_sizes":[],"default_left":[0,0,0,0,0,0,0,0,0,0,0,0,0,0,0],"id":2,"left_children":[1,3,5,7,9,11,13,-1,-1,-1,-1,-1,-1,-1,-1],"loss_changes":[4.8886456E2,1.6822266E2,1.0180147E2,3.0338764E-4,6.3312622E1,7.440228E1,1.2415787E1,0E0,0E0,0E0,0E0,0E0,0E0,0E0,0E0],"parents":[2147483647,0,0,1,1,2,2,3,3,4,4,5,5,6,6],"right_children":[2,4,6,8,10,12,14,-1,-1,-1,-1,-1,-1,-1,-1],"split_conditions":[3E0,6E0,1.1E1,1.3410977E3,2E0,1.7E1,1.9E1,-2.595842E-4,-0E0,1.3577724E-1,4.093633E-2,-1.3027696E-1,-3.874598E-2,-1.795811E-1,-2.971074E-1],"split_indices":[0,6,0,1,0,6,0,0,0,0,0,0,0,0,0],"split_type":[0,0,0,0,0,0,0,0,0,0,0,0,0,0,0],"sum_hessian":[4.377032E3,2.1716792E3,2.205353E3,1.811188E2,1.9905603E3,1.8696232E3,3.357299E2,1.7939307E2,1.7257414E0,1.4223868E3,5.6817346E2,2.1061868E2,1.6590044E3,2.7242728E2,6.3302605E1],"tree_param":{"num_deleted":"0","num_feature":"9","num_nodes":"15","size_leaf_vector":"1"}},{"base_weights":[-2.0270402E-2,1.6560914E-1,-4.1106826E-1,-1.2272956E-1,2.697687E-1,-8.735713E-1,-3.2830325E-1,-2.9455094E-2,-7.7313324E-3,1.0541102E-1,2.1755239E-2,-1.7148595E-1,-2.7714947E-1,-5.706714E-2,-1.7115399E-1],"categories":[],"categories_nodes":[],"categories_segments":[],"categories_sizes":[],"default_left":[0,0,0,0,0,0,0,0,0,0,0,0,0,0,0],"id":3,"left_children":[1,3,5,7,9,11,13,-1,-1,-1,-1,-1,-1,-1,-1],"loss_changes":[3.1330765E2,1.6126746E2,5.3243835E1,5.55851E-1,7.957797E1,9.373199E0,4.112461E1,0E0,0E0,0E0,0E0,0E0,0E0,0E0,0E0],"parents":[2147483647,0,0,1,1,2,2,3,3,4,4,5,5,6,6],"right_children":[2,4,6,8,10,12,14,-1,-1,-1,-1,-1,-1,-1,-1],"split_conditions":[5E0,9E0,2.4E1,6E0,2E0,7.3E1,1.2E1,-2.9455094E-2,-7.7313324E-3,1.0541102E-1,2.1755239E-2,-1.7148595E-1,-2.7714947E-1,-5.706714E-2,-1.7115399E-1],"split_indices":[0,6,6,6,0,5,0,0,0,0,0,0,0,0,0],"split_type":[0,0,0,0,0,0,0,0,0,0,0,0,0,0,0],"sum_hessian":[4.3085825E3,2.9194321E3,1.3891503E3,2.9741925E2,2.622013E3,2.103153E2,1.178835E3,2.2437975E2,7.30395E1,1.3466815E3,1.2753313E3,1.350451E2,7.52702E1,9.5494086E2,2.2389415E2],"tree_param":{"num_deleted":"0","num_feature":"9","num_nodes":"15","size_leaf_vector":"1"}},{"base_weights":[-3.149271E-2,-9.849653E-1,2.4690447E-2,-1.2860063E0,-6.62881E-1,1.9875042E-1,-3.255326E-1,-2.7712142E-1,-3.9015028E-1,-6.591873E-2,-2.5053042E-1,8.139482E-2,1.2611211E-2,-5.914507E-2,-1.4680204E-1],"categories":[],"categories_nodes":[],"categories_segments":[],"categories_sizes":[],"default_left":[0,0,0,0,0,0,0,0,0,0,0,0,0,0,0],"id":4,"left_children":[1,3,5,7,9,11,13,-1,-1,-1,-1,-1,-1,-1,-1],"loss_changes":[2.2837871E2,2.2883835E1,2.4489418E2,5.337616E0,1.697311E1,5.504431E1,3.0186676E1,0E0,0E0,0E0,0E0,0E0,0E0,0E0,0E0],"parents":[2147483647,0,0,1,1,2,2,3,3,4,4,5,5,6,6],"right_children":[2,4,6,8,10,12,14,-1,-1,-1,-1,-1,-1,-1,-1],"split_conditions":[6E0,3E0,5E0,1.3302946E-1,3E0,2E0,1.1E1,-2.7712142E-1,-3.9015028E-1,-6.591873E-2,-2.5053042E-1,8.139482E-2,1.2611211E-2,-5.914507E-2,-1.4680204E-1],"split_indices":[6,6,0,8,0,0,0,0,0,0,0,0,0,0,0],"split_type":[0,0,0,0,0,0,0,0,0,0,0,0,0,0,0],"sum_hessian":[4.2504995E3,2.3667969E2,4.0138198E3,1.2184104E2,1.1483864E2,2.6817126E3,1.3321073E3,8.860801E1,3.3233032E1,5.7249466E1,5.7589176E1,1.3671705E3,1.314542E3,1.0443811E3,2.8772614E2],"tree_param":{"num_deleted":"0","num_feature":"9","num_nodes":"15","size_leaf_vector":"1"}},{"base_weights":[-2.246471E-2,-8.2216805E-1,1.6712908E-2,-7.017833E-1,-1.1547083E0,1.5301594E-1,-2.5821918E-1,-2.0107171E-1,-1.1332304E-1,-3.1922007E-1,-2.2277898E-1,6.298708E-2,9.752677E-3,-1.8893707E-1,-4.9120132E-2],"categories":[],"categories_nodes":[],"categories_segments":[],"categories_sizes":[],"default_left":[0,0,0,0,0,0,0,0,0,0,0,0,0,0,0],"id":5,"left_children":[1,3,5,7,9,11,13,-1,-1,-1,-1,-1,-1,-1,-1],"loss_changes":[1.3193729E2,7.835556E0,1.4994669E2,4.465683E0,2.775032E0,3.2868286E1,3.761415E1,0E0,0E0,0E0,0E0,0E0,0E0,0E0,0E0],"parents":[2147483647,0,0,1,1,2,2,3,3,4,4,5,5,6,6],"right_children":[2,4,6,8,10,12,14,-1,-1,-1,-1,-1,-1,-1,-1],"split_conditions":[5E0,1.3587295E-1,5E0,3E0,3E0,2E0,1.8E1,-2.0107171E-1,-1.1332304E-1,-3.1922007E-1,-2.2277898E-1,6.298708E-2,9.752677E-3,-1.8893707E-1,-4.9120132E-2],"split_indices":[6,8,0,6,6,0,6,0,0,0,0,0,0,0,0],"split_type":[0,0,0,0,0,0,0,0,0,0,0,0,0,0,0],"sum_hessian":[4.1929683E3,1.9602373E2,3.9969443E3,1.446154E2,5.1408325E1,2.6727534E3,1.3241909E3,9.004963E1,5.456577E1,3.3378044E1,1.8030281E1,1.3530472E3,1.3197062E3,1.2122597E2,1.202965E3],"tree_param":{"num_deleted":"0","num_feature":"9","num_nodes":"15","size_leaf_vector":"1"}},{"base_weights":[-1.809253E-2,-6.0261476E-1,1.5928807E-2,-7.632134E-1,-4.2153716E-1,1.11737266E-1,-2.5042677E-1,-1.4281827E-1,-2.378904E-1,-3.1762492E-2,-1.7839985E-1,-1.664274E-2,3.709619E-2,-1.3478106E-1,-4.244037E-2],"categories":[],"categories_nodes":[],"categories_segments":[],"categories_sizes":[],"default_left":[0,0,0,0,0,0,0,0,0,0,0,0,0,0,0],"id":6,"left_children":[1,3,5,7,9,11,13,-1,-1,-1,-1,-1,-1,-1,-1],"loss_changes":[8.248631E1,6.5819244E0,9.9647995E1,4.556679E0,1.00251255E1,2.7627422E1,2.3656746E1,0E0,0E0,0E0,0E0,0E0,0E0,0E0,0E0],"parents":[2147483647,0,0,1,1,2,2,3,3,4,4,5,5,6,6],"right_children":[2,4,6,8,10,12,14,-1,-1,-1,-1,-1,-1,-1,-1],"split_conditions":[6E0,3E0,6E0,7.41522E-2,3E0,-9.0694994E-2,2.8E1,-1.4281827E-1,-2.378904E-1,-3.1762492E-2,-1.7839985E-1,-1.664274E-2,3.709619E-2,-1.3478106E-1,-4.244037E-2],"split_indices":[6,6,0,8,0,7,6,0,0,0,0,0,0,0,0],"split_type":[0,0,0,0,0,0,0,0,0,0,0,0,0,0,0],"sum_hessian":[4.126926E3,2.2729298E2,3.8996328E3,1.1964355E2,1.0764943E2,2.8686816E3,1.030951E3,6.9612175E1,5.0031376E1,5.7135666E1,5.051376E1,4.4186325E2,2.4268184E3,1.9648662E2,8.344644E2],"tree_param":{"num_deleted":"0","num_feature":"9","num_nodes":"15","size_leaf_vector":"1"}},{"base_weights":[-1.318387E-2,-4.042216E-1,2.225943E-2,-3.255493E-1,-7.489465E-1,7.844817E-2,-2.548279E-1,-1.289395E-1,-8.9063095E-3,-1.289395E-1,-2.0379923E-1,-2.1165565E-2,3.519147E-2,-4.78913E-2,-1.9314437E-1],"categories":[],"categories_nodes":[],"categories_segments":[],"categories_sizes":[],"default_left":[0,0,0,0,0,0,0,0,0,0,0,0,0,0,0],"id":7,"left_children":[1,3,5,7,9,11,13,-1,-1,-1,-1,-1,-1,-1,-1],"loss_changes":[5.7017124E1,9.283733E0,5.853496E1,1.845195E1,2.178299E0,3.634279E1,1.931704E1,0E0,0E0,0E0,0E0,0E0,0E0,0E0,0E0],"parents":[2147483647,0,0,1,1,2,2,3,3,4,4,5,5,6,6],"right_children":[2,4,6,8,10,12,14,-1,-1,-1,-1,-1,-1,-1,-1],"split_conditions":[1E1,4E0,8E0,4E0,5.07E1,-1.6247963E2,1.8E1,-1.289395E-1,-8.9063095E-3,-1.289395E-1,-2.0379923E-1,-2.1165565E-2,3.519147E-2,-4.78913E-2,-1.9314437E-1],"split_indices":[6,0,0,6,5,1,0,0,0,0,0,0,0,0,0],"split_type":[0,0,0,0,0,0,0,0,0,0,0,0,0,0,0],"sum_hessian":[4.093514E3,3.4067297E2,3.752841E3,2.7804565E2,6.2627316E1,3.120874E3,6.319671E2,1.5390048E2,1.24145164E2,1.1675021E1,5.0952293E1,8.907553E2,2.2301187E3,5.7472504E2,5.724202E1],"tree_param":{"num_deleted":"0","num_feature":"9","num_nodes":"15","size_leaf_vector":"1"}},{"base_weights":[-1.1055699E-2,1.1919903E-1,-8.106031E-2,2.222988E-1,5.256585E-2,-6.652478E-2,-6.322703E-1,3.2983758E-2,7.3942326E-2,4.576646E-3,3.2983758E-2,-5.591124E-2,-7.3365453E-3,-1.309696E-1,-2.8253275E-1],"categories":[],"categories_nodes":[],"categories_segments":[],"categories_sizes":[],"default_left":[0,0,0,0,0,0,0,0,0,0,0,0,0,0,0],"id":8,"left_children":[1,3,5,7,9,11,13,-1,-1,-1,-1,-1,-1,-1,-1],"loss_changes":[3.7078526E1,9.7440605E0,2.1276314E1,6.179556E0,7.7142777E0,1.5427937E1,3.2358189E0,0E0,0E0,0E0,0E0,0E0,0E0,0E0,0E0],"parents":[2147483647,0,0,1,1,2,2,3,3,4,4,5,5,6,6],"right_children":[2,4,6,8,10,12,14,-1,-1,-1,-1,-1,-1,-1,-1],"split_conditions":[2E0,1.9149194E-2,1.7E1,-8.530841E0,1E0,-5.174779E2,2.6E1,3.2983758E-2,7.3942326E-2,4.576646E-3,3.2983758E-2,-5.591124E-2,-7.3365453E-3,-1.309696E-1,-2.8253275E-1],"split_indices":[0,8,0,1,2,1,0,0,0,0,0,0,0,0,0],"split_type":[0,0,0,0,0,0,0,0,0,0,0,0,0,0,0],"sum_hessian":[4.0575002E3,1.4172007E3,2.6402996E3,5.549193E2,8.6228143E2,2.57296E3,6.7339516E1,2.0689687E2,3.480224E2,4.8712842E2,3.7515298E2,4.558678E2,2.1170923E3,5.8613605E1,8.72591E0],"tree_param":{"num_deleted":"0","num_feature":"9","num_nodes":"15","size_leaf_vector":"1"}},{"base_weights":[-1.016798E-2,-3.2866544E-1,1.839317E-2,-5.9532464E-1,-2.4662079E-1,-5.2007385E-2,1.4249115E-1,-1.8982658E-1,-6.44348E-2,-2.716742E-2,-9.354481E-2,2.6234575E-3,-4.920693E-2,5.017855E-2,1.08580515E-2],"categories":[],"categories_nodes":[],"categories_segments":[],"categories_sizes":[],"default_left":[0,0,0,0,0,0,0,0,0,0,0,0,0,0,0],"id":9,"left_children":[1,3,5,7,9,11,13,-1,-1,-1,-1,-1,-1,-1,-1],"loss_changes":[3.6916794E1,7.30735E0,3.243406E1,4.909685E0,4.8715715E0,2.2850466E1,1.46619835E1,0E0,0E0,0E0,0E0,0E0,0E0,0E0,0E0],"parents":[2147483647,0,0,1,1,2,2,3,3,4,4,5,5,6,6],"right_children":[2,4,6,8,10,12,14,-1,-1,-1,-1,-1,-1,-1,-1],"split_conditions":[1E1,2E0,7.565236E-2,1.4531146E1,5.239957E-2,1.0607937E-1,1.7994757E-1,-1.8982658E-1,-6.44348E-2,-2.716742E-2,-9.354481E-2,2.6234575E-3,-4.920693E-2,5.017855E-2,1.08580515E-2],"split_indices":[6,6,7,1,8,8,8,0,0,0,0,0,0,0,0],"split_type":[0,0,0,0,0,0,0,0,0,0,0,0,0,0,0],"sum_hessian":[4.033037E3,3.3249872E2,3.7005383E3,7.744936E1,2.5504936E2,2.35993E3,1.3406085E3,4.7936325E1,2.951304E1,1.3292216E2,1.221272E2,1.671139E3,6.8879083E2,1.0173798E3,3.2322873E2],"tree_param":{"num_deleted":"0","num_feature":"9","num_nodes":"15","size_leaf_vector":"1"}},{"base_weights":[-8.511011E-3,5.188756E-2,-1.0346712E-1,-2.578978E-2,9.4518244E-2,-5.955919E-1,-6.7823835E-2,-6.189547E-3,8.247416E-3,8.247416E-3,4.3436516E-2,-2.1203877E-1,-1.1416426E-1,-1.2398447E-2,-1.6795114E-1],"categories":[],"categories_nodes":[],"categories_segments":[],"categories_sizes":[],"default_left":[0,0,0,0,0,0,0,0,0,0,0,0,0,0,0],"id":10,"left_children":[1,3,5,7,9,11,13,-1,-1,-1,-1,-1,-1,-1,-1],"loss_changes":[2.3093966E1,1.1429693E1,2.749387E1,1.7983664E0,1.0522549E1,3.6308327E0,1.5019443E1,0E0,0E0,0E0,0E0,0E0,0E0,0E0,0E0],"parents":[2147483647,0,0,1,1,2,2,3,3,4,4,5,5,6,6],"right_children":[2,4,6,8,10,12,14,-1,-1,-1,-1,-1,-1,-1,-1],"split_conditions":[4E0,-4.5370348E-2,1.5E1,3.8267956E1,3.9E1,-5.9069157E-2,1.9E1,-6.189547E-3,8.247416E-3,8.247416E-3,4.3436516E-2,-2.1203877E-1,-1.1416426E-1,-1.2398447E-2,-1.6795114E-1],"split_indices":[0,7,6,1,6,7,0,0,0,0,0,0,0,0,0],"split_type":[0,0,0,0,0,0,0,0,0,0,0,0,0,0,0],"sum_hessian":[4.0125671E3,2.4510947E3,1.5614725E3,6.4105023E2,1.8100446E3,1.0493144E2,1.456541E3,5.453312E2,9.5719055E1,1.0178361E3,7.9220844E2,3.013501E1,7.479643E1,1.4206587E3,3.5882355E1],"tree_param":{"num_deleted":"0","num_feature":"9","num_nodes":"15","size_leaf_vector":"1"}},{"base_weights":[-1.0398077E-2,-3.840298E-1,3.2502008E-3,-6.91803E-1,-2.844976E-1,1.1274389E-1,-5.1793415E-2,-2.291664E-1,-9.091672E-2,-1.8230531E-2,-1.08365305E-1,1.4363414E-2,5.6843776E-2,9.5533434E-4,-3.6164183E-2],"categories":[],"categories_nodes":[],"categories_segments":[],"categories_sizes":[],"default_left":[0,0,0,0,0,0,0,0,0,0,0,0,0,0,0],"id":11,"left_children":[1,3,5,7,9,11,13,-1,-1,-1,-1,-1,-1,-1,-1],"loss_changes":[2.0588991E1,4.354084E0,2.3262146E1,2.746418E0,3.7249565E0,8.468628E0,1.4186476E1,0E0,0E0,0E0,0E0,0E0,0E0,0E0,0E0],"parents":[2147483647,0,0,1,1,2,2,3,3,4,4,5,5,6,6],"right_children":[2,4,6,8,10,12,14,-1,-1,-1,-1,-1,-1,-1,-1],"split_conditions":[4E0,5.5E1,2E0,6.671355E-2,7.05E1,1.04511425E-1,1.0474213E-1,-2.291664E-1,-9.091672E-2,-1.8230531E-2,-1.08365305E-1,1.4363414E-2,5.6843776E-2,9.5533434E-4,-3.6164183E-2],"split_indices":[6,5,0,7,5,7,8,0,0,0,0,0,0,0,0],"split_type":[0,0,0,0,0,0,0,0,0,0,0,0,0,0,0],"sum_hessian":[3.9857595E3,1.4098726E2,3.8447722E3,3.3767452E1,1.072198E2,1.287597E3,2.5571753E3,1.7855701E1,1.5911751E1,4.835361E1,5.8866196E1,9.041968E2,3.8340027E2,1.6335741E3,9.2360114E2],"tree_param":{"num_deleted":"0","num_feature":"9","num_nodes":"15","size_leaf_vector":"1"}},{"base_weights":[-9.155101E-3,-6.44912E-2,5.8301423E-2,-4.6830427E-2,-4.0835205E-1,2.5258106E-1,2.7794356E-2,-3.4905627E-2,-7.4277294E-4,-1.3529451E-1,-5.4621894E-2,8.93773E-2,3.364505E-2,-7.4277294E-4,2.8163753E-2],"categories":[],"categories_nodes":[],"categories_segments":[],"categories_sizes":[],"default_left":[0,0,0,0,0,0,0,0,0,0,0,0,0,0,0],"id":12,"left_children":[1,3,5,7,9,11,13,-1,-1,-1,-1,-1,-1,-1,-1],"loss_changes":[1.47900305E1,1.3255668E1,1.0570308E1,9.893805E0,3.9409199E0,4.9158344E0,8.190938E0,0E0,0E0,0E0,0E0,0E0,0E0,0E0,0E0],"parents":[2147483647,0,0,1,1,2,2,3,3,4,4,5,5,6,6],"right_children":[2,4,6,8,10,12,14,-1,-1,-1,-1,-1,-1,-1,-1],"split_conditions":[1E0,2.743622E-1,-8.974982E-2,-2.3098198E2,1.2823755E-1,9.2E0,6.917128E-2,-3.4905627E-2,-7.4277294E-4,-1.3529451E-1,-5.4621894E-2,8.93773E-2,3.364505E-2,-7.4277294E-4,2.8163753E-2],"split_indices":[2,8,8,1,7,4,7,0,0,0,0,0,0,0,0],"split_type":[0,0,0,0,0,0,0,0,0,0,0,0,0,0,0],"sum_hessian":[3.9475222E3,2.1704766E3,1.7770457E3,2.065174E3,1.0530259E2,2.4006177E2,1.5369839E3,6.809155E2,1.3842585E3,6.467291E1,4.0629677E1,1.463328E2,9.3728966E1,8.742023E2,6.6278156E2],"tree_param":{"num_deleted":"0","num_feature":"9","num_nodes":"15","size_leaf_vector":"1"}},{"base_weights":[-4.556542E-3,-2.0664145E-1,1.2940105E-2,-1.7893298E-1,-9.2876184E-1,-4.6371456E-2,8.7141074E-2,-8.3044745E-2,-2.1504512E-2,-2.606209E-1,-1.3292338E-1,-4.7460077E-3,-6.211825E-2,2.8738154E-2,4.892354E-3],"categories":[],"categories_nodes":[],"categories_segments":[],"categories_sizes":[],"default_left":[0,0,0,0,0,0,0,0,0,0,0,0,0,0,0],"id":13,"left_children":[1,3,5,7,9,11,13,-1,-1,-1,-1,-1,-1,-1,-1],"loss_changes":[1.4139387E1,6.4795237E0,1.609211E1,4.5702477E0,1.307313E0,1.1468897E1,5.7604847E0,0E0,0E0,0E0,0E0,0E0,0E0,0E0,0E0],"parents":[2147483647,0,0,1,1,2,2,3,3,4,4,5,5,6,6],"right_children":[2,4,6,8,10,12,14,-1,-1,-1,-1,-1,-1,-1,-1],"split_conditions":[1E1,7E0,1E0,3E0,1.16067024E2,1E1,7E0,-8.3044745E-2,-2.1504512E-2,-2.606209E-1,-1.3292338E-1,-4.7460077E-3,-6.211825E-2,2.8738154E-2,4.892354E-3],"split_indices":[6,0,2,6,1,0,0,0,0,0,0,0,0,0,0],"split_type":[0,0,0,0,0,0,0,0,0,0,0,0,0,0,0],"sum_hessian":[3.9578184E3,3.1635492E2,3.6414634E3,3.0506952E2,1.1285407E1,2.0220586E3,1.6194048E3,1.05295456E2,1.9977406E2,1.0009291E1,1.2761166E0,1.7981359E3,2.2392278E2,1.312984E3,3.064207E2],"tree_param":{"num_deleted":"0","num_feature":"9","num_nodes":"15","size_leaf_vector":"1"}},{"base_weights":[-1.1938014E-2,-3.8091466E-2,1.0769894E-1,-9.612202E-3,-1.7161424E-1,-8.668905E-2,1.995298E-1,-1.258234E-2,8.30331E-3,-8.5212104E-2,-2.1747174E-2,-1.4496458E-2,-1.4059834E-1,5.5407032E-2,1.354089E-2],"categories":[],"categories_nodes":[],"categories_segments":[],"categories_sizes":[],"default_left":[0,0,0,0,0,0,0,0,0,0,0,0,0,0,0],"id":14,"left_children":[1,3,5,7,9,11,13,-1,-1,-1,-1,-1,-1,-1,-1],"loss_changes":[1.2352002E1,1.2303006E1,1.2676578E1,5.080503E0,9.976734E0,3.0604978E0,3.8413334E0,0E0,0E0,0E0,0E0,0E0,0E0,0E0,0E0],"parents":[2147483647,0,0,1,1,2,2,3,3,4,4,5,5,6,6],"right_children":[2,4,6,8,10,12,14,-1,-1,-1,-1,-1,-1,-1,-1],"split_conditions":[5.6E1,7E0,-3.881064E2,-4.541845E0,3.2E1,1.7E1,8.1E1,-1.258234E-2,8.30331E-3,-8.5212104E-2,-2.1747174E-2,-1.4496458E-2,-1.4059834E-1,5.5407032E-2,1.354089E-2],"split_indices":[6,0,1,1,6,0,6,0,0,0,0,0,0,0,0],"split_type":[0,0,0,0,0,0,0,0,0,0,0,0,0,0,0],"sum_hessian":[3.9328088E3,3.228936E3,7.0387286E2,2.662806E3,5.6613E2,2.2502187E2,4.7885098E2,1.3554075E3,1.3073986E3,1.9451216E2,3.7161786E2,2.1429024E2,1.0731638E1,4.4801892E2,3.0832062E1],"tree_param":{"num_deleted":"0","num_feature":"9","num_nodes":"15","size_leaf_vector":"1"}},{"base_weights":[-6.0850563E-3,-1.037885E-1,3.0921102E-2,-5.667597E-2,-2.4955776E-1,6.9200516E-2,-3.64337E-2,-3.18948E-2,-8.744088E-3,-1.0129201E-1,-3.6748048E-2,3.932018E-3,2.2976624E-2,-8.744088E-3,3.932018E-3],"categories":[],"categories_nodes":[],"categories_segments":[],"categories_sizes":[],"default_left":[0,0,0,0,0,0,0,0,0,0,0,0,0,0,0],"id":15,"left_children":[1,3,5,7,9,11,13,-1,-1,-1,-1,-1,-1,-1,-1],"loss_changes":[1.4284185E1,7.4469357E0,7.868966E0,3.5108802E0,5.111521E0,3.994236E0,2.7016847E0,0E0,0E0,0E0,0E0,0E0,0E0,0E0,0E0],"parents":[2147483647,0,0,1,1,2,2,3,3,4,4,5,5,6,6],"right_children":[2,4,6,8,10,12,14,-1,-1,-1,-1,-1,-1,-1,-1],"split_conditions":[-4.5370348E-2,1.0254278E-1,1.2329465E-1,-1.0225978E-1,3.5E1,2.3E1,6.2E1,-3.18948E-2,-8.744088E-3,-1.0129201E-1,-3.6748048E-2,3.932018E-3,2.2976624E-2,-8.744088E-3,3.932018E-3],"split_indices":[7,8,8,7,6,6,6,0,0,0,0,0,0,0,0],"split_type":[0,0,0,0,0,0,0,0,0,0,0,0,0,0,0],"sum_hessian":[3.9293315E3,1.0811132E3,2.8482183E3,8.1833167E2,2.6278152E2,1.8615436E3,9.8667474E2,4.094886E2,4.0884308E2,1.0331668E2,1.5946483E2,4.045062E2,1.4570374E3,8.4545404E2,1.4122075E2],"tree_param":{"num_deleted":"0","num_feature":"9","num_nodes":"15","size_leaf_vector":"1"}},{"base_weights":[-3.2799756E-3,2.5236532E-3,-4.3560234E-1,8.7726135E-3,-2.1653934E-1,-7.804722E-1,-2.1653934E-1,-1.4725468E-2,8.555628E-3,-5.196944E-2,-2.4932006E-2,-2.4843706E-1,-1.2332479E-1,-5.196944E-2,-1.19641386E-1],"categories":[],"categories_nodes":[],"categories_segments":[],"categories_sizes":[],"default_left":[0,0,0,0,0,0,0,0,0,0,0,0,0,0,0],"id":16,"left_children":[1,3,5,7,9,11,13,-1,-1,-1,-1,-1,-1,-1,-1],"loss_changes":[1.0090014E1,6.811853E0,4.6341734E0,7.1453424E0,1.3212576E0,1.4460411E0,1.4669045E0,0E0,0E0,0E0,0E0,0E0,0E0,0E0,0E0],"parents":[2147483647,0,0,1,1,2,2,3,3,4,4,5,5,6,6],"right_children":[2,4,6,8,10,12,14,-1,-1,-1,-1,-1,-1,-1,-1],"split_conditions":[1.7E1,3.1632918E-1,-4.455259E2,-4.5370348E-2,8.02E1,6.71E1,1.28E1,-1.4725468E-2,8.555628E-3,-5.196944E-2,-2.4932006E-2,-2.4843706E-1,-1.2332479E-1,-5.196944E-2,-1.19641386E-1],"split_indices":[0,8,1,7,5,5,4,0,0,0,0,0,0,0,0],"split_type":[0,0,0,0,0,0,0,0,0,0,0,0,0,0,0],"sum_hessian":[3.9008103E3,3.8486863E3,5.212413E1,3.7723567E3,7.632935E1,2.1878225E1,3.0245903E1,1.0427383E3,2.7296187E3,6.3695915E1,1.2633443E1,1.06273775E1,1.1250849E1,2.702307E1,3.2228339E0],"tree_param":{"num_deleted":"0","num_feature":"9","num_nodes":"15","size_leaf_vector":"1"}},{"base_weights":[-1.8543307E-3,-1.5600747E-1,9.8159015E-3,-1.4790212E-1,-4.1900128E-1,4.1450006E-3,3.642964E-1,-3.2185826E-2,-2.272489E-1,1.9049202E-3,-1.1673873E-1,4.4212967E-2,1.5320885E-1],"categories":[],"categories_nodes":[],"categories_segments":[],"categories_sizes":[],"default_left":[0,0,0,0,0,0,0,0,0,0,0,0,0],"id":17,"left_children":[1,3,5,7,-1,9,11,-1,-1,-1,-1,-1,-1],"loss_changes":[7.149651E0,3.9134936E0,7.390568E0,3.739493E0,0E0,6.776112E0,3.1838813E0,0E0,0E0,0E0,0E0,0E0,0E0],"parents":[2147483647,0,0,1,1,2,2,3,3,5,5,6,6],"right_children":[2,4,6,8,-1,10,12,-1,-1,-1,-1,-1,-1],"split_conditions":[9E0,1.22E-1,3.4056556E-1,9.39E1,-4.1900128E-1,1.9E1,4E1,-3.2185826E-2,-2.272489E-1,1.9049202E-3,-1.1673873E-1,4.4212967E-2,1.5320885E-1],"split_indices":[6,3,7,5,0,0,6,0,0,0,0,0,0],"split_type":[0,0,0,0,0,0,0,0,0,0,0,0,0],"sum_hessian":[3.9128982E3,2.7671094E2,3.6361873E3,2.7553885E2,1.1720848E0,3.5796558E3,5.653142E1,2.7204068E2,3.4981914E0,3.5527432E3,2.691266E1,3.2877342E1,2.365408E1],"tree_param":{"num_deleted":"0","num_feature":"9","num_nodes":"13","size_leaf_vector":"1"}},{"base_weights":[2.3926966E-4,8.182346E-3,-1.8189545E-1,-2.350225E-2,4.6815947E-2,-1.1878791E-1,-6.5707797E-1,-1.9951345E-2,-2.6033117E-4,6.6834074E-3,4.7748256E-2,-2.1414747E-2,-2.4635771E-1,-2.0181568E-1,-2.0845572E-2],"categories":[],"categories_nodes":[],"categories_segments":[],"categories_sizes":[],"default_left":[0,0,0,0,0,0,0,0,0,0,0,0,0,0,0],"id":18,"left_children":[1,3,5,7,9,11,13,-1,-1,-1,-1,-1,-1,-1,-1],"loss_changes":[5.682266E0,4.6040397E0,4.933405E0,2.7459357E0,4.8942423E0,4.0367727E0,2.1742344E0,0E0,0E0,0E0,0E0,0E0,0E0,0E0,0E0],"parents":[2147483647,0,0,1,1,2,2,3,3,4,4,5,5,6,6],"right_children":[2,4,6,8,10,12,14,-1,-1,-1,-1,-1,-1,-1,-1],"split_conditions":[1.2E1,1E0,8.33E1,-3.1089075E2,8.49E1,2.6E1,-4.0526077E1,-1.9951345E-2,-2.6033117E-4,6.6834074E-3,4.7748256E-2,-2.1414747E-2,-2.4635771E-1,-2.0181568E-1,-2.0845572E-2],"split_indices":[0,2,5,1,5,0,1,0,0,0,0,0,0,0,0],"split_type":[0,0,0,0,0,0,0,0,0,0,0,0,0,0,0],"sum_hessian":[3.8945044E3,3.7330527E3,1.6145178E2,2.0476963E3,1.6853563E3,1.4304242E2,1.8409369E1,5.5660724E2,1.4910891E3,1.4999591E3,1.8539719E2,1.3886311E2,4.1793127E0,1.4168703E1,4.2406654E0],"tree_param":{"num_deleted":"0","num_feature":"9","num_nodes":"15","size_leaf_vector":"1"}},{"base_weights":[-1.9680674E-3,4.0046815E-2,-4.404229E-2,9.297953E-3,1.037995E-1,-1.373998E-1,-1.9977372E-3,-4.794569E-4,1.9476304E-2,2.0442484E-2,9.850221E-2,-5.9080645E-3,-5.0127357E-2,-4.794569E-4,-1.568951E-1],"categories":[],"categories_nodes":[],"categories_segments":[],"categories_sizes":[],"default_left":[0,0,0,0,0,0,0,0,0,0,0,0,0,0,0],"id":19,"left_children":[1,3,5,7,9,11,13,-1,-1,-1,-1,-1,-1,-1,-1],"loss_changes":[6.9171424E0,3.818562E0,8.647272E0,4.4982705E0,3.6620035E0,5.285452E0,5.4793596E0,0E0,0E0,0E0,0E0,0E0,0E0,0E0,0E0],"parents":[2147483647,0,0,1,1,2,2,3,3,4,4,5,5,6,6],"right_children":[2,4,6,8,10,12,14,-1,-1,-1,-1,-1,-1,-1,-1],"split_conditions":[5.6672387E-2,4.4E1,3.2E1,4.0110587E-3,1.985002E-1,2E0,2.39E1,-4.794569E-4,1.9476304E-2,2.0442484E-2,9.850221E-2,-5.9080645E-3,-5.0127357E-2,-4.794569E-4,-1.568951E-1],"split_indices":[8,6,6,7,7,0,4,0,0,0,0,0,0,0,0],"split_type":[0,0,0,0,0,0,0,0,0,0,0,0,0,0,0],"sum_hessian":[3.8907253E3,1.9439766E3,1.9467488E3,1.3139644E3,6.3001215E2,6.569299E2,1.289819E3,6.4399243E2,6.69972E2,5.947494E2,3.526276E1,2.5610577E2,4.0082413E2,1.2777106E3,1.210836E1],"tree_param":{"num_deleted":"0","num_feature":"9","num_nodes":"15","size_leaf_vector":"1"}},{"base_weights":[-2.402225E-3,1.03852205E-1,-1.6706957E-2,4.3572623E-2,1.6484424E-1,-1.7372827E-1,-1.8980829E-3,1.0457429E-2,2.5010023E-2,8.4951036E-2,2.5010023E-2,-2.1075161E-2,-6.0083177E-2,2.021493E-3,-2.1075161E-2],"categories":[],"categories_nodes":[],"categories_segments":[],"categories_sizes":[],"default_left":[0,0,0,0,0,0,0,0,0,0,0,0,0,0,0],"id":20,"left_children":[1,3,5,7,9,11,13,-1,-1,-1,-1,-1,-1,-1,-1],"loss_changes":[5.9417987E0,2.497322E0,8.0023365E0,5.9103084E-1,4.4100785E0,3.056489E0,3.0674765E0,0E0,0E0,0E0,0E0,0E0,0E0,0E0,0E0],"parents":[2147483647,0,0,1,1,2,2,3,3,4,4,5,5,6,6],"right_children":[2,4,6,8,10,12,14,-1,-1,-1,-1,-1,-1,-1,-1],"split_conditions":[-8.754652E-2,-7.101845E0,-1.228991E-1,6.671355E-2,6.24E1,2E0,2.3065442E-1,1.0457429E-2,2.5010023E-2,8.4951036E-2,2.5010023E-2,-2.1075161E-2,-6.0083177E-2,2.021493E-3,-2.1075161E-2],"split_indices":[8,1,7,7,5,0,8,0,0,0,0,0,0,0,0],"split_type":[0,0,0,0,0,0,0,0,0,0,0,0,0,0,0],"sum_hessian":[3.886276E3,4.5913455E2,3.4271414E3,1.7786343E2,2.8127112E2,2.939376E2,3.1332039E3,1.485124E2,2.935104E1,8.581062E1,1.9546051E2,9.7485695E1,1.9645189E2,2.8193213E3,3.1388257E2],"tree_param":{"num_deleted":"0","num_feature":"9","num_nodes":"15","size_leaf_vector":"1"}},{"base_weights":[-8.578732E-3,-2.7261576E-2,8.5788175E-2,-2.465768E-2,-6.0416377E-1,9.6053466E-2,-8.9934343E-1,-6.905962E-2,-4.5196596E-3,-9.634547E-2,-4.335276E-1,2.6741927E-2,-1.2616478E-1,-2.783905E-1,-1.7802842E-1],"categories":[],"categories_nodes":[],"categories_segments":[],"categories_sizes":[],"default_left":[0,0,0,0,0,0,0,0,0,0,0,0,0,0,0],"id":21,"left_children":[1,3,5,7,9,11,13,-1,-1,-1,-1,-1,-1,-1,-1],"loss_changes":[6.8987527E0,5.016988E0,6.7283893E0,5.021703E0,3.6370993E0,6.228649E0,2.1803427E-1,0E0,0E0,0E0,0E0,0E0,0E0,0E0,0E0],"parents":[2147483647,0,0,1,1,2,2,3,3,4,4,5,5,6,6],"right_children":[2,4,6,8,10,12,14,-1,-1,-1,-1,-1,-1,-1,-1],"split_conditions":[5.7E1,9.81E1,9.3E1,2E0,4.7E1,4.7E-2,-5.1566668E-2,-6.905962E-2,-4.5196596E-3,-9.634547E-2,-4.335276E-1,2.6741927E-2,-1.2616478E-1,-2.783905E-1,-1.7802842E-1],"split_indices":[6,5,6,6,6,3,7,0,0,0,0,0,0,0,0],"split_type":[0,0,0,0,0,0,0,0,0,0,0,0,0,0,0],"sum_hessian":[3.8929917E3,3.2517283E3,6.4126355E2,3.2376E3,1.412809E1,6.349544E2,6.3091617E0,6.919243E1,3.1684077E3,1.2345208E1,1.7828811E0,6.2006305E2,1.4891303E1,1.6319371E0,4.6772246E0],"tree_param":{"num_deleted":"0","num_feature":"9","num_nodes":"15","size_leaf_vector":"1"}},{"base_weights":[-2.132511E-3,-1.4387113E-1,8.361471E-3,-1.04776524E-1,-4.3342555E-1,-1.1294619E-2,1.0155797E-1,2.487119E-5,-5.5878043E-2,-6.458425E-2,-1.5541393E-1,1.0831602E-2,-1.0097907E-2,4.2980358E-2,1.0831602E-2],"categories":[],"categories_nodes":[],"categories_segments":[],"categories_sizes":[],"default_left":[0,0,0,0,0,0,0,0,0,0,0,0,0,0,0],"id":22,"left_children":[1,3,5,7,9,11,13,-1,-1,-1,-1,-1,-1,-1,-1],"loss_changes":[5.875501E0,3.1011896E0,6.688226E0,3.3089223E0,1.5977106E0,5.7552915E0,3.2484498E0,0E0,0E0,0E0,0E0,0E0,0E0,0E0,0E0],"parents":[2147483647,0,0,1,1,2,2,3,3,4,4,5,5,6,6],"right_children":[2,4,6,8,10,12,14,-1,-1,-1,-1,-1,-1,-1,-1],"split_conditions":[9E0,1.9768971E-1,1.546067E-1,2E0,6.2E0,2E0,6.4E0,2.487119E-5,-5.5878043E-2,-6.458425E-2,-1.5541393E-1,1.0831602E-2,-1.0097907E-2,4.2980358E-2,1.0831602E-2],"split_indices":[6,8,7,0,4,0,4,0,0,0,0,0,0,0,0],"split_type":[0,0,0,0,0,0,0,0,0,0,0,0,0,0,0],"sum_hessian":[3.8820266E3,2.6905865E2,3.612968E3,2.3785419E2,3.1204481E1,2.98168E3,6.31288E2,1.2980316E2,1.0805102E2,1.4885145E1,1.6319336E1,9.78473E2,2.0032069E3,2.9099313E2,3.402949E2],"tree_param":{"num_deleted":"0","num_feature":"9","num_nodes":"15","size_leaf_vector":"1"}},{"base_weights":[8.484862E-6,5.200261E-3,-2.5189355E-1,-1.077661E-1,1.4771748E-2,-1.9378471E-1,-1.0036644E0,1.6332271E-3,-2.9603193E-2,1.2332189E-2,-3.7969046E-3,-1.436939E-1,-3.0829847E-2,-1.436939E-1,-2.8554732E-1],"categories":[],"categories_nodes":[],"categories_segments":[],"categories_sizes":[],"default_left":[0,0,0,0,0,0,0,0,0,0,0,0,0,0,0],"id":23,"left_children":[1,3,5,7,9,11,13,-1,-1,-1,-1,-1,-1,-1,-1],"loss_changes":[5.11352E0,4.125986E0,3.5135312E0,1.7295802E0,3.9435194E0,2.4120886E0,6.6321325E-1,0E0,0E0,0E0,0E0,0E0,0E0,0E0,0E0],"parents":[2147483647,0,0,1,1,2,2,3,3,4,4,5,5,6,6],"right_children":[2,4,6,8,10,12,14,-1,-1,-1,-1,-1,-1,-1,-1],"split_conditions":[3.1632918E-1,4.21E1,1E1,2E0,6.8E1,4.75E1,3E1,1.6332271E-3,-2.9603193E-2,1.2332189E-2,-3.7969046E-3,-1.436939E-1,-3.0829847E-2,-1.436939E-1,-2.8554732E-1],"split_indices":[8,5,0,0,5,5,6,0,0,0,0,0,0,0,0],"split_type":[0,0,0,0,0,0,0,0,0,0,0,0,0,0,0],"sum_hessian":[3.8623206E3,3.7853035E3,7.701698E1,2.937137E2,3.4915898E3,7.187023E1,5.14675E0,1.0231115E2,1.9140256E2,1.5928364E3,1.8987534E3,7.428626E0,6.4441605E1,1.0406165E0,4.1061335E0],"tree_param":{"num_deleted":"0","num_feature":"9","num_nodes":"15","size_leaf_vector":"1"}},{"base_weights":[-2.7223942E-3,5.6508667E-4,-3.2416496E-1,-1.1086978E-1,9.90723E-3,-1.6179994E-1,-5.222418E-1,-3.8831983E-2,-1.523365E-3,1.9653577E-2,-1.5408745E-3,-3.8831983E-2,-7.0911184E-2,-1.5551114E-1,-3.8831983E-2],"categories":[],"categories_nodes":[],"categories_segments":[],"categories_sizes":[],"default_left":[0,0,0,0,0,0,0,0,0,0,0,0,0,0,0],"id":24,"left_children":[1,3,5,7,9,11,13,-1,-1,-1,-1,-1,-1,-1,-1],"loss_changes":[4.3088174E0,4.014572E0,3.2349591E0,2.4397824E0,4.204237E0,1.2075257E-1,2.1825485E0,0E0,0E0,0E0,0E0,0E0,0E0,0E0,0E0],"parents":[2147483647,0,0,1,1,2,2,3,3,4,4,5,5,6,6],"right_children":[2,4,6,8,10,12,14,-1,-1,-1,-1,-1,-1,-1,-1],"split_conditions":[2.23E1,4.21E1,5.14E1,-2.0085537E1,-5.40234E-2,3.6E1,7.77E1,-3.8831983E-2,-1.523365E-3,1.9653577E-2,-1.5408745E-3,-3.8831983E-2,-7.0911184E-2,-1.5551114E-1,-3.8831983E-2],"split_indices":[4,5,5,1,8,6,5,0,0,0,0,0,0,0,0],"split_type":[0,0,0,0,0,0,0,0,0,0,0,0,0,0,0],"sum_hessian":[3.8648071E3,3.8250444E3,3.976286E1,2.938797E2,3.5311648E3,7.5495415E0,3.2213318E1,1.593504E2,1.345293E2,6.5544165E2,2.8757231E3,4.227538E0,3.3220031E0,2.6667185E1,5.546134E0],"tree_param":{"num_deleted":"0","num_feature":"9","num_nodes":"15","size_leaf_vector":"1"}},{"base_weights":[6.934358E-4,2.0271984E-3,-9.158071E-1,2.996365E-3,-2.374479E-1,-6.9098103E-1,-2.7321184E-1,-5.5554423E-2,1.7246974E-3,-2.545499E-1,-8.66865E-2],"categories":[],"categories_nodes":[],"categories_segments":[],"categories_sizes":[],"default_left":[0,0,0,0,0,0,0,0,0,0,0],"id":25,"left_children":[1,3,5,7,-1,9,-1,-1,-1,-1,-1],"loss_changes":[4.929122E0,3.932298E0,2.0496798E-1,3.8384843E0,0E0,3.9134228E-1,0E0,0E0,0E0,0E0,0E0],"parents":[2147483647,0,0,1,1,2,2,3,3,5,5],"right_children":[2,4,6,8,-1,10,-1,-1,-1,-1,-1],"split_conditions":[9.3E1,2.6E1,9.6E1,2E0,-2.374479E-1,9.4E1,-2.7321184E-1,-5.5554423E-2,1.7246974E-3,-2.545499E-1,-8.66865E-2],"split_indices":[6,0,6,6,0,6,0,0,0,0,0],"split_type":[0,0,0,0,0,0,0,0,0,0,0],"sum_hessian":[3.8573303E3,3.852057E3,5.2734013E0,3.8486077E3,3.4491122E0,3.3042166E0,1.9691845E0,6.6516426E1,3.7820913E3,1.143205E0,2.1610117E0],"tree_param":{"num_deleted":"0","num_feature":"9","num_nodes":"11","size_leaf_vector":"1"}},{"base_weights":[-1.5229742E-3,-6.698954E-4,-2.3117688E-1,-1.3252715E-2,6.346487E-2,-1.3971672E-3,-4.1896377E-2,2.0086346E-2,-6.1108544E-2],"categories":[],"categories_nodes":[],"categories_segments":[],"categories_sizes":[],"default_left":[0,0,0,0,0,0,0,0,0],"id":26,"left_children":[1,3,-1,5,7,-1,-1,-1,-1],"loss_changes":[3.401478E0,3.1476693E0,0E0,3.9187572E0,4.155458E0,0E0,0E0,0E0,0E0],"parents":[2147483647,0,0,1,1,3,3,4,4],"right_children":[2,4,-1,6,8,-1,-1,-1,-1],"split_conditions":[2.6E1,5.7E1,-2.3117688E-1,1.1E1,2.6948956E-1,-1.3971672E-3,-4.1896377E-2,2.0086346E-2,-6.1108544E-2],"split_indices":[0,6,0,0,8,0,0,0,0],"split_type":[0,0,0,0,0,0,0,0,0],"sum_hessian":[3.8741177E3,3.8710046E3,3.1130035E0,3.2391814E3,6.3182336E2,3.09799E3,1.4119118E2,5.9478674E2,3.703663E1],"tree_param":{"num_deleted":"0","num_feature":"9","num_nodes":"9","size_leaf_vector":"1"}},{"base_weights":[-6.4968374E-3,-1.0634391E-1,1.6960787E-3,-3.9316064E-1,-6.911887E-2,4.8716287E-3,-2.8766304E-1,-2.564924E-1,-5.114103E-2,1.17536604E-1,-2.1428306E-2,-1.02495365E-2,5.1651183E-3,-5.6533832E-2,-2.1630144E-1],"categories":[],"categories_nodes":[],"categories_segments":[],"categories_sizes":[],"default_left":[0,0,0,0,0,0,0,0,0,0,0,0,0,0,0],"id":27,"left_children":[1,3,5,7,9,11,13,-1,-1,-1,-1,-1,-1,-1,-1],"loss_changes":[3.2252219E0,3.200143E0,3.3414745E0,4.1234E0,3.0941153E0,2.8135486E0,1.3240201E0,0E0,0E0,0E0,0E0,0E0,0E0,0E0,0E0],"parents":[2147483647,0,0,1,1,2,2,3,3,4,4,5,5,6,6],"right_children":[2,4,6,8,10,12,14,-1,-1,-1,-1,-1,-1,-1,-1],"split_conditions":[4.21E1,1.5E1,2.23E1,-3.7545267E2,1.8E1,-5.1566668E-2,2.6E-1,-2.564924E-1,-5.114103E-2,1.17536604E-1,-2.1428306E-2,-1.02495365E-2,5.1651183E-3,-5.6533832E-2,-2.1630144E-1],"split_indices":[5,6,4,1,6,7,3,0,0,0,0,0,0,0,0],"split_type":[0,0,0,0,0,0,0,0,0,0,0,0,0,0,0],"sum_hessian":[3.855198E3,2.9442514E2,3.5607727E3,3.3019238E1,2.614059E2,3.5229902E3,3.7782543E1,6.5954456E0,2.642379E1,8.638828E0,2.5276707E2,9.0961487E2,2.6133755E3,3.5275105E1,2.5074394E0],"tree_param":{"num_deleted":"0","num_feature":"9","num_nodes":"15","size_leaf_vector":"1"}},{"base_weights":[5.7440705E-4,-1.6181171E-1,4.6092723E-3,-4.2359084E-1,1.7174044E-1,2.8493067E-3,4.4321698E-1,-1.5644805E-1,-3.7624363E-2,2.8583415E-2,3.584458E-1,1.2230696E-3,-6.6078946E-2,3.2816035E-1,5.3527955E-2],"categories":[],"categories_nodes":[],"categories_segments":[],"categories_sizes":[],"default_left":[0,0,0,0,0,0,0,0,0,0,0,0,0,0,0],"id":28,"left_children":[1,3,5,7,9,11,13,-1,-1,-1,-1,-1,-1,-1,-1],"loss_changes":[2.5688937E0,8.31302E0,3.0089931E0,3.153308E0,3.077257E0,2.4114978E0,5.930439E0,0E0,0E0,0E0,0E0,0E0,0E0,0E0,0E0],"parents":[2147483647,0,0,1,1,2,2,3,3,4,4,5,5,6,6],"right_children":[2,4,6,8,10,12,14,-1,-1,-1,-1,-1,-1,-1,-1],"split_conditions":[3E0,5.006509E0,4.2550057E-1,6.76E1,8.92E1,9.57E1,3E1,-1.5644805E-1,-3.7624363E-2,2.8583415E-2,3.584458E-1,1.2230696E-3,-6.6078946E-2,3.2816035E-1,5.3527955E-2],"split_indices":[6,1,7,5,5,5,6,0,0,0,0,0,0,0,0],"split_type":[0,0,0,0,0,0,0,0,0,0,0,0,0,0,0],"sum_hessian":[3.8587456E3,9.208488E1,3.7666606E3,5.197127E1,4.01136E1,3.7522136E3,1.4447109E1,2.7478222E1,2.4493052E1,3.882921E1,1.2843955E0,3.7230552E3,2.915835E1,4.6629167E0,9.784192E0],"tree_param":{"num_deleted":"0","num_feature":"9","num_nodes":"15","size_leaf_vector":"1"}},{"base_weights":[-2.8613887E-3,-2.1641767E-3,-2.2325885E-1,2.283032E-2,-2.7122097E-2,-5.150132E-4,3.442283E-2,-5.150132E-4,-2.6633402E-2],"categories":[],"categories_nodes":[],"categories_segments":[],"categories_sizes":[],"default_left":[0,0,0,0,0,0,0,0,0],"id":29,"left_children":[1,3,-1,5,7,-1,-1,-1,-1],"loss_changes":[2.7081873E0,2.4270334E0,0E0,6.17904E0,4.833413E0,0E0,0E0,0E0,0E0],"parents":[2147483647,0,0,1,1,3,3,4,4],"right_children":[2,4,-1,6,8,-1,-1,-1,-1],"split_conditions":[2.6E1,3E0,-2.2325885E-1,8.11E1,7.77E1,-5.150132E-4,3.442283E-2,-5.150132E-4,-2.6633402E-2],"split_indices":[0,0,0,5,5,0,0,0,0],"split_type":[0,0,0,0,0,0,0,0,0],"sum_hessian":[3.8558997E3,3.8533325E3,2.567158E0,1.9206113E3,1.9327212E3,1.5752191E3,3.4539224E2,1.4261666E3,5.0655457E2],"tree_param":{"num_deleted":"0","num_feature":"9","num_nodes":"9","size_leaf_vector":"1"}},{"base_weights":[4.188762E-3,-2.0758536E-1,7.7351253E-3,2.675435E-1,-2.3672439E-1,9.4971685E-3,-4.0459046E-1,-4.3952346E-2,-2.3923358E-1,2.510819E-3,-1.5805086E-1,-1.9528666E-1,-5.438072E-2],"categories":[],"categories_nodes":[],"categories_segments":[],"categories_sizes":[],"default_left":[0,0,0,0,0,0,0,0,0,0,0,0,0],"id":30,"left_children":[1,3,5,-1,7,9,11,-1,-1,-1,-1,-1,-1],"loss_changes":[2.946E0,2.7524395E0,2.8518324E0,0E0,2.6459439E0,2.5894115E0,1.1731994E0,0E0,0E0,0E0,0E0,0E0,0E0],"parents":[2147483647,0,0,1,1,2,2,4,4,5,5,6,6],"right_children":[2,4,6,-1,8,10,12,-1,-1,-1,-1,-1,-1],"split_conditions":[2E0,3.65E1,9.81E1,2.675435E-1,1.2E-2,9.3E1,2.7E1,-4.3952346E-2,-2.3923358E-1,2.510819E-3,-1.5805086E-1,-1.9528666E-1,-5.438072E-2],"split_indices":[6,5,5,0,3,6,6,0,0,0,0,0,0],"split_type":[0,0,0,0,0,0,0,0,0,0,0,0,0],"sum_hessian":[3.8536235E3,6.2316494E1,3.7913071E3,1.1081254E0,6.120837E1,3.775812E3,1.5495166E1,5.7554317E1,3.654053E0,3.770793E3,5.0190434E0,4.2166867E0,1.1278479E1],"tree_param":{"num_deleted":"0","num_feature":"9","num_nodes":"13","size_leaf_vector":"1"}},{"base_weights":[3.0746853E-3,1.3567118E-2,-6.6272706E-2,-8.785775E-3,4.6407346E-2,-5.0641637E-2,-9.7653216E-1,4.5145885E-3,-6.3246703E-3,4.1735686E-2,6.269495E-3,-3.7544224E-2,-6.3246703E-3,-3.106433E-1,-6.3246703E-3],"categories":[],"categories_nodes":[],"categories_segments":[],"categories_sizes":[],"default_left":[0,0,0,0,0,0,0,0,0,0,0,0,0,0,0],"id":31,"left_children":[1,3,5,7,9,11,13,-1,-1,-1,-1,-1,-1,-1,-1],"loss_changes":[2.8167453E0,2.4779677E0,7.340809E0,2.1790912E0,3.5308359E0,4.1565695E0,3.1854372E0,0E0,0E0,0E0,0E0,0E0,0E0,0E0,0E0],"parents":[2147483647,0,0,1,1,2,2,3,3,4,4,5,5,6,6],"right_children":[2,4,6,8,10,12,14,-1,-1,-1,-1,-1,-1,-1,-1],"split_conditions":[1.9960491E-1,5.2307174E-2,8.1E1,-5.8704693E-2,1.9E0,4E1,7.63E1,4.5145885E-3,-6.3246703E-3,4.1735686E-2,6.269495E-3,-3.7544224E-2,-6.3246703E-3,-3.106433E-1,-6.3246703E-3],"split_indices":[8,7,6,8,4,6,5,0,0,0,0,0,0,0,0],"split_type":[0,0,0,0,0,0,0,0,0,0,0,0,0,0,0],"sum_hessian":[3.8388147E3,3.3372864E3,5.0152823E2,1.9815332E3,1.3557533E3,4.9339435E2,8.133887E0,4.632304E2,1.5183029E3,1.8444412E2,1.1713091E3,2.5986868E2,2.3352568E2,6.4221807E0,1.711707E0],"tree_param":{"num_deleted":"0","num_feature":"9","num_nodes":"15","size_leaf_vector":"1"}},{"base_weights":[1.8369589E-3,2.2966366E-3,-2.37324E-1,-1.6811304E-2,2.5829986E-2,-2.7864834E-3,-5.6590468E-2,3.9110523E-2,4.0990836E-3],"categories":[],"categories_nodes":[],"categories_segments":[],"categories_sizes":[],"default_left":[0,0,0,0,0,0,0,0,0],"id":32,"left_children":[1,3,-1,5,7,-1,-1,-1,-1],"loss_changes":[1.9763784E0,1.744147E0,0E0,2.4520936E0,2.0968266E0,0E0,0E0,0E0,0E0],"parents":[2147483647,0,0,1,1,3,3,4,4],"right_children":[2,4,-1,6,8,-1,-1,-1,-1],"split_conditions":[6.18E-1,1E0,-2.37324E-1,9.18E1,-1.4424607E-1,-2.7864834E-3,-5.6590468E-2,3.9110523E-2,4.0990836E-3],"split_indices":[3,2,0,5,8,0,0,0,0],"split_type":[0,0,0,0,0,0,0,0,0],"sum_hessian":[3.8336885E3,3.8322236E3,1.4647143E0,2.1095383E3,1.7226853E3,2.061715E3,4.782328E1,1.016577E2,1.6210277E3],"tree_param":{"num_deleted":"0","num_feature":"9","num_nodes":"9","size_leaf_vector":"1"}},{"base_weights":[4.604998E-3,-7.439991E-3,6.0223076E-2,-4.3340228E-3,-4.2261684E-1,3.8508404E-2,2.8097215E-1,1.5561774E-3,-2.0376286E-2,-2.2516899E-1,-5.1234104E-2,1.2223538E-2,-1.5787141E-1,4.038667E-2,3.2058537E-1],"categories":[],"categories_nodes":[],"categories_segments":[],"categories_sizes":[],"default_left":[0,0,0,0,0,0,0,0,0,0,0,0,0,0,0],"id":33,"left_children":[1,3,5,7,9,11,13,-1,-1,-1,-1,-1,-1,-1,-1],"loss_changes":[2.6101007E0,4.155219E0,3.333509E0,2.7827733E0,2.7926693E0,5.5843487E0,7.3882174E0,0E0,0E0,0E0,0E0,0E0,0E0,0E0,0E0],"parents":[2147483647,0,0,1,1,2,2,3,3,4,4,5,5,6,6],"right_children":[2,4,6,8,10,12,14,-1,-1,-1,-1,-1,-1,-1,-1],"split_conditions":[5.6E1,1.7E1,8.6E1,4.8E1,-5.298091E-2,8.49E1,8.1E1,1.5561774E-3,-2.0376286E-2,-2.2516899E-1,-5.1234104E-2,1.2223538E-2,-1.5787141E-1,4.038667E-2,3.2058537E-1],"split_indices":[6,0,5,6,7,5,6,0,0,0,0,0,0,0,0],"split_type":[0,0,0,0,0,0,0,0,0,0,0,0,0,0,0],"sum_hessian":[3.8340146E3,3.1481309E3,6.858838E2,3.125389E3,2.2741985E1,6.254994E2,6.038442E1,2.7529324E3,3.724565E2,6.689344E0,1.605264E1,6.14935E2,1.0564351E1,5.4837616E1,5.546804E0],"tree_param":{"num_deleted":"0","num_feature":"9","num_nodes":"15","size_leaf_vector":"1"}},{"base_weights":[3.1964213E-3,3.73047E-3,-2.1231793E-1,2.5324674E-2,-1.772986E-2,2.6741028E-2,1.7373557E-3,-4.62659E-2,-7.638838E-4],"categories":[],"categories_nodes":[],"categories_segments":[],"categories_sizes":[],"default_left":[0,0,0,0,0,0,0,0,0],"id":34,"left_children":[1,3,-1,5,7,-1,-1,-1,-1],"loss_changes":[2.0305722E0,1.801656E0,0E0,3.007996E0,4.933553E0,0E0,0E0,0E0,0E0],"parents":[2147483647,0,0,1,1,3,3,4,4],"right_children":[2,4,-1,6,8,-1,-1,-1,-1],"split_conditions":[2.6E1,3E0,-2.1231793E-1,1.6E1,1.6E1,2.6741028E-2,1.7373557E-3,-4.62659E-2,-7.638838E-4],"split_indices":[0,0,0,6,6,0,0,0,0],"split_type":[0,0,0,0,0,0,0,0,0],"sum_hessian":[3.8463606E3,3.8443887E3,1.9719931E0,1.9216024E3,1.9227863E3,3.312853E2,1.5903171E3,1.4623267E2,1.7765536E3],"tree_param":{"num_deleted":"0","num_feature":"9","num_nodes":"9","size_leaf_vector":"1"}},{"base_weights":[3.3119745E-3,5.5584116E-3,-2.0877245E-1,9.870597E-3,-9.84017E-2,-1.1645229E-1,-4.1544458E-1,1.4936544E-1,2.256164E-3,-2.4385683E-2,-1.0623733E-2,-5.610517E-2,-2.4385683E-2,-1.8261938E-1,-6.382763E-2],"categories":[],"categories_nodes":[],"categories_segments":[],"categories_sizes":[],"default_left":[0,0,0,0,0,0,0,0,0,0,0,0,0,0,0],"id":35,"left_children":[1,3,5,7,9,11,13,-1,-1,-1,-1,-1,-1,-1,-1],"loss_changes":[1.8791581E0,1.72999E0,7.6948893E-1,1.1919343E0,1.0590804E0,2.3892027E-1,1.2325416E0,0E0,0E0,0E0,0E0,0E0,0E0,0E0,0E0],"parents":[2147483647,0,0,1,1,2,2,3,3,4,4,5,5,6,6],"right_children":[2,4,6,8,10,12,14,-1,-1,-1,-1,-1,-1,-1,-1],"split_conditions":[2.23E1,1.2E1,1.3432716E-1,1E0,3.1159385E-3,-9.871919E-3,-1.3409071E2,1.4936544E-1,2.256164E-3,-2.4385683E-2,-1.0623733E-2,-5.610517E-2,-2.4385683E-2,-1.8261938E-1,-6.382763E-2],"split_indices":[4,0,8,0,7,7,1,0,0,0,0,0,0,0,0],"split_type":[0,0,0,0,0,0,0,0,0,0,0,0,0,0,0],"sum_hessian":[3.8373132E3,3.7982532E3,3.9059956E1,3.6491924E3,1.4906084E2,2.7861511E1,1.1198446E1,2.3384194E0,3.646854E3,6.455919E1,8.450165E1,1.0879602E1,1.6981909E1,5.3486395E0,5.8498063E0],"tree_param":{"num_deleted":"0","num_feature":"9","num_nodes":"15","size_leaf_vector":"1"}},{"base_weights":[-2.070266E-3,-3.1372577E-2,1.929208E-2,-1.3039277E-2,-2.2850852E-1,2.1234441E-1,-1.1182127E-2,-7.7710324E-4,-2.8985735E-2,-2.9222164E-2,-1.6107553E-1,4.076607E-2,1.5716986E-1,7.0362454E-3,-1.8645931E-2],"categories":[],"categories_nodes":[],"categories_segments":[],"categories_sizes":[],"default_left":[0,0,0,0,0,0,0,0,0,0,0,0,0,0,0],"id":36,"left_children":[1,3,5,7,9,11,13,-1,-1,-1,-1,-1,-1,-1,-1],"loss_changes":[2.4231894E0,5.8951855E0,1.3148564E1,2.2276764E0,6.532313E0,5.770667E0,5.1966558E0,0E0,0E0,0E0,0E0,0E0,0E0,0E0,0E0],"parents":[2147483647,0,0,1,1,2,2,3,3,4,4,5,5,6,6],"right_children":[2,4,6,8,10,12,14,-1,-1,-1,-1,-1,-1,-1,-1],"split_conditions":[6.49E1,1.2E-2,6.8E1,1.1E1,7E0,6.7E1,4E0,-7.7710324E-4,-2.8985735E-2,-2.9222164E-2,-1.6107553E-1,4.076607E-2,1.5716986E-1,7.0362454E-3,-1.8645931E-2],"split_indices":[5,3,5,0,0,6,0,0,0,0,0,0,0,0,0],"split_type":[0,0,0,0,0,0,0,0,0,0,0,0,0,0,0],"sum_hessian":[3.8304377E3,1.61964E3,2.2107979E3,1.4829869E3,1.3665303E2,3.0238043E2,1.9084175E3,1.4076208E3,7.5366104E1,1.1060456E2,2.6048468E1,2.7647168E2,2.590876E1,1.1839951E3,7.244223E2],"tree_param":{"num_deleted":"0","num_feature":"9","num_nodes":"15","size_leaf_vector":"1"}},{"base_weights":[6.3568394E-4,1.3694118E-3,-5.59509E-1,-2.7724586E-3,1.0175908E-1,-2.2605911E-1,-3.4565404E-1,-1.5163678E-4,-7.2974145E-2,4.74794E-2,-8.174497E-2,-1.434418E-1,-0E0],"categories":[],"categories_nodes":[],"categories_segments":[],"categories_sizes":[],"default_left":[0,0,0,0,0,0,0,0,0,0,0,0,0],"id":37,"left_children":[1,3,5,7,9,-1,11,-1,-1,-1,-1,-1,-1],"loss_changes":[1.7021596E0,1.6589566E0,3.8855684E-1,2.4336681E0,6.700796E0,0E0,3.0617464E-1,0E0,0E0,0E0,0E0,0E0,0E0],"parents":[2147483647,0,0,1,1,2,2,3,3,4,4,6,6],"right_children":[2,4,6,8,10,-1,12,-1,-1,-1,-1,-1,-1],"split_conditions":[9.3E1,7.2E1,-5.1566668E-2,7.1E1,1.25E1,-2.2605911E-1,6.76E1,-1.5163678E-4,-7.2974145E-2,4.74794E-2,-8.174497E-2,-1.434418E-1,-0E0],"split_indices":[6,6,7,6,4,0,5,0,0,0,0,0,0],"split_type":[0,0,0,0,0,0,0,0,0,0,0,0,0],"sum_hessian":[3.8236958E3,3.8191865E3,4.509173E0,3.6657114E3,1.5347513E2,1.131108E0,3.3780646E0,3.6406943E3,2.5017118E1,1.26558075E2,2.6917055E1,1.6066298E0,1.7714348E0],"tree_param":{"num_deleted":"0","num_feature":"9","num_nodes":"13","size_leaf_vector":"1"}},{"base_weights":[1.1599429E-3,2.103991E-2,-3.5461817E-2,-7.210953E-3,3.5182588E-2,-1.5043974E-1,-1.1248071E-2,3.584056E-2,-1.7306288E-3,1.7371725E-2,9.743304E-4,-8.216436E-2,-1.9402536E-2,-1.7306288E-3,-1.9402536E-2],"categories":[],"categories_nodes":[],"categories_segments":[],"categories_sizes":[],"default_left":[0,0,0,0,0,0,0,0,0,0,0,0,0,0,0],"id":38,"left_children":[1,3,5,7,9,11,13,-1,-1,-1,-1,-1,-1,-1,-1],"loss_changes":[2.8075297E0,1.5951653E0,3.7568922E0,1.3278276E0,2.301719E0,4.674059E0,1.7331374E0,0E0,0E0,0E0,0E0,0E0,0E0,0E0,0E0],"parents":[2147483647,0,0,1,1,2,2,3,3,4,4,5,5,6,6],"right_children":[2,4,6,8,10,12,14,-1,-1,-1,-1,-1,-1,-1,-1],"split_conditions":[1.0607937E-1,5.34E1,-4.789549E-2,-1.1471134E-1,7.16E1,-3.4581714E2,1.6E-2,3.584056E-2,-1.7306288E-3,1.7371725E-2,9.743304E-4,-8.216436E-2,-1.9402536E-2,-1.7306288E-3,-1.9402536E-2],"split_indices":[8,5,7,8,5,1,3,0,0,0,0,0,0,0,0],"split_type":[0,0,0,0,0,0,0,0,0,0,0,0,0,0,0],"sum_hessian":[3.8254316E3,2.4835955E3,1.3418363E3,4.967911E2,1.9868043E3,2.316857E2,1.1101506E3,5.113684E1,4.4565427E2,9.016014E2,1.085203E3,8.3388435E1,1.4829726E2,1.0579648E3,5.2185772E1],"tree_param":{"num_deleted":"0","num_feature":"9","num_nodes":"15","size_leaf_vector":"1"}}]},"name":"gbtree"},"learner_model_param":{"base_score":"4.8248857E-1","boost_from_average":"1","num_class":"0","num_feature":"9","num_target":"1"},"objective":{"name":"binary:logistic","reg_loss_param":{"scale_pos_weight":"1"}}},"version":[2,1,1]}