{"learner":{"attributes":{"best_iteration":"66","best_score":"0.6162378117240443"},"feature_names":["distance","diff_time_ratio","is_home_team","precipitation","wind_speed","temperature","yards_to_goal","offense_strength","defense_strength"],"feature_types":["int","float","int","float","float","float","int","float","float"],"gradient_booster":{"model":{"gbtree_model_param":{"num_parallel_tree":"1","num_trees":"77"},"iteration_indptr":[0,1,2,3,4,5,6,7,8,9,10,11,12,13,14,15,16,17,18,19,20,21,22,23,24,25,26,27,28,29,30,31,32,33,34,35,36,37,38,39,40,41,42,43,44,45,46,47,48,49,50,51,52,53,54,55,56,57,58,59,60,61,62,63,64,65,66,67,68,69,70,71,72,73,74,75,76,77],"tree_info":[0,0,0,0,0,0,0,0,0,0,0,0,0,0,0,0,0,0,0,0,0,0,0,0,0,0,0,0,0,0,0,0,0,0,0,0,0,0,0,0,0,0,0,0,0,0,0,0,0,0,0,0,0,0,0,0,0,0,0,0,0,0,0,0,0,0,0,0,0,0,0,0,0,0,0,0,0],"trees":[{"base_weights":[9.259747E-3,5.830067E-1,-5.4673344E-1,-3.257447E-1,-1.0862902E0,7.3851687E-1,2.012744E-1,-1.3120521E-2,-6.964871E-2,-1.08302034E-1,-1.6798429E-1,7.610283E-2,1.0228168E-1,2.3577607E-3,3.594772E-2],"categories":[],"categories_nodes":[],"categories_segments":[],"categories_sizes":[],"default_left":[0,0,0,0,0,0,0,0,0,0,0,0,0,0,0],"id":0,"left_children":[1,5,3,7,9,11,13,-1,-1,-1,-1,-1,-1,-1,-1],"loss_changes":[1.2466288E3,1.1417102E2,2.3664459E2,6.6478424E1,3.0063538E1,1.0098694E1,9.895395E0,0E0,0E0,0E0,0E0,0E0,0E0,0E0,0E0],"parents":[2147483647,0,0,2,2,1,1,3,3,4,4,5,5,6,6],"right_children":[2,6,4,8,10,12,14,-1,-1,-1,-1,-1,-1,-1,-1],"split_conditions":[3E0,2E0,9E0,5E0,1.1E1,1.6741323E-1,5.47E1,-1.3120521E-2,-6.964871E-2,-1.08302034E-1,-1.6798429E-1,7.610283E-2,1.0228168E-1,2.3577607E-3,3.594772E-2],"split_indices":[0,0,0,0,0,7,5,0,0,0,0,0,0,0,0],"split_type":[0,0,0,0,0,0,0,0,0,0,0,0,0,0,0],"sum_hessian":[3.9079336E3,1.9232606E3,1.9846731E3,1.4079945E3,5.766786E2,1.3665535E3,5.5670703E2,6.800314E2,7.2796313E2,2.5863162E2,3.18047E2,3.2753348E2,1.03902E3,1.2881651E2,4.2789053E2],"tree_param":{"num_deleted":"0","num_feature":"9","num_nodes":"15","size_leaf_vector":"1"}},{"base_weights":[-1.1544273E-3,4.8697203E-1,-4.7280908E-1,-2.795091E-1,-9.465186E-1,6.376777E-1,1.2156673E-1,-7.226987E-2,-1.9902976E-2,-9.3322754E-2,-1.4715958E-1,9.205922E-4,3.8644742E-2,5.7070017E-2,8.916174E-2],"categories":[],"categories_nodes":[],"categories_segments":[],"categories_sizes":[],"default_left":[0,0,0,0,0,0,0,0,0,0,0,0,0,0,0],"id":1,"left_children":[1,5,3,7,9,13,11,-1,-1,-1,-1,-1,-1,-1,-1],"loss_changes":[8.9832526E2,1.0559256E2,1.81711E2,4.9244186E1,2.4389526E1,1.2995483E1,1.4058173E1,0E0,0E0,0E0,0E0,0E0,0E0,0E0,0E0],"parents":[2147483647,0,0,2,2,1,1,3,3,4,4,6,6,5,5],"right_children":[2,6,4,8,10,14,12,-1,-1,-1,-1,-1,-1,-1,-1],"split_conditions":[3E0,2E0,9E0,-2.7621994E2,1.1E1,-1.7039864E2,-7.921873E0,-7.226987E-2,-1.9902976E-2,-9.3322754E-2,-1.4715958E-1,9.205922E-4,3.8644742E-2,5.7070017E-2,8.916174E-2],"split_indices":[0,0,0,1,0,1,1,0,0,0,0,0,0,0,0],"split_type":[0,0,0,0,0,0,0,0,0,0,0,0,0,0,0],"sum_hessian":[3.9019082E3,1.9174716E3,1.9844365E3,1.4093451E3,5.7509143E2,1.357565E3,5.599067E2,4.422649E2,9.6708014E2,2.5756937E2,3.175221E2,3.0581186E2,2.540948E2,2.6496902E2,1.092596E3],"tree_param":{"num_deleted":"0","num_feature":"9","num_nodes":"15","size_leaf_vector":"1"}},{"base_weights":[-1.3449067E-2,-3.515995E-1,1.5901624E-1,-9.629164E-2,2.3756784E-1,-8.4638804E-1,-2.8800353E-1,2.2144374E-2,5.011159E-2,-4.962335E-2,-1.8417701E-2,-1.847097E-1,-9.628789E-2,2.5178185E-2,-1.2517912E-2],"categories":[],"categories_nodes":[],"categories_segments":[],"categories_sizes":[],"default_left":[0,0,0,0,0,0,0,0,0,0,0,0,0,0,0],"id":2,"left_children":[1,5,3,13,7,11,9,-1,-1,-1,-1,-1,-1,-1,-1],"loss_changes":[2.2643735E2,4.1266083E1,9.3599846E1,3.7736893E-1,2.3301056E1,9.070297E0,1.5935547E1,0E0,0E0,0E0,0E0,0E0,0E0,0E0,0E0],"parents":[2147483647,0,0,2,2,1,1,4,4,6,6,5,5,3,3],"right_children":[2,6,4,14,8,12,10,-1,-1,-1,-1,-1,-1,-1,-1],"split_conditions":[-1.6379445E2,1.4E1,1E1,-3.909427E-1,4.4E1,3E0,-3.8049222E2,2.2144374E-2,5.011159E-2,-4.962335E-2,-1.8417701E-2,-1.847097E-1,-9.628789E-2,2.5178185E-2,-1.2517912E-2],"split_indices":[1,6,6,8,6,6,1,0,0,0,0,0,0,0,0],"split_type":[0,0,0,0,0,0,0,0,0,0,0,0,0,0,0],"sum_hessian":[3.8827202E3,1.3114257E3,2.5712944E3,2.2787811E2,2.3434163E3,1.4936172E2,1.162064E3,1.6111254E3,7.32291E2,7.083861E2,4.5367786E2,2.3213661E1,1.26148056E2,4.487352E0,2.2339076E2],"tree_param":{"num_deleted":"0","num_feature":"9","num_nodes":"15","size_leaf_vector":"1"}},{"base_weights":[-9.53275E-3,3.3703002E-1,-5.1723516E-1,5.471796E-1,3.0835016E-2,-4.0095174E-1,-1.0006977E0,-1.8544761E-2,-6.2293913E-2,-1.19585946E-1,-1.757774E-1,-1.1713333E-2,7.818539E-3,6.3284405E-2,8.014778E-2],"categories":[],"categories_nodes":[],"categories_segments":[],"categories_sizes":[],"default_left":[0,0,0,0,0,0,0,0,0,0,0,0,0,0,0],"id":3,"left_children":[1,3,5,13,11,7,9,-1,-1,-1,-1,-1,-1,-1,-1],"loss_changes":[6.8060016E2,1.4792584E2,8.8220825E1,5.7073975E0,6.0459065E0,2.5561981E1,8.640259E0,0E0,0E0,0E0,0E0,0E0,0E0,0E0,0E0],"parents":[2147483647,0,0,1,1,2,2,5,5,6,6,4,4,3,3],"right_children":[2,4,6,14,12,8,10,-1,-1,-1,-1,-1,-1,-1,-1],"split_conditions":[4E0,2E0,1.1E1,1E0,3.99E1,5E0,1.9E1,-1.8544761E-2,-6.2293913E-2,-1.19585946E-1,-1.757774E-1,-1.1713333E-2,7.818539E-3,6.3284405E-2,8.014778E-2],"split_indices":[0,0,0,2,5,0,0,0,0,0,0,0,0,0,0],"split_type":[0,0,0,0,0,0,0,0,0,0,0,0,0,0,0],"sum_hessian":[3.8681274E3,2.2988853E3,1.5692423E3,1.3632506E3,9.356346E2,1.2649855E3,3.0425674E2,2.9406647E2,9.70919E2,2.473776E2,5.6879166E1,6.1587692E1,8.740469E2,7.287362E2,6.3451434E2],"tree_param":{"num_deleted":"0","num_feature":"9","num_nodes":"15","size_leaf_vector":"1"}},{"base_weights":[-1.4233022E-4,3.720628E-1,-3.6618218E-1,2.940312E-3,4.953443E-1,-1.8447523E-1,-7.106218E-1,7.874963E-2,2.8956356E-2,-5.8181304E-2,-1.2950819E-2,-7.1923845E-2,-1.2833577E-1,3.8224054E-4,2.773601E-2],"categories":[],"categories_nodes":[],"categories_segments":[],"categories_sizes":[],"default_left":[0,0,0,0,0,0,0,0,0,0,0,0,0,0,0],"id":4,"left_children":[1,3,5,13,7,9,11,-1,-1,-1,-1,-1,-1,-1,-1],"loss_changes":[5.2709454E2,1.5133627E2,1.22079895E2,2.2031288E0,5.123648E1,4.8063293E1,2.9318207E1,0E0,0E0,0E0,0E0,0E0,0E0,0E0,0E0],"parents":[2147483647,0,0,1,1,2,2,4,4,5,5,6,6,3,3],"right_children":[2,4,6,14,8,10,12,-1,-1,-1,-1,-1,-1,-1,-1],"split_conditions":[3E0,9E0,8E0,6E0,2E0,1.7E1,1.2E1,7.874963E-2,2.8956356E-2,-5.8181304E-2,-1.2950819E-2,-7.1923845E-2,-1.2833577E-1,3.8224054E-4,2.773601E-2],"split_indices":[0,6,0,6,0,6,0,0,0,0,0,0,0,0,0],"split_type":[0,0,0,0,0,0,0,0,0,0,0,0,0,0,0],"sum_hessian":[3.868812E3,1.9182511E3,1.9505609E3,2.161237E2,1.7021274E3,1.2769265E3,6.736343E2,1.211422E3,4.9070544E2,1.4984839E2,1.1270781E3,4.2935074E2,2.4428357E2,1.6636334E2,4.9760365E1],"tree_param":{"num_deleted":"0","num_feature":"9","num_nodes":"15","size_leaf_vector":"1"}},{"base_weights":[-8.774263E-3,2.179677E-1,-4.7594622E-1,-1.2898925E-1,3.2311356E-1,7.183997E-2,1.1007299E-2,-8.8550526E-1,-3.6565018E-1,-3.290302E-2,-1.0965554E-1,-1.5580499E-1,-1.04011886E-1,-1.6768603E-2,-9.877037E-4],"categories":[],"categories_nodes":[],"categories_segments":[],"categories_sizes":[],"default_left":[0,0,0,0,0,0,0,0,0,0,0,0,0,0,0],"id":5,"left_children":[1,3,7,13,5,-1,-1,11,9,-1,-1,-1,-1,-1,-1],"loss_changes":[4.0833502E2,1.6141592E2,5.689978E1,1.1829033E0,1.2685756E2,0E0,0E0,7.144577E0,5.337149E1,0E0,0E0,0E0,0E0,0E0,0E0],"parents":[2147483647,0,0,1,1,4,4,2,2,8,8,7,7,3,3],"right_children":[2,4,8,14,6,-1,-1,12,10,-1,-1,-1,-1,-1,-1],"split_conditions":[5E0,1E1,2.8E1,6E0,2E0,7.183997E-2,1.1007299E-2,1.1E1,1.2E1,-3.290302E-2,-1.0965554E-1,-1.5580499E-1,-1.04011886E-1,-1.6768603E-2,-9.877037E-4],"split_indices":[0,6,6,6,0,0,0,6,0,0,0,0,0,0,0],"split_type":[0,0,0,0,0,0,0,0,0,0,0,0,0,0,0],"sum_hessian":[3.8548523E3,2.595248E3,1.2596041E3,2.770648E2,2.3181833E3,1.1812366E3,1.1369468E3,2.672461E2,9.923581E2,8.031828E2,1.8917525E2,5.7293884E1,2.0995221E2,1.9678967E2,8.027511E1],"tree_param":{"num_deleted":"0","num_feature":"9","num_nodes":"15","size_leaf_vector":"1"}},{"base_weights":[-1.6736388E-2,1.8134283E-1,-4.2922553E-1,-1.23941354E-1,2.748084E-1,6.1048616E-2,9.530711E-3,-3.3806276E-1,-7.459816E-1,-7.046288E-2,-3.2969814E-2,-8.713085E-2,-1.42501E-1,-1.6112376E-2,6.1636614E-3],"categories":[],"categories_nodes":[],"categories_segments":[],"categories_sizes":[],"default_left":[0,0,0,0,0,0,0,0,0,0,0,0,0,0,0],"id":6,"left_children":[1,3,7,13,5,-1,-1,9,11,-1,-1,-1,-1,-1,-1],"loss_changes":[3.1105405E2,1.2769823E2,3.566414E1,1.864521E0,9.069508E1,0E0,0E0,2.7258507E1,7.3210297E0,0E0,0E0,0E0,0E0,0E0,0E0],"parents":[2147483647,0,0,1,1,4,4,2,2,7,7,8,8,3,3],"right_children":[2,4,8,14,6,-1,-1,10,12,-1,-1,-1,-1,-1,-1],"split_conditions":[5E0,9E0,1.1E1,6E0,2E0,6.1048616E-2,9.530711E-3,2.4E1,1.9E1,-7.046288E-2,-3.2969814E-2,-8.713085E-2,-1.42501E-1,-1.6112376E-2,6.1636614E-3],"split_indices":[0,6,0,6,0,0,0,6,0,0,0,0,0,0,0],"split_type":[0,0,0,0,0,0,0,0,0,0,0,0,0,0,0],"sum_hessian":[3.8070117E3,2.5719495E3,1.2350624E3,2.6127835E2,2.3106711E3,1.174865E3,1.135806E3,9.590476E2,2.760147E2,1.5170256E2,8.073451E2,2.2692993E2,4.9084785E1,1.9777872E2,6.3499634E1],"tree_param":{"num_deleted":"0","num_feature":"9","num_nodes":"15","size_leaf_vector":"1"}},{"base_weights":[-8.911244E-3,1.8976547E-1,-3.0486178E-1,-5.7548158E-2,2.848115E-1,-9.011158E-1,-2.4768251E-1,-2.0230576E-2,-8.5029826E-2,5.3639114E-2,1.3985327E-2,-1.6133814E-1,-1.04634225E-1,-7.48126E-3,1.21715395E-2],"categories":[],"categories_nodes":[],"categories_segments":[],"categories_sizes":[],"default_left":[0,0,0,0,0,0,0,0,0,0,0,0,0,0,0],"id":7,"left_children":[1,3,5,13,9,11,7,-1,-1,-1,-1,-1,-1,-1,-1],"loss_changes":[2.2368204E2,9.839708E1,5.2095978E1,1.4120636E0,4.5917236E1,4.3744507E0,5.2166763E1,0E0,0E0,0E0,0E0,0E0,0E0,0E0,0E0],"parents":[2147483647,0,0,1,1,2,2,6,6,4,4,5,5,3,3],"right_children":[2,4,6,14,10,12,8,-1,-1,-1,-1,-1,-1,-1,-1],"split_conditions":[4E0,9E0,1.6E1,6E0,2E0,6E0,1.1E1,-2.0230576E-2,-8.5029826E-2,5.3639114E-2,1.3985327E-2,-1.6133814E-1,-1.04634225E-1,-7.48126E-3,1.21715395E-2],"split_indices":[0,6,6,6,0,6,0,0,0,0,0,0,0,0,0],"split_type":[0,0,0,0,0,0,0,0,0,0,0,0,0,0,0],"sum_hessian":[3.8042124E3,2.2761758E3,1.5280365E3,2.4890092E2,2.0272749E3,1.3371204E2,1.3943245E3,1.1367988E3,2.5752563E2,1.1779136E3,8.493614E2,2.9501127E1,1.04210915E2,1.8711603E2,6.1784904E1],"tree_param":{"num_deleted":"0","num_feature":"9","num_nodes":"15","size_leaf_vector":"1"}},{"base_weights":[-2.350679E-2,1.2481063E-1,-3.3643356E-1,2.474118E-1,-4.460718E-3,-2.0749442E-1,-5.1824343E-1,7.1219592E-3,-1.3755489E-2,-4.717296E-2,-1.427737E-2,-6.147151E-2,-1.3030088E-1,3.9078504E-2,2.0433705E-2],"categories":[],"categories_nodes":[],"categories_segments":[],"categories_sizes":[],"default_left":[0,0,0,0,0,0,0,0,0,0,0,0,0,0,0],"id":8,"left_children":[1,3,5,13,7,9,11,-1,-1,-1,-1,-1,-1,-1,-1],"loss_changes":[1.740965E2,4.033333E1,2.8276016E1,6.2687836E0,1.3918526E1,1.1471851E1,1.0995636E1,0E0,0E0,0E0,0E0,0E0,0E0,0E0,0E0],"parents":[2147483647,0,0,1,1,2,2,4,4,5,5,6,6,3,3],"right_children":[2,4,6,14,8,10,12,-1,-1,-1,-1,-1,-1,-1,-1],"split_conditions":[5E0,2E0,9E0,-1.7354114E-1,-1.1920828E-1,-2.5561897E2,1.9E1,7.1219592E-3,-1.3755489E-2,-4.717296E-2,-1.427737E-2,-6.147151E-2,-1.3030088E-1,3.9078504E-2,2.0433705E-2],"split_indices":[0,0,0,8,8,1,0,0,0,0,0,0,0,0,0],"split_type":[0,0,0,0,0,0,0,0,0,0,0,0,0,0,0],"sum_hessian":[3.751067E3,2.5448757E3,1.206191E3,1.3061354E3,1.2387404E3,7.057063E2,5.0048477E2,1.0330264E3,2.0571408E2,2.6047504E2,4.452313E2,4.5758286E2,4.2901905E1,8.21716E2,4.8441937E2],"tree_param":{"num_deleted":"0","num_feature":"9","num_nodes":"15","size_leaf_vector":"1"}},{"base_weights":[-2.2283612E-2,-2.1143712E-1,7.178583E-2,-2.9164904E-1,-6.982565E-2,1.6751952E-1,1.8955301E-2,-8.045806E-3,9.2173405E-3,1.2885334E-2,3.4152806E-2,-9.077334E-3,-2.3495855E-2,-3.3064798E-2,-5.4213874E-2],"categories":[],"categories_nodes":[],"categories_segments":[],"categories_sizes":[],"default_left":[0,0,0,0,0,0,0,0,0,0,0,0,0,0,0],"id":9,"left_children":[1,3,5,13,11,9,7,-1,-1,-1,-1,-1,-1,-1,-1],"loss_changes":[6.68188E1,1.7328808E1,1.2684434E1,4.0247574E0,4.5900555E0,5.807232E0,6.787279E0,0E0,0E0,0E0,0E0,0E0,0E0,0E0,0E0],"parents":[2147483647,0,0,1,1,2,2,6,6,5,5,4,4,3,3],"right_children":[2,4,6,14,12,10,8,-1,-1,-1,-1,-1,-1,-1,-1],"split_conditions":[-1.6379445E2,2.4573407E-1,-2.3829153E-1,8.01E1,-1.22536846E-1,2.424794E-1,2.0646562E-1,-8.045806E-3,9.2173405E-3,1.2885334E-2,3.4152806E-2,-9.077334E-3,-2.3495855E-2,-3.3064798E-2,-5.4213874E-2],"split_indices":[1,7,8,5,8,7,7,0,0,0,0,0,0,0,0],"split_type":[0,0,0,0,0,0,0,0,0,0,0,0,0,0,0],"sum_hessian":[3.7552185E3,1.2472556E3,2.507963E3,8.604916E2,3.8676404E2,8.9184937E2,1.6161136E3,6.3220496E2,9.839086E2,5.1895636E2,3.72893E2,2.7910062E2,1.0766344E2,6.6317773E2,1.9731386E2],"tree_param":{"num_deleted":"0","num_feature":"9","num_nodes":"15","size_leaf_vector":"1"}},{"base_weights":[-1.5421541E-2,-1.2426203E0,2.3443595E-2,2.60551E-1,-1.9797549E-1,-8.682486E-2,-1.922767E-2,4.1109253E-2,1.7461006E-2,-1.6671205E0,-1.1161263E0,-1.6841893E-1,-9.902663E-2,-2.3270272E-1,-1.8564346E-1],"categories":[],"categories_nodes":[],"categories_segments":[],"categories_sizes":[],"default_left":[0,0,0,0,0,0,0,0,0,0,0,0,0,0,0],"id":10,"left_children":[1,9,3,7,5,-1,-1,-1,-1,13,11,-1,-1,-1,-1],"loss_changes":[1.7735718E2,6.1295013E0,1.8923106E2,1.2232536E1,4.38537E1,0E0,0E0,0E0,0E0,7.6997375E-1,5.591255E0,0E0,0E0,0E0,0E0],"parents":[2147483647,0,0,2,2,4,4,3,3,1,1,10,10,9,9],"right_children":[2,10,4,8,6,-1,-1,-1,-1,14,12,-1,-1,-1,-1],"split_conditions":[3E0,5.52E1,3E0,2E0,1.7E1,-8.682486E-2,-1.922767E-2,4.1109253E-2,1.7461006E-2,2E0,1.260473E1,-1.6841893E-1,-9.902663E-2,-2.3270272E-1,-1.8564346E-1],"split_indices":[6,5,0,0,6,0,0,0,0,6,1,0,0,0,0],"split_type":[0,0,0,0,0,0,0,0,0,0,0,0,0,0,0],"sum_hessian":[3.7185425E3,1.1415041E2,3.604392E3,1.7405347E3,1.8638573E3,1.7947638E2,1.684381E3,1.2078378E3,5.3269684E2,2.6205744E1,8.794467E1,5.838653E1,2.9558138E1,1.7308254E1,8.8974905E0],"tree_param":{"num_deleted":"0","num_feature":"9","num_nodes":"15","size_leaf_vector":"1"}},{"base_weights":[-7.87932E-3,-1.08873E0,2.7301367E-2,-5.5117723E-2,1.2850353E-1,-1.793892E-2,4.7700773E-3,2.8386384E-2,4.7700773E-3,-9.747201E-1,-1.5951627E0,-3.0906638E-2,-1.3159464E-1,-1.6704237E-1,-2.2431767E-1],"categories":[],"categories_nodes":[],"categories_segments":[],"categories_sizes":[],"default_left":[0,0,0,0,0,0,0,0,0,0,0,0,0,0,0],"id":11,"left_children":[1,9,3,5,7,-1,-1,-1,-1,11,13,-1,-1,-1,-1],"loss_changes":[1.4027744E2,6.714432E0,2.9800549E1,1.5379009E1,1.4506546E1,0E0,0E0,0E0,0E0,2.6264954E0,1.2879906E0,0E0,0E0,0E0,0E0],"parents":[2147483647,0,0,2,2,3,3,4,4,1,1,9,9,10,10],"right_children":[2,10,4,6,8,-1,-1,-1,-1,12,14,-1,-1,-1,-1],"split_conditions":[3E0,-1.20184265E-1,2.3143722E-1,3.9E1,-1.9117238E-1,-1.793892E-2,4.7700773E-3,2.8386384E-2,4.7700773E-3,-3.512948E-1,4.82E1,-3.0906638E-2,-1.3159464E-1,-1.6704237E-1,-2.2431767E-1],"split_indices":[6,8,7,6,8,0,0,0,0,8,5,0,0,0,0],"split_type":[0,0,0,0,0,0,0,0,0,0,0,0,0,0,0],"sum_hessian":[3.689069E3,1.1629069E2,3.5727783E3,1.9691228E3,1.6036555E3,1.0479243E3,9.2119855E2,8.4916785E2,7.5448773E2,9.492183E1,2.136886E1,4.6016426E0,9.032018E1,4.1389875E0,1.7229874E1],"tree_param":{"num_deleted":"0","num_feature":"9","num_nodes":"15","size_leaf_vector":"1"}},{"base_weights":[-1.3719213E-2,1.0702607E-1,-2.701947E-1,2.1038224E-1,-3.9165505E-4,-2.0626676E-1,-5.89885E-1,-5.1749863E-2,-1.7978301E-2,8.399331E-3,-1.0605961E-2,2.1241313E-2,3.8868453E-2,-7.226892E-2,-1.6944009E-1],"categories":[],"categories_nodes":[],"categories_segments":[],"categories_sizes":[],"default_left":[0,0,0,0,0,0,0,0,0,0,0,0,0,0,0],"id":12,"left_children":[1,3,5,11,9,7,13,-1,-1,-1,-1,-1,-1,-1,-1],"loss_changes":[1.1373265E2,2.7722473E1,2.4025032E1,5.2981377E0,1.2258903E1,1.8301147E1,4.74823E0,0E0,0E0,0E0,0E0,0E0,0E0,0E0,0E0],"parents":[2147483647,0,0,1,1,2,2,5,5,4,4,3,3,6,6],"right_children":[2,4,6,12,10,8,14,-1,-1,-1,-1,-1,-1,-1,-1],"split_conditions":[5E0,2E0,1.2E1,7.356289E0,-1.3872334E-1,-5.9615753E2,2.6E1,-5.1749863E-2,-1.7978301E-2,8.399331E-3,-1.0605961E-2,2.1241313E-2,3.8868453E-2,-7.226892E-2,-1.6944009E-1],"split_indices":[0,0,0,1,8,1,0,0,0,0,0,0,0,0,0],"split_type":[0,0,0,0,0,0,0,0,0,0,0,0,0,0,0],"sum_hessian":[3.6725586E3,2.4970024E3,1.1755563E3,1.2725599E3,1.2244424E3,9.796563E2,1.9589992E2,1.7440477E2,8.052516E2,9.5123883E2,2.7320358E2,8.315773E2,4.409827E2,1.8699706E2,8.902866E0],"tree_param":{"num_deleted":"0","num_feature":"9","num_nodes":"15","size_leaf_vector":"1"}},{"base_weights":[-1.5584592E-2,-6.944867E-1,2.4863059E-2,-1.2413892E-1,9.784512E-2,2.5705935E-2,5.5908496E-3,-1.0007818E0,-5.1311827E-1,-5.4711007E-2,-1.3396807E-1,-2.2162143E-2,-1.7263938E-3,-4.7719687E-2,-1.3659641E-1],"categories":[],"categories_nodes":[],"categories_segments":[],"categories_sizes":[],"default_left":[0,0,0,0,0,0,0,0,0,0,0,0,0,0,0],"id":13,"left_children":[1,7,3,11,5,-1,-1,13,9,-1,-1,-1,-1,-1,-1],"loss_changes":[1.0065037E2,1.1449043E1,3.7617477E1,5.8424263E0,1.2719568E1,0E0,0E0,2.4266434E0,6.1795273E0,0E0,0E0,0E0,0E0,0E0,0E0],"parents":[2147483647,0,0,2,2,4,4,1,1,8,8,3,3,7,7],"right_children":[2,8,4,12,6,-1,-1,14,10,-1,-1,-1,-1,-1,-1],"split_conditions":[6E0,2E0,-1.7039864E2,5.6E1,-2.3935564E-1,2.5705935E-2,5.5908496E-3,-3.2437938E-1,-1.0706107E-1,-5.4711007E-2,-1.3396807E-1,-2.2162143E-2,-1.7263938E-3,-4.7719687E-2,-1.3659641E-1],"split_indices":[6,6,1,6,8,0,0,8,8,0,0,0,0,0,0],"split_type":[0,0,0,0,0,0,0,0,0,0,0,0,0,0,0],"sum_hessian":[3.665338E3,2.0609502E2,3.459243E3,1.1373005E3,2.3219421E3,8.229221E2,1.4990201E3,7.664916E1,1.2944585E2,1.0985637E2,1.958948E1,8.0204456E2,3.35256E2,5.601407E0,7.104775E1],"tree_param":{"num_deleted":"0","num_feature":"9","num_nodes":"15","size_leaf_vector":"1"}},{"base_weights":[-1.1905612E-2,-6.4689136E-1,2.7006404E-2,-1.19397424E-1,7.956329E-2,6.304483E-3,3.3152875E-2,-8.7021506E-1,-3.8712114E-1,-1.4952652E-1,-9.05648E-2,-5.0321393E-2,-1.2922697E-2,-1.0245294E-1,-3.515079E-2],"categories":[],"categories_nodes":[],"categories_segments":[],"categories_sizes":[],"default_left":[0,0,0,0,0,0,0,0,0,0,0,0,0,0,0],"id":14,"left_children":[1,7,3,11,5,-1,-1,9,13,-1,-1,-1,-1,-1,-1],"loss_changes":[9.054864E1,1.2275711E1,2.6569645E1,4.881549E0,1.38505535E1,0E0,0E0,5.529381E0,4.5786257E0,0E0,0E0,0E0,0E0,0E0,0E0],"parents":[2147483647,0,0,2,2,4,4,1,1,7,7,3,3,8,8],"right_children":[2,8,4,12,6,-1,-1,10,14,-1,-1,-1,-1,-1,-1],"split_conditions":[6E0,3E0,-2.687771E2,1.4E1,5.6E1,6.304483E-3,3.3152875E-2,6.3E1,-3.8049222E2,-1.4952652E-1,-9.05648E-2,-5.0321393E-2,-1.2922697E-2,-1.0245294E-1,-3.515079E-2],"split_indices":[6,6,1,6,6,0,0,5,1,0,0,0,0,0,0],"split_type":[0,0,0,0,0,0,0,0,0,0,0,0,0,0,0],"sum_hessian":[3.664656E3,2.1160367E2,3.4530522E3,9.1214777E2,2.5409045E3,2.1586824E3,3.8222217E2,1.1378371E2,9.7819954E1,4.354185E1,7.024185E1,6.338799E1,8.4875977E2,2.2055735E1,7.576422E1],"tree_param":{"num_deleted":"0","num_feature":"9","num_nodes":"15","size_leaf_vector":"1"}},{"base_weights":[-9.412455E-3,9.5447265E-2,-2.3336184E-1,1.8297765E-1,6.395543E-3,-1.7053102E-1,-4.7698715E-1,-3.9821845E-2,-8.964446E-3,-8.964446E-3,5.5202427E-3,1.2309257E-2,2.8619582E-2,-4.90583E-2,-8.703422E-2],"categories":[],"categories_nodes":[],"categories_segments":[],"categories_sizes":[],"default_left":[0,0,0,0,0,0,0,0,0,0,0,0,0,0,0],"id":15,"left_children":[1,3,5,11,9,7,13,-1,-1,-1,-1,-1,-1,-1,-1],"loss_changes":[8.584373E1,1.9406929E1,1.7844738E1,5.0908623E0,6.210356E0,1.2884974E1,4.5834465E0,0E0,0E0,0E0,0E0,0E0,0E0,0E0,0E0],"parents":[2147483647,0,0,1,1,2,2,5,5,4,4,3,3,6,6],"right_children":[2,4,6,12,10,8,14,-1,-1,-1,-1,-1,-1,-1,-1],"split_conditions":[5E0,2E0,1.1E1,1.6741323E-1,1.3413818E-1,2.02473E-1,-1.5510556E-1,-3.9821845E-2,-8.964446E-3,-8.964446E-3,5.5202427E-3,1.2309257E-2,2.8619582E-2,-4.90583E-2,-8.703422E-2],"split_indices":[0,0,0,7,7,7,8,0,0,0,0,0,0,0,0],"split_type":[0,0,0,0,0,0,0,0,0,0,0,0,0,0,0],"sum_hessian":[3.655524E3,2.4897493E3,1.1657747E3,1.2555992E3,1.23415E3,9.267634E2,2.3901123E2,3.9839893E2,5.283645E2,1.6944037E2,1.0647096E3,3.1039725E2,9.45202E2,1.5750728E2,8.150396E1],"tree_param":{"num_deleted":"0","num_feature":"9","num_nodes":"15","size_leaf_vector":"1"}},{"base_weights":[-1.0859736E-2,4.7085572E-2,-3.1684768E-1,1.6123423E-1,-3.3008177E-2,2.1464915E-3,-1.7534535E-2,-2.768278E-1,-7.265752E-1,-4.1834302E-2,-1.7534535E-2,1.4586385E-1,2.0529442E-2,-8.669152E-2,-1.6171898E-1],"categories":[],"categories_nodes":[],"categories_segments":[],"categories_sizes":[],"default_left":[0,0,0,0,0,0,0,0,0,0,0,0,0,0,0],"id":16,"left_children":[1,3,7,11,5,-1,-1,9,13,-1,-1,-1,-1,-1,-1],"loss_changes":[6.4399605E1,2.7919819E1,9.482616E0,4.0112495E0,1.3050988E1,0E0,0E0,4.35104E0,1.590044E0,0E0,0E0,0E0,0E0,0E0,0E0],"parents":[2147483647,0,0,1,1,4,4,2,2,7,7,3,3,8,8],"right_children":[2,4,8,12,6,-1,-1,10,14,-1,-1,-1,-1,-1,-1],"split_conditions":[8E0,2E0,1.8E1,-4.5027724E-1,-1.3872334E-1,2.1464915E-3,-1.7534535E-2,2.8360566E-1,2.8E1,-4.1834302E-2,-1.7534535E-2,1.4586385E-1,2.0529442E-2,-8.669152E-2,-1.6171898E-1],"split_indices":[0,0,0,8,8,0,0,7,0,0,0,0,0,0,0],"split_type":[0,0,0,0,0,0,0,0,0,0,0,0,0,0,0],"sum_hessian":[3.6321177E3,3.053813E3,5.783046E2,1.2592072E3,1.7946058E3,1.3820211E3,4.1258475E2,5.2684564E2,5.1458996E1,4.2835043E2,9.84952E1,4.3301053E0,1.2548771E3,4.613465E1,5.324345E0],"tree_param":{"num_deleted":"0","num_feature":"9","num_nodes":"15","size_leaf_vector":"1"}},{"base_weights":[-5.284486E-3,-4.7315982E-1,3.9628725E-2,1.3061307E-1,-2.0960033E-1,-4.375617E-2,-5.1341713E-3,-7.599638E-1,-3.2268307E-1,-1.6570104E-4,-9.431084E-2,2.5631499E-2,9.903322E-3,-1.1722704E-1,-6.835025E-2],"categories":[],"categories_nodes":[],"categories_segments":[],"categories_sizes":[],"default_left":[0,0,0,0,0,0,0,0,0,0,0,0,0,0,0],"id":17,"left_children":[1,7,3,11,5,-1,-1,13,9,-1,-1,-1,-1,-1,-1],"loss_changes":[7.605963E1,1.3681702E1,7.488704E1,8.764332E0,2.0368729E1,0E0,0E0,3.622326E0,2.691791E1,0E0,0E0,0E0,0E0,0E0,0E0],"parents":[2147483647,0,0,2,2,4,4,1,1,8,8,3,3,7,7],"right_children":[2,8,4,12,6,-1,-1,14,10,-1,-1,-1,-1,-1,-1],"split_conditions":[1E1,3E0,6E0,2E0,4.2E1,-4.375617E-2,-5.1341713E-3,5.6094036E0,3E0,-1.6570104E-4,-9.431084E-2,2.5631499E-2,9.903322E-3,-1.1722704E-1,-6.835025E-2],"split_indices":[6,6,0,0,6,0,0,1,0,0,0,0,0,0,0],"split_type":[0,0,0,0,0,0,0,0,0,0,0,0,0,0,0],"sum_hessian":[3.619505E3,3.1701892E2,3.3024858E3,2.419292E3,8.83194E2,5.2031555E2,3.628784E2,1.09092064E2,2.0792686E2,1.156458E2,9.228106E1,1.0884801E3,1.3308119E3,6.7952446E1,4.1139618E1],"tree_param":{"num_deleted":"0","num_feature":"9","num_nodes":"15","size_leaf_vector":"1"}},{"base_weights":[-5.1578144E-3,-6.6168495E-2,7.069385E-2,-1.2452239E-1,2.262678E-3,-2.8545115E-2,-7.9468805E-3,1.2539311E-2,1.1832581E-1,2.9414814E-4,8.506232E-3,2.2789901E-2,9.444535E-3,2.9414814E-4,-7.9468805E-3],"categories":[],"categories_nodes":[],"categories_segments":[],"categories_sizes":[],"default_left":[0,0,0,0,0,0,0,0,0,0,0,0,0,0,0],"id":18,"left_children":[1,3,7,5,13,-1,-1,9,11,-1,-1,-1,-1,-1,-1],"loss_changes":[1.6488394E1,9.833867E0,4.399571E0,7.60034E0,1.6061833E0,0E0,0E0,3.1814644E0,2.272458E0,0E0,0E0,0E0,0E0,0E0,0E0],"parents":[2147483647,0,0,1,1,3,3,2,2,7,7,8,8,4,4],"right_children":[2,4,8,6,14,-1,-1,10,12,-1,-1,-1,-1,-1,-1],"split_conditions":[1E0,2.3939978E-1,-1.06419E1,-1.7039864E2,7.7E1,-2.8545115E-2,-7.9468805E-3,2.6228845E-1,6.69E1,2.9414814E-4,8.506232E-3,2.2789901E-2,9.444535E-3,2.9414814E-4,-7.9468805E-3],"split_indices":[2,7,1,1,5,0,0,7,5,0,0,0,0,0,0],"split_type":[0,0,0,0,0,0,0,0,0,0,0,0,0,0,0],"sum_hessian":[3.562925E3,1.9746403E3,1.5882848E3,1.1870232E3,7.876171E2,4.927358E2,6.942874E2,7.1515E2,8.731347E2,5.3020026E2,1.8494977E2,3.8848718E2,4.8464755E2,6.2169324E2,1.6592389E2],"tree_param":{"num_deleted":"0","num_feature":"9","num_nodes":"15","size_leaf_vector":"1"}},{"base_weights":[-5.112431E-3,-4.0955353E-1,3.1856053E-2,1.120311E-1,-1.876593E-1,-1.9498121E-2,-8.79146E-2,4.9502943E-3,2.6320137E-2,-3.066106E-1,-8.4889966E-1,-7.3642835E-2,1.3270739E-3,-1.0018966E-1,-1.5345973E-1],"categories":[],"categories_nodes":[],"categories_segments":[],"categories_sizes":[],"default_left":[0,0,0,0,0,0,0,0,0,0,0,0,0,0,0],"id":19,"left_children":[1,9,3,7,5,-1,-1,-1,-1,11,13,-1,-1,-1,-1],"loss_changes":[5.3232834E1,1.3486076E1,5.7412914E1,1.597962E1,1.6064634E1,0E0,0E0,0E0,0E0,1.9889887E1,1.4678154E0,0E0,0E0,0E0,0E0],"parents":[2147483647,0,0,2,2,4,4,3,3,1,1,9,9,10,10],"right_children":[2,10,4,8,6,-1,-1,-1,-1,12,14,-1,-1,-1,-1],"split_conditions":[1E1,4E0,6E0,1E0,1.7E1,-1.9498121E-2,-8.79146E-2,4.9502943E-3,2.6320137E-2,4E0,-1.3291605E-1,-7.3642835E-2,1.3270739E-3,-1.0018966E-1,-1.5345973E-1],"split_indices":[6,0,0,2,0,0,0,0,0,6,8,0,0,0,0],"split_type":[0,0,0,0,0,0,0,0,0,0,0,0,0,0,0],"sum_hessian":[3.560341E3,2.9818225E2,3.2621587E3,2.389446E3,8.7271277E2,8.102399E2,6.247282E1,1.3144957E3,1.0749503E3,2.4157845E2,5.6603813E1,1.3271687E2,1.0886157E2,4.580054E1,1.0803269E1],"tree_param":{"num_deleted":"0","num_feature":"9","num_nodes":"15","size_leaf_vector":"1"}},{"base_weights":[-4.1328017E-3,5.311826E-2,-1.7794318E-1,-6.0035996E-2,9.051859E-2,-1.5215729E-1,-5.3829944E-1,-2.4481183E-2,-8.11362E-3,1.7975362E-2,6.5203286E-3,1.9813683E-3,-8.11362E-3,-6.29814E-2,-1.5460244E-1],"categories":[],"categories_nodes":[],"categories_segments":[],"categories_sizes":[],"default_left":[0,0,0,0,0,0,0,0,0,0,0,0,0,0,0],"id":20,"left_children":[1,3,5,11,9,7,13,-1,-1,-1,-1,-1,-1,-1,-1],"loss_changes":[3.5482555E1,1.1351422E1,8.209692E0,3.7361078E0,3.8856144E0,4.456585E0,2.0672932E0,0E0,0E0,0E0,0E0,0E0,0E0,0E0,0E0],"parents":[2147483647,0,0,1,1,2,2,5,5,4,4,3,3,6,6],"right_children":[2,4,6,12,10,8,14,-1,-1,-1,-1,-1,-1,-1,-1],"split_conditions":[6E0,1.6741323E-1,1.7E1,3E0,2E0,2.9955438E-1,2.8E1,-2.4481183E-2,-8.11362E-3,1.7975362E-2,6.5203286E-3,1.9813683E-3,-8.11362E-3,-6.29814E-2,-1.5460244E-1],"split_indices":[0,7,0,0,0,7,0,0,0,0,0,0,0,0,0],"split_type":[0,0,0,0,0,0,0,0,0,0,0,0,0,0,0],"sum_hessian":[3.5657832E3,2.6822737E3,8.8350946E2,6.663219E2,2.0159518E3,8.2451056E2,5.8998882E1,7.000611E2,1.24449486E2,9.234248E2,1.092527E3,4.4448602E2,2.2183589E2,5.4493046E1,4.5058393E0],"tree_param":{"num_deleted":"0","num_feature":"9","num_nodes":"15","size_leaf_vector":"1"}},{"base_weights":[-1.2467648E-2,-4.6284652E-1,1.4528289E-2,-4.0639803E-2,8.171077E-2,-1.4780962E-2,2.6696129E-3,-7.16237E-1,-3.152539E-1,2.6696129E-3,1.4742007E-2,-1.1862545E-1,-6.638448E-2,-8.760272E-2,-3.3817064E-2],"categories":[],"categories_nodes":[],"categories_segments":[],"categories_sizes":[],"default_left":[0,0,0,0,0,0,0,0,0,0,0,0,0,0,0],"id":21,"left_children":[1,7,3,5,9,-1,-1,11,13,-1,-1,-1,-1,-1,-1],"loss_changes":[4.3302013E1,7.532257E0,1.2453566E1,8.484959E0,4.6042566E0,0E0,0E0,2.9912071E0,2.515915E0,0E0,0E0,0E0,0E0,0E0,0E0],"parents":[2147483647,0,0,2,2,3,3,1,1,4,4,7,7,8,8],"right_children":[2,8,4,6,10,-1,-1,12,14,-1,-1,-1,-1,-1,-1],"split_conditions":[6E0,2E0,2.3143722E-1,3.7E1,2.6E1,-1.4780962E-2,2.6696129E-3,6.98E1,1.3413818E-1,2.6696129E-3,1.4742007E-2,-1.1862545E-1,-6.638448E-2,-8.760272E-2,-3.3817064E-2],"split_indices":[6,6,7,6,6,0,0,5,7,0,0,0,0,0,0],"split_type":[0,0,0,0,0,0,0,0,0,0,0,0,0,0,0],"sum_hessian":[3.5614785E3,2.0140474E2,3.3600737E3,1.8450098E3,1.5150641E3,8.540796E2,9.909301E2,7.413213E1,1.27272606E2,3.2368488E2,1.1913793E3,3.7925484E1,3.620665E1,1.695644E1,1.1031616E2],"tree_param":{"num_deleted":"0","num_feature":"9","num_nodes":"15","size_leaf_vector":"1"}},{"base_weights":[-1.1676867E-3,-4.2517674E-1,2.279877E-2,-5.780108E-2,5.8626484E-2,7.0454082E-3,1.1291391E-1,-3.4738845E-1,-8.665521E-1,-5.862373E-2,-1.55388815E-2,5.3651333E-5,-1.1549346E-2,-1.4613868E-1,-9.846644E-2],"categories":[],"categories_nodes":[],"categories_segments":[],"categories_sizes":[],"default_left":[0,0,0,0,0,0,0,0,0,0,0,0,0,0,0],"id":22,"left_children":[1,7,3,11,5,-1,-1,9,13,-1,-1,-1,-1,-1,-1],"loss_changes":[3.602618E1,6.511959E0,9.689753E0,3.6568491E0,8.336818E0,0E0,0E0,3.805067E0,7.987633E-1,0E0,0E0,0E0,0E0,0E0,0E0],"parents":[2147483647,0,0,2,2,4,4,1,1,7,7,3,3,8,8],"right_children":[2,8,4,12,6,-1,-1,10,14,-1,-1,-1,-1,-1,-1],"split_conditions":[6E0,-1.13144174E-1,1.8126142E-1,1.5E0,4.687846E-1,7.0454082E-3,1.1291391E-1,2.634974E-1,2E0,-5.862373E-2,-1.55388815E-2,5.3651333E-5,-1.1549346E-2,-1.4613868E-1,-9.846644E-2],"split_indices":[6,8,7,4,7,0,0,7,6,0,0,0,0,0,0],"split_type":[0,0,0,0,0,0,0,0,0,0,0,0,0,0,0],"sum_hessian":[3.5451746E3,1.8966519E2,3.3555095E3,1.0325746E3,2.3229348E3,2.310296E3,1.2639025E1,1.6124715E2,2.8418036E1,1.10860016E2,5.038713E1,1.3427477E2,8.982998E2,8.455716E0,1.996232E1],"tree_param":{"num_deleted":"0","num_feature":"9","num_nodes":"15","size_leaf_vector":"1"}},{"base_weights":[7.7920016E-3,-3.8049397E-1,3.018335E-2,7.560338E-2,-2.0423512E-1,2.143678E-2,2.2524323E-3,-3.6736585E-2,-8.361063E-3,-3.0369583E-1,-8.906679E-1,-2.7453532E-2,-7.763364E-2,-1.4283095E-1,-7.763364E-2],"categories":[],"categories_nodes":[],"categories_segments":[],"categories_sizes":[],"default_left":[0,0,0,0,0,0,0,0,0,0,0,0,0,0,0],"id":23,"left_children":[1,9,3,5,7,-1,-1,-1,-1,11,13,-1,-1,-1,-1],"loss_changes":[3.0784275E1,7.5639076E0,3.564405E1,1.4593374E1,8.915569E0,0E0,0E0,0E0,0E0,5.083995E0,2.1220417E0,0E0,0E0,0E0,0E0],"parents":[2147483647,0,0,2,2,3,3,4,4,1,1,9,9,10,10],"right_children":[2,10,4,6,8,-1,-1,-1,-1,12,14,-1,-1,-1,-1],"split_conditions":[6E0,-1.0706107E-1,8E0,2E0,5.9E1,2.143678E-2,2.2524323E-3,-3.6736585E-2,-8.361063E-3,3E0,7.2E1,-2.7453532E-2,-7.763364E-2,-1.4283095E-1,-7.763364E-2],"split_indices":[6,8,0,0,6,0,0,0,0,0,5,0,0,0,0],"split_type":[0,0,0,0,0,0,0,0,0,0,0,0,0,0,0],"sum_hessian":[3.5407585E3,1.9305241E2,3.347706E3,2.804347E3,5.4335913E2,1.1074517E3,1.6968954E3,4.1040683E2,1.3295229E2,1.6779407E2,2.5258348E1,1.3112245E2,3.667161E1,1.7086546E1,8.1718025E0],"tree_param":{"num_deleted":"0","num_feature":"9","num_nodes":"15","size_leaf_vector":"1"}},{"base_weights":[-2.746547E-3,-5.6358194E-1,1.2810393E-2,9.875382E-2,-2.7582508E-2,-1.26507245E-2,4.6261353E-3,4.6261353E-3,2.2817539E-2,-4.4935775E-1,-9.008201E-1,1.7507585E-2,-6.3501805E-2,-1.3576847E-1,-8.776155E-2],"categories":[],"categories_nodes":[],"categories_segments":[],"categories_sizes":[],"default_left":[0,0,0,0,0,0,0,0,0,0,0,0,0,0,0],"id":24,"left_children":[1,9,3,7,5,-1,-1,-1,-1,11,13,-1,-1,-1,-1],"loss_changes":[3.0948294E1,3.6878815E0,1.1981484E1,6.948415E0,1.0462411E1,0E0,0E0,0E0,0E0,1.6339083E0,1.2377319E0,0E0,0E0,0E0,0E0],"parents":[2147483647,0,0,2,2,4,4,3,3,1,1,9,9,10,10],"right_children":[2,10,4,8,6,-1,-1,-1,-1,12,14,-1,-1,-1,-1],"split_conditions":[3E0,-1.4494526E-1,-2.3829153E-1,-5.6831245E0,3.7E1,-1.26507245E-2,4.6261353E-3,4.6261353E-3,2.2817539E-2,-3.4193495E-1,5.6094036E0,1.7507585E-2,-6.3501805E-2,-1.3576847E-1,-8.776155E-2],"split_indices":[6,8,8,1,6,0,0,0,0,8,1,0,0,0,0],"split_type":[0,0,0,0,0,0,0,0,0,0,0,0,0,0,0],"sum_hessian":[3.5471096E3,9.573732E1,3.4513723E3,1.1034913E3,2.347881E3,1.1227954E3,1.2250856E3,5.2378235E2,5.79709E2,7.151515E1,2.4222172E1,4.4891405E0,6.702601E1,1.8126612E1,6.0955606E0],"tree_param":{"num_deleted":"0","num_feature":"9","num_nodes":"15","size_leaf_vector":"1"}},{"base_weights":[-1.2539402E-3,2.0777548E-2,-3.6845827E-1,-1.7384036E-1,4.7100574E-2,1.4591609E-2,-2.7316022E-3,-5.812421E-1,-2.0355852E-1,-2.2599246E-2,-8.5201345E-2,-6.8509325E-2,-1.2820645E-1,-1.5746754E-2,-2.2599246E-2],"categories":[],"categories_nodes":[],"categories_segments":[],"categories_sizes":[],"default_left":[0,0,0,0,0,0,0,0,0,0,0,0,0,0,0],"id":25,"left_children":[1,3,7,13,5,-1,-1,11,9,-1,-1,-1,-1,-1,-1],"loss_changes":[2.8465117E1,2.2264486E1,6.987957E0,4.172516E-1,1.3451555E1,0E0,0E0,1.910202E0,5.034617E0,0E0,0E0,0E0,0E0,0E0,0E0],"parents":[2147483647,0,0,1,1,4,4,2,2,8,8,7,7,3,3],"right_children":[2,4,8,14,6,-1,-1,12,10,-1,-1,-1,-1,-1,-1],"split_conditions":[1.1E1,1E1,3.9E1,2E0,3E0,1.4591609E-2,-2.7316022E-3,3.7E1,1.9E1,-2.2599246E-2,-8.5201345E-2,-6.8509325E-2,-1.2820645E-1,-1.5746754E-2,-2.2599246E-2],"split_indices":[0,6,6,0,0,0,0,6,0,0,0,0,0,0,0],"split_type":[0,0,0,0,0,0,0,0,0,0,0,0,0,0,0],"sum_hessian":[3.518517E3,3.319362E3,1.9915501E2,2.8772452E2,3.0316377E3,1.5496078E3,1.4820299E3,8.6952415E1,1.122026E2,9.006492E1,2.213768E1,7.668081E1,1.0271603E1,1.5017508E2,1.3754942E2],"tree_param":{"num_deleted":"0","num_feature":"9","num_nodes":"15","size_leaf_vector":"1"}},{"base_weights":[-1.1594401E-2,6.804178E-2,-9.007438E-2,-2.0966277E-1,-2.5814097E-2,-1.1016302E-2,1.0086701E-1,-1.4321192E-3,-5.4413524E-2,-1.6828235E-2,-4.3669134E-2,4.6117634E-2,1.1461094E-2,-1.4321192E-3,1.1788817E-4],"categories":[],"categories_nodes":[],"categories_segments":[],"categories_sizes":[],"default_left":[0,0,0,0,0,0,0,0,0,0,0,0,0,0,0],"id":26,"left_children":[1,5,3,9,7,13,11,-1,-1,-1,-1,-1,-1,-1,-1],"loss_changes":[2.1952747E1,8.370045E0,1.3595188E1,6.262293E0,6.9209337E0,1.5809596E-2,4.964555E0,0E0,0E0,0E0,0E0,0E0,0E0,0E0,0E0],"parents":[2147483647,0,0,2,2,1,1,4,4,3,3,6,6,5,5],"right_children":[2,6,4,10,8,14,12,-1,-1,-1,-1,-1,-1,-1,-1],"split_conditions":[3E0,1E1,3.3E1,7.3E1,1.7E1,3E0,-3.336488E-1,-1.4321192E-3,-5.4413524E-2,-1.6828235E-2,-4.3669134E-2,4.6117634E-2,1.1461094E-2,-1.4321192E-3,1.1788817E-4],"split_indices":[0,6,6,5,0,6,8,0,0,0,0,0,0,0,0],"split_type":[0,0,0,0,0,0,0,0,0,0,0,0,0,0,0],"sum_hessian":[3.5125212E3,1.7434176E3,1.7691036E3,6.1835095E2,1.1507527E3,2.0428174E2,1.5391359E3,1.1075679E3,4.318478E1,3.7811676E2,2.4023419E2,7.3349754E1,1.4657861E3,9.308928E1,1.1119246E2],"tree_param":{"num_deleted":"0","num_feature":"9","num_nodes":"15","size_leaf_vector":"1"}},{"base_weights":[7.6235593E-3,-4.90019E-1,2.2149887E-2,1.5932135E-2,4.2081094E-1,-6.072878E-3,6.8940967E-3,9.3553215E-2,2.8388299E-2,-6.3483536E-1,-2.574661E-1,-1.0936324E-1,-5.7999592E-2,-4.7025602E-2,4.5165665E-2],"categories":[],"categories_nodes":[],"categories_segments":[],"categories_sizes":[],"default_left":[0,0,0,0,0,0,0,0,0,0,0,0,0,0,0],"id":27,"left_children":[1,9,3,5,7,-1,-1,-1,-1,11,13,-1,-1,-1,-1],"loss_changes":[2.528458E1,3.3408775E0,8.4241295E0,7.7773137E0,5.770158E0,0E0,0E0,0E0,0E0,3.0154915E0,2.4012163E0,0E0,0E0,0E0,0E0],"parents":[2147483647,0,0,2,2,3,3,4,4,1,1,9,9,10,10],"right_children":[2,10,4,6,8,-1,-1,-1,-1,12,14,-1,-1,-1,-1],"split_conditions":[3E0,5.6094036E0,4.1274878E-1,3.3E1,6.91E1,-6.072878E-3,6.8940967E-3,9.3553215E-2,2.8388299E-2,7E1,8.44E1,-1.0936324E-1,-5.7999592E-2,-4.7025602E-2,4.5165665E-2],"split_indices":[6,1,7,6,5,0,0,0,0,5,5,0,0,0,0],"split_type":[0,0,0,0,0,0,0,0,0,0,0,0,0,0,0],"sum_hessian":[3.497691E3,9.9202614E1,3.3984883E3,3.3462979E3,5.219054E1,1.2446166E3,2.1016814E3,3.1475887E1,2.0714655E1,6.1133076E1,3.8069542E1,3.325843E1,2.7874645E1,3.2472275E1,5.5972667E0],"tree_param":{"num_deleted":"0","num_feature":"9","num_nodes":"15","size_leaf_vector":"1"}},{"base_weights":[-1.3507487E-3,-3.9384326E-1,9.515635E-3,-4.123212E-2,7.4146025E-2,8.519717E-3,7.6922745E-2,-1.0800127E-2,2.1394037E-3,-4.4669777E-1,-1.1621607E-1,6.1422333E-2,-4.818054E-2,-5.1663265E-2,-1.2912723E-1],"categories":[],"categories_nodes":[],"categories_segments":[],"categories_sizes":[],"default_left":[0,0,0,0,0,0,0,0,0,0,0,0,0,0,0],"id":28,"left_children":[1,9,3,7,5,-1,-1,-1,-1,13,11,-1,-1,-1,-1],"loss_changes":[1.4919288E1,1.382802E0,1.1164069E1,6.5932274E0,6.6714745E0,0E0,0E0,0E0,0E0,2.1327791E0,2.257397E0,0E0,0E0,0E0,0E0],"parents":[2147483647,0,0,2,2,4,4,3,3,1,1,10,10,9,9],"right_children":[2,10,4,8,6,-1,-1,-1,-1,14,12,-1,-1,-1,-1],"split_conditions":[3E0,8.38E1,-1.06419E1,2.4822058E-1,4.2364004E-1,8.519717E-3,7.6922745E-2,-1.0800127E-2,2.1394037E-3,8.04E1,8.58E1,6.1422333E-2,-4.818054E-2,-5.1663265E-2,-1.2912723E-1],"split_indices":[6,5,1,7,7,0,0,0,0,5,5,0,0,0,0],"split_type":[0,0,0,0,0,0,0,0,0,0,0,0,0,0,0],"sum_hessian":[3.4980674E3,9.423725E1,3.40383E3,1.9066936E3,1.4971366E3,1.4726394E3,2.449717E1,1.3059965E3,6.006972E2,7.9165405E1,1.5071843E1,4.547773E0,1.052407E1,7.261744E1,6.54797E0],"tree_param":{"num_deleted":"0","num_feature":"9","num_nodes":"15","size_leaf_vector":"1"}},{"base_weights":[-2.320142E-3,-1.9816951E-1,1.39840245E-2,3.744672E-2,-1.085457E-1,-2.0331484E-3,1.3194303E-2,-1.623043E-1,-5.5872494E-1,-3.9072543E-2,-9.973086E-3,-3.7209492E-2,-1.0039024E-2,-1.0446049E-1,-4.6866897E-2],"categories":[],"categories_nodes":[],"categories_segments":[],"categories_sizes":[],"default_left":[0,0,0,0,0,0,0,0,0,0,0,0,0,0,0],"id":29,"left_children":[1,7,3,5,9,-1,-1,11,13,-1,-1,-1,-1,-1,-1],"loss_changes":[1.1154828E1,3.4716682E0,9.271112E0,9.202625E0,3.1675358E0,0E0,0E0,2.5744762E0,1.9669256E0,0E0,0E0,0E0,0E0,0E0,0E0],"parents":[2147483647,0,0,2,2,3,3,1,1,4,4,7,7,8,8],"right_children":[2,8,4,6,10,-1,-1,12,14,-1,-1,-1,-1,-1,-1],"split_conditions":[4.21E1,1.58E1,-1.1920828E-1,1E0,-6.544782E2,-2.0331484E-3,1.3194303E-2,-1.0022378E2,3.6E1,-3.9072543E-2,-9.973086E-3,-3.7209492E-2,-1.0039024E-2,-1.0446049E-1,-4.6866897E-2],"split_indices":[5,4,8,2,1,0,0,1,5,0,0,0,0,0,0],"split_type":[0,0,0,0,0,0,0,0,0,0,0,0,0,0,0],"sum_hessian":[3.493331E3,2.684657E2,3.2248655E3,2.7065923E3,5.1827295E2,1.4799388E3,1.2266536E3,2.441772E2,2.4288506E1,7.369634E1,4.4457663E2,9.939898E1,1.4477821E2,1.4882842E1,9.405663E0],"tree_param":{"num_deleted":"0","num_feature":"9","num_nodes":"15","size_leaf_vector":"1"}},{"base_weights":[-1.4599861E-3,9.679384E-2,-5.1979013E-2,-1.0749482E-1,2.0032892E-2,-1.2199015E-2,-5.0193444E-2,-5.6850254E-3,2.9129635E-3,1.12647444E-1,2.2407413E-2,1.3250735E-2,9.865322E-2,2.9129635E-3,6.8385988E-3],"categories":[],"categories_nodes":[],"categories_segments":[],"categories_sizes":[],"default_left":[0,0,0,0,0,0,0,0,0,0,0,0,0,0,0],"id":30,"left_children":[1,9,3,5,7,-1,-1,-1,-1,11,13,-1,-1,-1,-1],"loss_changes":[1.7390436E1,2.535368E0,9.250252E0,4.971179E0,3.5171373E0,0E0,0E0,0E0,0E0,7.7561693E0,2.716124E-2,0E0,0E0,0E0,0E0],"parents":[2147483647,0,0,2,2,3,3,4,4,1,1,9,9,10,10],"right_children":[2,10,4,6,8,-1,-1,-1,-1,12,14,-1,-1,-1,-1],"split_conditions":[2E0,8.8E1,1E0,1.4E1,1.8126142E-1,-1.2199015E-2,-5.0193444E-2,-5.6850254E-3,2.9129635E-3,8.65E1,2.430679E-1,1.3250735E-2,9.865322E-2,2.9129635E-3,6.8385988E-3],"split_indices":[0,5,2,0,7,0,0,0,0,5,7,0,0,0,0],"split_type":[0,0,0,0,0,0,0,0,0,0,0,0,0,0,0],"sum_hessian":[3.5035266E3,1.1896973E3,2.3138293E3,1.3065658E3,1.00726355E3,1.2455161E3,6.104969E1,2.7716928E2,7.300943E2,1.1197433E3,6.9953926E1,1.1014738E3,1.8269613E1,4.0174385E1,2.977954E1],"tree_param":{"num_deleted":"0","num_feature":"9","num_nodes":"15","size_leaf_vector":"1"}},{"base_weights":[-1.8667665E-3,-7.390092E-2,2.5638223E-2,-3.1419165E-2,1.0041338E-1,-3.4329027E-3,-1.698808E-1,-5.3699795E-2,-4.091363E-1,3.1574108E-3,-1.3700631E-2,1.6396215E-2,4.484624E-3,-4.100252E-2,-1.09176375E-1],"categories":[],"categories_nodes":[],"categories_segments":[],"categories_sizes":[],"default_left":[0,0,0,0,0,0,0,0,0,0,0,0,0,0,0],"id":31,"left_children":[1,7,3,5,11,-1,-1,9,13,-1,-1,-1,-1,-1,-1],"loss_changes":[6.8388066E0,6.459133E0,1.0657208E1,9.056812E0,2.9867125E0,0E0,0E0,3.626326E0,2.1883144E0,0E0,0E0,0E0,0E0,0E0,0E0],"parents":[2147483647,0,0,2,2,3,3,1,1,7,7,4,4,8,8],"right_children":[2,8,4,6,12,-1,-1,10,14,-1,-1,-1,-1,-1,-1],"split_conditions":[2.8E1,-7.681034E-2,1E0,4.034172E-3,1.27E1,-3.4329027E-3,-1.698808E-1,-2.3015001E-1,-1.8621182E-2,3.1574108E-3,-1.3700631E-2,1.6396215E-2,4.484624E-3,-4.100252E-2,-1.09176375E-1],"split_indices":[6,8,2,8,4,0,0,8,8,0,0,0,0,0,0],"split_type":[0,0,0,0,0,0,0,0,0,0,0,0,0,0,0],"sum_hessian":[3.4516658E3,9.537768E2,2.497889E3,1.4167969E3,1.081092E3,1.4112506E3,5.5461874E0,8.9956946E2,5.420731E1,3.585699E2,5.409996E2,9.15239E2,1.6585304E2,4.4518677E1,9.68863E0],"tree_param":{"num_deleted":"0","num_feature":"9","num_nodes":"15","size_leaf_vector":"1"}},{"base_weights":[-5.8346917E-3,3.594119E-2,-4.8569553E-2,8.237308E-3,1.8536603E-1,6.0358983E-2,1.3850051E-2,1.929446E-2,-2.701708E-3,-3.2188523E-1,-3.6126494E-2,-1.1095588E-2,2.603636E-3,-2.3270762E-2,-5.5202175E-2],"categories":[],"categories_nodes":[],"categories_segments":[],"categories_sizes":[],"default_left":[0,0,0,0,0,0,0,0,0,0,0,0,0,0,0],"id":32,"left_children":[1,3,9,7,5,-1,-1,-1,-1,13,11,-1,-1,-1,-1],"loss_changes":[6.202825E0,7.2730174E0,5.841013E0,6.0293612E0,6.0419865E0,0E0,0E0,0E0,0E0,2.2704577E0,4.540715E0,0E0,0E0,0E0,0E0],"parents":[2147483647,0,0,1,1,4,4,3,3,2,2,10,10,9,9],"right_children":[2,4,10,8,6,-1,-1,-1,-1,14,12,-1,-1,-1,-1],"split_conditions":[6.78E1,6.46E1,7.4083105E-2,-2.6920855E-1,6.55E1,6.0358983E-2,1.3850051E-2,1.929446E-2,-2.701708E-3,-2.8245968E-1,1E0,-1.1095588E-2,2.603636E-3,-2.3270762E-2,-5.5202175E-2],"split_indices":[5,5,7,8,5,0,0,0,0,8,2,0,0,0,0],"split_type":[0,0,0,0,0,0,0,0,0,0,0,0,0,0,0],"sum_hessian":[3.4744043E3,1.7569137E3,1.7174906E3,1.4821235E3,2.7479013E2,6.0545506E1,2.1424463E2,2.5419928E2,1.2279243E3,7.478591E1,1.6427046E3,8.753699E2,7.673347E2,1.18485E1,6.2937416E1],"tree_param":{"num_deleted":"0","num_feature":"9","num_nodes":"15","size_leaf_vector":"1"}},{"base_weights":[-6.6660335E-3,-3.1796232E-1,1.7412954E-3,-6.4370945E-2,3.104384E-2,-2.1662617E-3,7.975233E-3,-1.7730998E-2,-2.1662617E-3,-1.8269248E-1,-7.071088E-1,-1.2841E-1,-5.783708E-2,2.8368836E-2,-3.136508E-2],"categories":[],"categories_nodes":[],"categories_segments":[],"categories_sizes":[],"default_left":[0,0,0,0,0,0,0,0,0,0,0,0,0,0,0],"id":33,"left_children":[1,9,3,7,5,-1,-1,-1,-1,13,11,-1,-1,-1,-1],"loss_changes":[9.071886E0,4.798319E0,6.5384636E0,4.9612617E0,5.8512783E0,0E0,0E0,0E0,0E0,1.5885799E0,2.5412235E0,0E0,0E0,0E0,0E0],"parents":[2147483647,0,0,2,2,4,4,3,3,1,1,10,10,9,9],"right_children":[2,10,4,8,6,-1,-1,-1,-1,14,12,-1,-1,-1,-1],"split_conditions":[3E0,-1.4586136E-1,1.8126142E-1,-7.781424E1,2.5E1,-2.1662617E-3,7.975233E-3,-1.7730998E-2,-2.1662617E-3,8E-1,-4.5204535E0,-1.2841E-1,-5.783708E-2,2.8368836E-2,-3.136508E-2],"split_indices":[6,8,7,1,6,0,0,0,0,4,1,0,0,0,0],"split_type":[0,0,0,0,0,0,0,0,0,0,0,0,0,0,0],"sum_hessian":[3.4662595E3,9.115342E1,3.3751062E3,1.0365176E3,2.3385886E3,5.0252774E2,1.8360608E3,5.106641E2,5.2585345E2,6.76412E1,2.351222E1,1.4107962E1,9.404259E0,8.622872E0,5.9018326E1],"tree_param":{"num_deleted":"0","num_feature":"9","num_nodes":"15","size_leaf_vector":"1"}},{"base_weights":[-1.329698E-2,8.7657705E-2,-6.598205E-2,-4.1331664E-1,-4.6500687E-2,-3.596752E-2,-3.2791563E-3,1.0837827E-2,1.1334187E-1,1.4089175E-3,-6.119421E-2,4.3135412E-2,1.3014045E-2,1.4089175E-3,3.2193113E-2],"categories":[],"categories_nodes":[],"categories_segments":[],"categories_sizes":[],"default_left":[0,0,0,0,0,0,0,0,0,0,0,0,0,0,0],"id":34,"left_children":[1,7,3,9,5,-1,-1,13,11,-1,-1,-1,-1,-1,-1],"loss_changes":[1.8592037E1,4.852312E0,1.5541884E1,3.3219585E0,1.0650938E1,0E0,0E0,2.580726E-1,3.281623E0,0E0,0E0,0E0,0E0,0E0,0E0],"parents":[2147483647,0,0,2,2,4,4,1,1,3,3,8,8,7,7],"right_children":[2,8,4,10,6,-1,-1,14,12,-1,-1,-1,-1,-1,-1],"split_conditions":[2E0,2E0,9E0,4.46E1,4.3E1,-3.596752E-2,-3.2791563E-3,8.8E1,8E0,1.4089175E-3,-6.119421E-2,4.3135412E-2,1.3014045E-2,1.4089175E-3,3.2193113E-2],"split_indices":[0,6,6,5,5,0,0,5,6,0,0,0,0,0,0],"split_type":[0,0,0,0,0,0,0,0,0,0,0,0,0,0,0],"sum_hessian":[3.4955244E3,1.1986602E3,2.2968643E3,1.2198471E2,2.1748796E3,1.8402747E2,1.990852E3,6.3620358E1,1.1350398E3,1.302576E1,1.0895895E2,6.482789E1,1.0702119E3,5.901896E1,4.6013994E0],"tree_param":{"num_deleted":"0","num_feature":"9","num_nodes":"15","size_leaf_vector":"1"}},{"base_weights":[-3.2420806E-3,-3.9661244E-2,2.9808583E-2,-2.5008726E-1,-2.0843834E-2,-6.404229E-4,-1.2336688E-2,-4.710777E-2,-1.761052E-2,2.5213415E-2,2.6376218E-1,1.24387056E-1,2.023917E-2,5.3288895E-3,-6.404229E-4],"categories":[],"categories_nodes":[],"categories_segments":[],"categories_sizes":[],"default_left":[0,0,0,0,0,0,0,0,0,0,0,0,0,0,0],"id":35,"left_children":[1,3,9,7,5,-1,-1,-1,-1,13,11,-1,-1,-1,-1],"loss_changes":[4.167751E0,6.5228143E0,1.9514601E0,3.604743E0,4.384353E0,0E0,0E0,0E0,0E0,1.3377855E0,2.6191094E0,0E0,0E0,0E0,0E0],"parents":[2147483647,0,0,1,1,4,4,3,3,2,2,10,10,9,9],"right_children":[2,4,10,8,6,-1,-1,-1,-1,14,12,-1,-1,-1,-1],"split_conditions":[0E0,1.0003539E-1,4.1274878E-1,-2.1440441E1,-1.7094149E-1,-6.404229E-4,-1.2336688E-2,-4.710777E-2,-1.761052E-2,-1.3872334E-1,-2.7883902E-1,1.24387056E-1,2.023917E-2,5.3288895E-3,-6.404229E-4],"split_indices":[2,7,7,1,8,0,0,0,0,8,8,0,0,0,0],"split_type":[0,0,0,0,0,0,0,0,0,0,0,0,0,0,0],"sum_hessian":[3.462503E3,1.6473068E3,1.815196E3,1.3521843E2,1.5120884E3,9.2313824E2,5.889501E2,1.04521545E2,3.0696886E1,1.7802303E3,3.4965694E1,4.716841E0,3.0248854E1,1.4014844E3,3.7874594E2],"tree_param":{"num_deleted":"0","num_feature":"9","num_nodes":"15","size_leaf_vector":"1"}},{"base_weights":[-1.2062199E-2,1.505143E-3,-3.1045562E-1,-1.5447524E-1,1.6536467E-2,1.5851619E-3,4.8456606E-2,-4.8795468E-1,-1.5447524E-1,-2.640625E-2,-8.076025E-2,-2.008178E-2,-1.1966851E-1,-6.6086957E-3,-2.008178E-2],"categories":[],"categories_nodes":[],"categories_segments":[],"categories_sizes":[],"default_left":[0,0,0,0,0,0,0,0,0,0,0,0,0,0,0],"id":36,"left_children":[1,3,7,13,5,-1,-1,9,11,-1,-1,-1,-1,-1,-1],"loss_changes":[1.4037017E1,8.336952E0,4.2090387E0,1.5353084E0,4.7092752E0,0E0,0E0,2.6891003E0,2.645935E0,0E0,0E0,0E0,0E0,0E0,0E0],"parents":[2147483647,0,0,1,1,4,4,2,2,7,7,8,8,3,3],"right_children":[2,4,8,14,6,-1,-1,10,12,-1,-1,-1,-1,-1,-1],"split_conditions":[1.2E1,1E1,4.2E1,2E0,4.2364004E-1,1.5851619E-3,4.8456606E-2,5.77E1,2.6E1,-2.640625E-2,-8.076025E-2,-2.008178E-2,-1.1966851E-1,-6.6086957E-3,-2.008178E-2],"split_indices":[0,6,6,0,7,0,0,5,0,0,0,0,0,0,0],"split_type":[0,0,0,0,0,0,0,0,0,0,0,0,0,0,0],"sum_hessian":[3.4672727E3,3.3164788E3,1.5079387E2,2.7231848E2,3.0441604E3,3.007493E3,3.66674E1,7.083804E1,7.9955826E1,2.2580935E1,4.8257107E1,7.544729E1,4.5085325E0,1.4294014E2,1.2937834E2],"tree_param":{"num_deleted":"0","num_feature":"9","num_nodes":"15","size_leaf_vector":"1"}},{"base_weights":[4.4962205E-3,-1.9759089E-1,1.4863027E-2,1.6683491E-2,-1.2624778E-1,-4.897723E-1,-1.0768434E-1,1.3895601E-2,-5.4444052E-2,-4.5009207E-2,-1.6561714E-1,-5.9537255E-5,1.1946767E-2],"categories":[],"categories_nodes":[],"categories_segments":[],"categories_sizes":[],"default_left":[0,0,0,0,0,0,0,0,0,0,0,0,0],"id":37,"left_children":[1,5,3,11,-1,9,7,-1,-1,-1,-1,-1,-1],"loss_changes":[7.2230234E0,4.419356E0,5.8867283E0,4.220465E0,0E0,4.4562454E0,8.588314E0,0E0,0E0,0E0,0E0,0E0,0E0],"parents":[2147483647,0,0,2,2,1,1,6,6,5,5,3,3],"right_children":[2,6,4,12,-1,10,8,-1,-1,-1,-1,-1,-1],"split_conditions":[6E0,5.54E1,9.3E1,5.6E1,-1.2624778E-1,5.29E1,7.68E1,1.3895601E-2,-5.4444052E-2,-4.5009207E-2,-1.6561714E-1,-5.9537255E-5,1.1946767E-2],"split_indices":[6,5,6,6,0,5,5,0,0,0,0,0,0],"split_type":[0,0,0,0,0,0,0,0,0,0,0,0,0],"sum_hessian":[3.4477363E3,1.6823372E2,3.2795027E3,3.273459E3,6.0436974E0,3.958565E1,1.2864807E2,7.613691E1,5.2511158E1,3.346086E1,6.1247926E0,2.6658982E3,6.075607E2],"tree_param":{"num_deleted":"0","num_feature":"9","num_nodes":"13","size_leaf_vector":"1"}},{"base_weights":[-1.7791216E-3,2.5922936E-1,-6.9805873E-3,1.6461408E-3,-1.4571775E-1,-1.0126694E-3,1.6396169E-2,-6.9597274E-2,-1.2215868E-2,1.2612438E-1,4.198669E-1,3.5489433E-2,7.360995E-2,1.6396169E-2,3.5489433E-2],"categories":[],"categories_nodes":[],"categories_segments":[],"categories_sizes":[],"default_left":[0,0,0,0,0,0,0,0,0,0,0,0,0,0,0],"id":38,"left_children":[1,9,3,5,7,-1,-1,-1,-1,13,11,-1,-1,-1,-1],"loss_changes":[4.6781077E0,2.6403594E0,4.0435343E0,5.963711E0,3.9879928E0,0E0,0E0,0E0,0E0,6.3607883E-1,1.7122006E0,0E0,0E0,0E0,0E0],"parents":[2147483647,0,0,2,2,3,3,4,4,1,1,10,10,9,9],"right_children":[2,10,4,6,8,-1,-1,-1,-1,14,12,-1,-1,-1,-1],"split_conditions":[-3.718788E-1,1.8200044E-1,8.8E1,8.6E1,8.89E1,-1.0126694E-3,1.6396169E-2,-6.9597274E-2,-1.2215868E-2,7.52E1,-8.483579E0,3.5489433E-2,7.360995E-2,1.6396169E-2,3.5489433E-2],"split_indices":[8,7,5,5,5,0,0,0,0,5,1,0,0,0,0],"split_type":[0,0,0,0,0,0,0,0,0,0,0,0,0,0,0],"sum_hessian":[3.4457776E3,6.732651E1,3.3784512E3,3.180675E3,1.9777625E2,3.0807834E3,9.989156E1,2.3187181E1,1.7458907E2,2.290208E1,4.4424427E1,1.3367799E1,3.105663E1,1.1192361E1,1.1709719E1],"tree_param":{"num_deleted":"0","num_feature":"9","num_nodes":"15","size_leaf_vector":"1"}},{"base_weights":[5.75618E-4,1.0502875E-2,-1.6158286E-1,-9.990235E-2,2.1607708E-2,2.1026613E-2,1.3628264E-3,-1.108843E-2,-1.3485229E-1,-8.379681E-3,-2.9047427E-1,-1.3317761E-1,-2.812456E-2,9.564161E-3,-1.9425506E-2],"categories":[],"categories_nodes":[],"categories_segments":[],"categories_sizes":[],"default_left":[0,0,0,0,0,0,0,0,0,0,0,0,0,0,0],"id":39,"left_children":[1,3,9,7,5,-1,-1,-1,-1,13,11,-1,-1,-1,-1],"loss_changes":[5.508471E0,3.953291E0,3.8979406E0,4.0350823E0,4.5673046E0,0E0,0E0,0E0,0E0,1.9302778E0,5.83311E0,0E0,0E0,0E0,0E0],"parents":[2147483647,0,0,1,1,4,4,3,3,2,2,10,10,9,9],"right_children":[2,4,10,8,6,-1,-1,-1,-1,14,12,-1,-1,-1,-1],"split_conditions":[8.8E1,4.3E1,7E0,7.9E-2,4.87E1,2.1026613E-2,1.3628264E-3,-1.108843E-2,-1.3485229E-1,9.57E1,-7.93731E2,-1.3317761E-1,-2.812456E-2,9.564161E-3,-1.9425506E-2],"split_indices":[5,5,4,3,5,0,0,0,0,5,1,0,0,0,0],"split_type":[0,0,0,0,0,0,0,0,0,0,0,0,0,0,0],"sum_hessian":[3.4218474E3,3.224449E3,1.9739842E2,2.9468234E2,2.9297666E3,2.1546936E2,2.7142974E3,2.9016125E2,4.5210958E0,9.019338E1,1.0720505E2,9.834352E0,9.73707E1,7.489849E1,1.5294891E1],"tree_param":{"num_deleted":"0","num_feature":"9","num_nodes":"15","size_leaf_vector":"1"}},{"base_weights":[4.0850067E-3,3.479181E-2,-9.095903E-2,-3.034501E-1,-4.4643972E-2,-4.8770565E-3,-1.4620669E-1,-2.808361E-2,4.7315553E-2,-6.466195E-3,-5.05734E-2,1.1367983E-2,1.9403732E-3,2.7437443E-2,-3.650869E-3],"categories":[],"categories_nodes":[],"categories_segments":[],"categories_sizes":[],"default_left":[0,0,0,0,0,0,0,0,0,0,0,0,0,0,0],"id":40,"left_children":[1,7,3,9,5,-1,-1,13,11,-1,-1,-1,-1,-1,-1],"loss_changes":[1.0093353E1,3.5647683E0,8.3111725E0,3.2812014E0,5.3380666E0,0E0,0E0,4.267112E-1,3.1776834E0,0E0,0E0,0E0,0E0,0E0,0E0],"parents":[2147483647,0,0,2,2,4,4,1,1,3,3,8,8,7,7],"right_children":[2,8,4,10,6,-1,-1,14,12,-1,-1,-1,-1,-1,-1],"split_conditions":[6E0,6E0,2.8E1,7E0,2.6E1,-4.8770565E-3,-1.4620669E-1,-3.4193495E-1,-2.1295442E-1,-6.466195E-3,-5.05734E-2,1.1367983E-2,1.9403732E-3,2.7437443E-2,-3.650869E-3],"split_indices":[0,6,6,0,0,0,0,8,8,0,0,0,0,0,0],"split_type":[0,0,0,0,0,0,0,0,0,0,0,0,0,0,0],"sum_hessian":[3.4584004E3,2.6139026E3,8.4449786E2,1.51128E2,6.933699E2,6.888237E2,4.54612E0,1.691758E2,2.4447268E3,3.811838E1,1.1300962E2,1.0918857E3,1.3528411E3,7.4606347E0,1.6171515E2],"tree_param":{"num_deleted":"0","num_feature":"9","num_nodes":"15","size_leaf_vector":"1"}},{"base_weights":[5.463364E-4,4.360911E-3,-5.007461E-1,5.7279825E-2,-2.3033477E-2,-4.424814E-4,-1.6301377E-2,6.1384574E-2,6.3485275E-3,-3.5712814E-1,-6.9660354E-1,-7.925202E-2,-3.2265034E-2,-7.152674E-2,-1.189572E-1],"categories":[],"categories_nodes":[],"categories_segments":[],"categories_sizes":[],"default_left":[0,0,0,0,0,0,0,0,0,0,0,0,0,0,0],"id":41,"left_children":[1,3,9,7,5,-1,-1,-1,-1,11,13,-1,-1,-1,-1],"loss_changes":[6.592508E0,4.9601173E0,7.3234797E-1,4.0893016E0,4.5299635E0,0E0,0E0,0E0,0E0,1.0176017E0,3.5224247E-1,0E0,0E0,0E0,0E0],"parents":[2147483647,0,0,1,1,4,4,3,3,2,2,9,9,10,10],"right_children":[2,4,10,8,6,-1,-1,-1,-1,12,14,-1,-1,-1,-1],"split_conditions":[1.9E1,2E0,6.96E1,-3.718788E-1,-1.17848374E-1,-4.424814E-4,-1.6301377E-2,6.1384574E-2,6.3485275E-3,6.04E1,-1.7421062E-1,-7.925202E-2,-3.2265034E-2,-7.152674E-2,-1.189572E-1],"split_indices":[0,0,5,8,8,0,0,0,0,5,8,0,0,0,0],"split_type":[0,0,0,0,0,0,0,0,0,0,0,0,0,0,0],"sum_hessian":[3.4475454E3,3.4215098E3,2.6035685E1,1.1670579E3,2.254452E3,1.8916868E3,3.6276526E2,2.3279999E1,1.1437778E3,1.5021409E1,1.1014276E1,9.153621E0,5.8677883E0,6.595071E0,4.419205E0],"tree_param":{"num_deleted":"0","num_feature":"9","num_nodes":"15","size_leaf_vector":"1"}},{"base_weights":[-8.43713E-3,3.9613232E-2,-5.633174E-2,-1.6712774E-1,-8.359253E-3,-1.0867029E-3,-9.151485E-2,-5.0136456E-3,-3.0310197E-2,-8.359253E-3,5.711512E-2,8.017103E-2,6.804647E-3,-1.0867029E-3,3.6522675E-2],"categories":[],"categories_nodes":[],"categories_segments":[],"categories_sizes":[],"default_left":[0,0,0,0,0,0,0,0,0,0,0,0,0,0,0],"id":42,"left_children":[1,9,3,7,5,-1,-1,-1,-1,13,11,-1,-1,-1,-1],"loss_changes":[7.8879414E0,3.0277102E0,1.0839533E1,4.9804783E0,7.461319E0,0E0,0E0,0E0,0E0,5.797523E-1,4.338486E0,0E0,0E0,0E0,0E0],"parents":[2147483647,0,0,2,2,4,4,3,3,1,1,10,10,9,9],"right_children":[2,10,4,8,6,-1,-1,-1,-1,14,12,-1,-1,-1,-1],"split_conditions":[3E0,3E0,3.3E1,-2.3657203E-1,-1.8621182E-2,-1.0867029E-3,-9.151485E-2,-5.0136456E-3,-3.0310197E-2,8.73E1,4E0,8.017103E-2,6.804647E-3,-1.0867029E-3,3.6522675E-2],"split_indices":[0,6,6,8,8,0,0,0,0,5,6,0,0,0,0],"split_type":[0,0,0,0,0,0,0,0,0,0,0,0,0,0,0],"sum_hessian":[3.4275146E3,1.7109742E3,1.7165404E3,5.8672705E2,1.1298134E3,1.1143933E3,1.5420061E1,1.9908794E2,3.8763913E2,8.619081E1,1.6247834E3,1.3737455E1,1.611046E3,7.926466E1,6.9261456E0],"tree_param":{"num_deleted":"0","num_feature":"9","num_nodes":"15","size_leaf_vector":"1"}},{"base_weights":[-1.2990839E-2,-8.58425E-3,-4.4185433E-1,-5.1013203E-3,-1.836637E-1,-3.4323165E-3,2.707146E-3,-2.9278507E-2,-1.2269726E-2,-3.64418E-1,-1.2140186E-1,-3.715464E-2,-8.43881E-2],"categories":[],"categories_nodes":[],"categories_segments":[],"categories_sizes":[],"default_left":[0,0,0,0,0,0,0,0,0,0,0,0,0],"id":43,"left_children":[1,3,9,5,7,-1,-1,-1,-1,11,-1,-1,-1],"loss_changes":[6.4926205E0,2.073669E0,1.3312607E0,1.841337E0,1.3461912E0,0E0,0E0,0E0,0E0,8.4050226E-1,0E0,0E0,0E0],"parents":[2147483647,0,0,1,1,3,3,4,4,2,2,9,9],"right_children":[2,4,10,6,8,-1,-1,-1,-1,12,-1,-1,-1],"split_conditions":[1.8E1,-3.7014183E-2,-1.0410032E-1,2.3143722E-1,2.614923E-1,-3.4323165E-3,2.707146E-3,-2.9278507E-2,-1.2269726E-2,2.5E1,-1.2140186E-1,-3.715464E-2,-8.43881E-2],"split_indices":[0,8,8,7,7,0,0,0,0,0,0,0,0],"split_type":[0,0,0,0,0,0,0,0,0,0,0,0,0],"sum_hessian":[3.4355447E3,3.4006035E3,3.4941074E1,3.334274E3,6.6329506E1,1.8303843E3,1.5038898E3,3.915322E1,2.7176289E1,3.0189785E1,4.75129E0,2.490609E1,5.2836947E0],"tree_param":{"num_deleted":"0","num_feature":"9","num_nodes":"13","size_leaf_vector":"1"}},{"base_weights":[-2.2577879E-4,3.4625395E-3,-5.3578556E-1,3.2361668E-2,-4.1731104E-2,-3.918902E-3,-3.4600995E-2,2.806831E-2,3.048275E-3,-4.0926114E-1,-1.2070348E-1,-3.4600995E-2,-6.424628E-2],"categories":[],"categories_nodes":[],"categories_segments":[],"categories_sizes":[],"default_left":[0,0,0,0,0,0,0,0,0,0,0,0,0],"id":44,"left_children":[1,3,9,7,5,-1,-1,-1,-1,11,-1,-1,-1],"loss_changes":[6.765229E0,4.442408E0,1.1639228E0,3.3943212E0,3.7070622E0,0E0,0E0,0E0,0E0,2.8388E-1,0E0,0E0,0E0],"parents":[2147483647,0,0,1,1,4,4,3,3,2,2,9,9],"right_children":[2,4,10,8,6,-1,-1,-1,-1,12,-1,-1,-1],"split_conditions":[1.9E1,4E0,2.5E1,-3.3734187E-1,2E-2,-3.918902E-3,-3.4600995E-2,2.806831E-2,3.048275E-3,-2.2754395E-1,-1.2070348E-1,-3.4600995E-2,-6.424628E-2],"split_indices":[0,0,0,8,3,0,0,0,0,8,0,0,0],"split_type":[0,0,0,0,0,0,0,0,0,0,0,0,0],"sum_hessian":[3.424804E3,3.401379E3,2.3424942E1,2.0747073E3,1.3266718E3,1.2661696E3,6.0502193E1,9.6084435E1,1.9786229E3,1.7717024E1,5.7079177E0,5.2817817E0,1.2435243E1],"tree_param":{"num_deleted":"0","num_feature":"9","num_nodes":"13","size_leaf_vector":"1"}},{"base_weights":[1.8643803E-3,-3.6611527E-1,8.510661E-3,1.0007682E-2,-1.10517085E-1,-5.0940557E-4,1.1649005E-2,-4.852831E-1,-1.9537221E-1,-4.4242594E-2,-2.8199863E-3,-8.093406E-2,-4.4242594E-2],"categories":[],"categories_nodes":[],"categories_segments":[],"categories_sizes":[],"default_left":[0,0,0,0,0,0,0,0,0,0,0,0,0],"id":45,"left_children":[1,7,3,5,-1,-1,-1,11,9,-1,-1,-1,-1],"loss_changes":[8.387789E0,1.2380018E0,4.3302984E0,3.727872E0,0E0,0E0,0E0,9.191952E-1,1.1811988E0,0E0,0E0,0E0,0E0],"parents":[2147483647,0,0,2,2,3,3,1,1,8,8,7,7],"right_children":[2,8,4,6,-1,-1,-1,12,10,-1,-1,-1,-1],"split_conditions":[2E0,8.337295E0,9.3E1,5.9E1,-1.10517085E-1,-5.0940557E-4,1.1649005E-2,1E0,6.26E1,-4.4242594E-2,-2.8199863E-3,-8.093406E-2,-4.4242594E-2],"split_indices":[6,1,6,6,0,0,0,2,5,0,0,0,0],"split_type":[0,0,0,0,0,0,0,0,0,0,0,0,0],"sum_hessian":[3.4295957E3,6.0844547E1,3.368751E3,3.3628882E3,5.8629694E0,2.8621484E3,5.0073975E2,3.583403E1,2.5010517E1,8.199896E0,1.6810621E1,2.0990519E1,1.4843511E1],"tree_param":{"num_deleted":"0","num_feature":"9","num_nodes":"13","size_leaf_vector":"1"}},{"base_weights":[-1.2116035E-2,-2.734544E-1,-5.4670693E-3,-1.8975354E-3,-4.4366947E-1,-8.897152E-2,3.3148266E-2,1.2630977E-4,-5.543572E-2,-4.4488776E-1,-7.7635676E-2,1.4714551E-1,-3.9827883E-2,-3.327683E-2,-8.884814E-2],"categories":[],"categories_nodes":[],"categories_segments":[],"categories_sizes":[],"default_left":[0,0,0,0,0,0,0,0,0,0,0,0,0,0,0],"id":46,"left_children":[1,9,3,7,5,-1,-1,-1,-1,13,11,-1,-1,-1,-1],"loss_changes":[5.9270954E0,2.8409882E0,5.203093E0,4.0190635E0,4.5204706E0,0E0,0E0,0E0,0E0,2.033597E0,1.0929637E1,0E0,0E0,0E0,0E0],"parents":[2147483647,0,0,2,2,4,4,3,3,1,1,10,10,9,9],"right_children":[2,10,4,8,6,-1,-1,-1,-1,14,12,-1,-1,-1,-1],"split_conditions":[3E0,6.98E1,8.4E1,2.35E1,2.6571757E-1,-8.897152E-2,3.3148266E-2,1.2630977E-4,-5.543572E-2,-1.8724866E-1,7.3E1,1.4714551E-1,-3.9827883E-2,-3.327683E-2,-8.884814E-2],"split_indices":[6,5,6,4,7,0,0,0,0,8,5,0,0,0,0],"split_type":[0,0,0,0,0,0,0,0,0,0,0,0,0,0,0],"sum_hessian":[3.4110078E3,8.462925E1,3.3263787E3,3.2995017E3,2.6877012E1,1.9989601E1,6.8874116E0,3.2773518E3,2.214985E1,4.512401E1,3.950524E1,6.2826157E0,3.3222626E1,2.5182661E1,1.9941345E1],"tree_param":{"num_deleted":"0","num_feature":"9","num_nodes":"15","size_leaf_vector":"1"}},{"base_weights":[-7.6287785E-3,-8.5130945E-2,1.5019007E-2,-4.1772693E-2,-2.69289E-1,-2.9526256E-2,5.7103667E-2,1.7925317E-3,-1.485739E-2,-2.021901E-2,-1.0940642E-3,4.8779584E-3,1.839042E-2,-6.951846E-2,-2.8340591E-2],"categories":[],"categories_nodes":[],"categories_segments":[],"categories_sizes":[],"default_left":[0,0,0,0,0,0,0,0,0,0,0,0,0,0,0],"id":47,"left_children":[1,3,5,9,13,7,11,-1,-1,-1,-1,-1,-1,-1,-1],"loss_changes":[5.9717984E0,6.143312E0,4.935754E0,3.6312344E0,1.9961786E0,4.792146E0,2.2363358E0,0E0,0E0,0E0,0E0,0E0,0E0,0E0,0E0],"parents":[2147483647,0,0,1,1,2,2,5,5,3,3,6,6,4,4],"right_children":[2,4,6,10,14,8,12,-1,-1,-1,-1,-1,-1,-1,-1],"split_conditions":[2.5E1,5E0,0E0,3E0,-8.572245E2,5E0,5.9E1,1.7925317E-3,-1.485739E-2,-2.021901E-2,-1.0940642E-3,4.8779584E-3,1.839042E-2,-6.951846E-2,-2.8340591E-2],"split_indices":[6,0,2,6,1,0,6,0,0,0,0,0,0,0,0],"split_type":[0,0,0,0,0,0,0,0,0,0,0,0,0,0,0],"sum_hessian":[3.4022297E3,7.69377E2,2.6328528E3,6.2275574E2,1.4662129E2,1.2790339E3,1.3538188E3,8.406023E2,4.3843167E2,8.261007E1,5.401456E2,1.0987833E3,2.5503543E2,2.3738619E1,1.22882675E2],"tree_param":{"num_deleted":"0","num_feature":"9","num_nodes":"15","size_leaf_vector":"1"}},{"base_weights":[2.2386912E-2,-1.0700072E-1,3.343594E-2,-8.839146E-2,-1.5939298E-1,6.0232278E-2,-7.7090715E-3,9.115639E-4,-2.585422E-2,6.505844E-3,-1.946731E-2,3.7950445E-3,1.1898107E-2],"categories":[],"categories_nodes":[],"categories_segments":[],"categories_sizes":[],"default_left":[0,0,0,0,0,0,0,0,0,0,0,0,0],"id":48,"left_children":[1,3,5,9,-1,11,7,-1,-1,-1,-1,-1,-1],"loss_changes":[4.9069724E0,5.6239815E0,3.486596E0,2.2562995E0,0E0,1.8600974E0,3.5100617E0,0E0,0E0,0E0,0E0,0E0,0E0],"parents":[2147483647,0,0,1,1,2,2,6,6,3,3,5,5],"right_children":[2,4,6,10,-1,12,8,-1,-1,-1,-1,-1,-1],"split_conditions":[4.21E1,7.9E-2,4E0,3.33E1,-1.5939298E-1,-7.921873E0,8E-3,9.115639E-4,-2.585422E-2,6.505844E-3,-1.946731E-2,3.7950445E-3,1.1898107E-2],"split_indices":[5,3,0,5,0,1,3,0,0,0,0,0,0],"split_type":[0,0,0,0,0,0,0,0,0,0,0,0,0],"sum_hessian":[3.4323787E3,2.7004593E2,3.1623325E3,2.6562897E2,4.4169707E0,1.9150977E3,1.247235E3,1.1580577E3,8.9177284E1,8.15748E1,1.8405415E2,9.614217E2,9.536759E2],"tree_param":{"num_deleted":"0","num_feature":"9","num_nodes":"13","size_leaf_vector":"1"}},{"base_weights":[3.1958593E-3,4.609468E-3,-1.424033E-1,-2.4328383E-2,4.0367614E-2,1.0425501E-3,1.1138647E-2,-2.669284E-3,-7.090204E-2],"categories":[],"categories_nodes":[],"categories_segments":[],"categories_sizes":[],"default_left":[0,0,0,0,0,0,0,0,0],"id":49,"left_children":[1,3,-1,7,5,-1,-1,-1,-1],"loss_changes":[5.3125243E0,3.5351284E0,0E0,4.1412005E0,4.55978E0,0E0,0E0,0E0,0E0],"parents":[2147483647,0,0,1,1,4,4,3,3],"right_children":[2,4,-1,8,6,-1,-1,-1,-1],"split_conditions":[2.5E1,1E0,-1.424033E-1,8.6E1,3E1,1.0425501E-3,1.1138647E-2,-2.669284E-3,-7.090204E-2],"split_indices":[0,2,0,6,6,0,0,0,0],"split_type":[0,0,0,0,0,0,0,0,0],"sum_hessian":[3.4207446E3,3.4163489E3,4.3957996E0,1.8882498E3,1.5280991E3,5.069876E2,1.02111145E3,1.8760723E3,1.217755E1],"tree_param":{"num_deleted":"0","num_feature":"9","num_nodes":"9","size_leaf_vector":"1"}},{"base_weights":[5.053644E-3,7.88798E-3,-4.3593606E-1,-3.4139594E-1,-1.0914588E-1,-7.6763675E-2,-2.7823124E-2,4.7588453E-2,1.9374479E-3,9.82431E-4,-1.4646431E-2,3.2191835E-3,2.1363663E-2],"categories":[],"categories_nodes":[],"categories_segments":[],"categories_sizes":[],"default_left":[0,0,0,0,0,0,0,0,0,0,0,0,0],"id":50,"left_children":[1,7,3,5,-1,-1,-1,11,9,-1,-1,-1,-1],"loss_changes":[4.2511106E0,7.983421E-1,8.288679E-1,1.2247996E0,0E0,0E0,0E0,1.8224425E0,1.8927444E0,0E0,0E0,0E0,0E0],"parents":[2147483647,0,0,2,2,3,3,1,1,8,8,7,7],"right_children":[2,8,4,6,-1,-1,-1,12,10,-1,-1,-1,-1],"split_conditions":[1.9E1,6E-1,2.5E1,-2.6111197E2,-1.0914588E-1,-7.6763675E-2,-2.7823124E-2,1.5068053E1,1.1E1,9.82431E-4,-1.4646431E-2,3.2191835E-3,2.1363663E-2],"split_indices":[0,4,0,1,0,0,0,1,0,0,0,0,0],"split_type":[0,0,0,0,0,0,0,0,0,0,0,0,0],"sum_hessian":[3.4010894E3,3.3793696E3,2.171968E1,1.7598219E1,4.121462E0,9.73245E0,7.8657703E0,4.4049292E2,2.9388767E3,2.8015012E3,1.3737535E2,3.3516162E2,1.0533129E2],"tree_param":{"num_deleted":"0","num_feature":"9","num_nodes":"13","size_leaf_vector":"1"}},{"base_weights":[-4.447355E-3,-3.101338E-1,1.0396232E-3,2.137639E-3,-9.225518E-2,5.556852E-4,-4.099085E-2,3.218983E-2,-3.5939884E-1,-4.0506266E-2,-1.192595E-1],"categories":[],"categories_nodes":[],"categories_segments":[],"categories_sizes":[],"default_left":[0,0,0,0,0,0,0,0,0,0,0],"id":51,"left_children":[1,7,3,5,-1,-1,-1,-1,9,-1,-1],"loss_changes":[5.654713E0,1.6335144E0,2.5844707E0,2.2431486E0,0E0,0E0,0E0,0E0,1.457272E0,0E0,0E0],"parents":[2147483647,0,0,2,2,3,3,1,1,8,8],"right_children":[2,8,4,6,-1,-1,-1,-1,10,-1,-1],"split_conditions":[2E0,-3.2437938E-1,9.3E1,2.35E1,-9.225518E-2,5.556852E-4,-4.099085E-2,3.218983E-2,4E-3,-4.0506266E-2,-1.192595E-1],"split_indices":[6,8,6,4,0,0,0,0,3,0,0],"split_type":[0,0,0,0,0,0,0,0,0,0,0],"sum_hessian":[3.3712734E3,5.9446583E1,3.311827E3,3.3067183E3,5.108677E0,3.284609E3,2.2109327E1,4.824497E0,5.4622086E1,5.0311253E1,4.3108335E0],"tree_param":{"num_deleted":"0","num_feature":"9","num_nodes":"11","size_leaf_vector":"1"}},{"base_weights":[-3.945741E-3,4.6207043E-3,-1.39717E-1,-1.6817236E-1,1.5853705E-1,-4.1759517E-3,2.6711896E-1,1.0306421E-2,6.6703945E-2,-1.70913E-2,-9.637316E-2,-4.789919E-5,-3.9332278E-2],"categories":[],"categories_nodes":[],"categories_segments":[],"categories_sizes":[],"default_left":[0,0,0,0,0,0,0,0,0,0,0,0,0],"id":52,"left_children":[1,5,3,9,-1,11,7,-1,-1,-1,-1,-1,-1],"loss_changes":[3.9389076E0,7.355962E0,7.774125E0,4.141369E0,0E0,3.501776E0,4.7727456E0,0E0,0E0,0E0,0E0,0E0,0E0],"parents":[2147483647,0,0,2,2,1,1,6,6,3,3,5,5],"right_children":[2,6,4,10,-1,12,8,-1,-1,-1,-1,-1,-1],"split_conditions":[8.8E1,8.6E1,7.8E1,6.7E1,1.5853705E-1,8.7E-2,3.9E1,1.0306421E-2,6.6703945E-2,-1.70913E-2,-9.637316E-2,-4.789919E-5,-3.9332278E-2],"split_indices":[5,5,6,6,0,3,6,0,0,0,0,0,0],"split_type":[0,0,0,0,0,0,0,0,0,0,0,0,0],"sum_hessian":[3.3865908E3,3.185596E3,2.009949E2,1.9687349E2,4.1214247E0,3.0823035E3,1.03292336E2,5.8568993E1,4.4723343E1,1.8502603E2,1.1847457E1,3.0434675E3,3.8835983E1],"tree_param":{"num_deleted":"0","num_feature":"9","num_nodes":"13","size_leaf_vector":"1"}},{"base_weights":[-1.6436531E-3,1.3547207E-2,-9.080242E-2,-2.1166627E-1,-3.862761E-2,-3.885994E-2,-5.021589E-3,2.9955825E-2,-3.862761E-2,-5.021589E-3,-7.9421796E-2,2.4423027E-2,3.4011088E-3,-5.63666E-4,-5.021589E-3],"categories":[],"categories_nodes":[],"categories_segments":[],"categories_sizes":[],"default_left":[0,0,0,0,0,0,0,0,0,0,0,0,0,0,0],"id":53,"left_children":[1,7,3,5,9,-1,-1,11,13,-1,-1,-1,-1,-1,-1],"loss_changes":[4.620503E0,3.5903437E0,6.090274E0,5.9132853E0,1.516557E0,0E0,0E0,1.4677954E0,8.951359E-1,0E0,0E0,0E0,0E0,0E0,0E0],"parents":[2147483647,0,0,2,2,3,3,1,1,4,4,7,7,8,8],"right_children":[2,8,4,6,10,-1,-1,12,14,-1,-1,-1,-1,-1,-1],"split_conditions":[8E0,-1.1920828E-1,4E1,2.8360566E-1,9.2E1,-3.885994E-2,-5.021589E-3,-3.718788E-1,2E0,-5.021589E-3,-7.9421796E-2,2.4423027E-2,3.4011088E-3,-5.63666E-4,-5.021589E-3],"split_indices":[0,8,6,7,6,0,0,8,0,0,0,0,0,0,0],"split_type":[0,0,0,0,0,0,0,0,0,0,0,0,0,0,0],"sum_hessian":[3.4114583E3,2.914829E3,4.9662933E2,2.4855E2,2.4807933E2,1.9711821E2,5.14318E1,2.4502312E3,4.645979E2,2.4344954E2,4.6297936E0,5.7478756E1,2.3927524E3,1.80336E2,2.842619E2],"tree_param":{"num_deleted":"0","num_feature":"9","num_nodes":"15","size_leaf_vector":"1"}},{"base_weights":[-7.692964E-3,-2.1447228E-2,8.222897E-2,-2.82263E-3,-1.4730865E-1,-1.3581354E-2,-5.298075E-2,9.684574E-2,-4.984737E-1,2.329087E-2,2.3157997E-3,3.5750135E-3,-4.2268545E-3,-1.2585211E-1,-2.9584238E-2],"categories":[],"categories_nodes":[],"categories_segments":[],"categories_sizes":[],"default_left":[0,0,0,0,0,0,0,0,0,0,0,0,0,0,0],"id":54,"left_children":[1,3,7,11,5,-1,-1,9,13,-1,-1,-1,-1,-1,-1],"loss_changes":[4.189622E0,6.8871164E0,3.8145247E0,2.3042464E0,4.221842E0,0E0,0E0,2.8517551E0,1.4037399E0,0E0,0E0,0E0,0E0,0E0,0E0],"parents":[2147483647,0,0,1,1,4,4,2,2,7,7,3,3,8,8],"right_children":[2,4,8,12,6,-1,-1,10,14,-1,-1,-1,-1,-1,-1],"split_conditions":[6.1E1,8E0,4.7E-2,6.71E1,5E1,-1.3581354E-2,-5.298075E-2,7E0,5.23E1,2.329087E-2,2.3157997E-3,3.5750135E-3,-4.2268545E-3,-1.2585211E-1,-2.9584238E-2],"split_indices":[6,0,3,5,6,0,0,4,5,0,0,0,0,0,0],"split_type":[0,0,0,0,0,0,0,0,0,0,0,0,0,0,0],"sum_hessian":[3.387431E3,2.9380364E3,4.4939456E2,2.5593171E3,3.787193E2,3.2519092E2,5.3528385E1,4.3836084E2,1.1033713E1,2.1472012E2,2.2364072E2,1.2662002E3,1.2931168E3,4.036265E0,6.9974484E0],"tree_param":{"num_deleted":"0","num_feature":"9","num_nodes":"15","size_leaf_vector":"1"}},{"base_weights":[-1.1166872E-2,-9.139381E-3,-3.2155475E-1,-2.1495119E-2,-5.4908043E-1,-3.5358206E-3,-8.46109E-2,-5.729537E-3,1.3159508E-3,-1.0929404E-1,-2.927464E-2,-1.9853579E-2,-5.729537E-3],"categories":[],"categories_nodes":[],"categories_segments":[],"categories_sizes":[],"default_left":[0,0,0,0,0,0,0,0,0,0,0,0,0],"id":55,"left_children":[1,5,3,-1,9,7,11,-1,-1,-1,-1,-1,-1],"loss_changes":[2.138138E0,1.4275374E0,1.4594193E0,0E0,1.2812982E0,1.7665406E0,9.671998E-1,0E0,0E0,0E0,0E0,0E0,0E0],"parents":[2147483647,0,0,2,2,1,1,5,5,4,4,6,6],"right_children":[2,6,4,-1,10,8,12,-1,-1,-1,-1,-1,-1],"split_conditions":[2.42E1,8E-3,5.61E1,-2.1495119E-2,6.71E1,1.665213E-1,5.88E1,-5.729537E-3,1.3159508E-3,-1.0929404E-1,-2.927464E-2,-1.9853579E-2,-5.729537E-3],"split_indices":[4,3,5,0,5,7,5,0,0,0,0,0,0],"split_type":[0,0,0,0,0,0,0,0,0,0,0,0,0],"sum_hessian":[3.3975498E3,3.375501E3,2.2048822E1,8.484391E0,1.3564432E1,3.1422021E3,2.3329886E2,7.827962E2,2.359406E3,7.137352E0,6.42708E0,1.1441524E2,1.1888361E2],"tree_param":{"num_deleted":"0","num_feature":"9","num_nodes":"13","size_leaf_vector":"1"}},{"base_weights":[2.3725287E-3,-9.742165E-2,1.1530286E-2,-1.5469778E-1,1.346157E-1,-1.8103484E-2,-1.2610164E-1,4.759758E-2,-1.3053346E-3,1.4658825E-2,-2.5859907E-1,2.8701162E-3,-1.2302546E-2,-7.363466E-2,-1.5856115E-2],"categories":[],"categories_nodes":[],"categories_segments":[],"categories_sizes":[],"default_left":[0,0,0,0,0,0,0,0,0,0,0,0,0,0,0],"id":56,"left_children":[1,3,9,5,7,-1,-1,-1,-1,11,13,-1,-1,-1,-1],"loss_changes":[3.1095023E0,3.8008769E0,2.6338022E0,2.8875346E0,2.647665E0,0E0,0E0,0E0,0E0,2.4980843E0,2.0885804E0,0E0,0E0,0E0,0E0],"parents":[2147483647,0,0,1,1,3,3,4,4,2,2,9,9,10,10],"right_children":[2,4,10,6,8,-1,-1,-1,-1,12,14,-1,-1,-1,-1],"split_conditions":[4.3E1,2.9260275E-1,1.7E1,6.3E-2,3E0,-1.8103484E-2,-1.2610164E-1,4.759758E-2,-1.3053346E-3,8.8E1,-4.43056E2,2.8701162E-3,-1.2302546E-2,-7.363466E-2,-1.5856115E-2],"split_indices":[5,7,0,3,0,0,0,0,0,5,1,0,0,0,0],"split_type":[0,0,0,0,0,0,0,0,0,0,0,0,0,0,0],"sum_hessian":[3.4024739E3,2.859878E2,3.116486E3,2.2937042E2,5.6617374E1,2.2510756E2,4.2628684E0,2.7082216E1,2.9535156E1,3.0808057E3,3.5680363E1,2.8849714E3,1.9583432E2,1.3944668E1,2.1735695E1],"tree_param":{"num_deleted":"0","num_feature":"9","num_nodes":"15","size_leaf_vector":"1"}},{"base_weights":[-4.2374805E-3,-9.507712E-4,-2.718616E-1,-7.612463E-2,6.1450764E-3,-7.2044977E-3,-7.4259534E-2,8.078668E-3,-1.2706936E-3,-5.7098204E-1,-1.5946318E-1,3.4678876E-2,-4.276831E-2,-4.7478937E-2,-1.0753573E-1],"categories":[],"categories_nodes":[],"categories_segments":[],"categories_sizes":[],"default_left":[0,0,0,0,0,0,0,0,0,0,0,0,0,0,0],"id":57,"left_children":[1,3,9,5,7,-1,-1,-1,-1,13,11,-1,-1,-1,-1],"loss_changes":[2.9669237E0,1.777427E0,1.3758109E0,2.9462342E0,2.71428E0,0E0,0E0,0E0,0E0,9.896264E-1,2.1492922E0,0E0,0E0,0E0,0E0],"parents":[2147483647,0,0,1,1,3,3,4,4,2,2,10,10,9,9],"right_children":[2,4,10,6,8,-1,-1,-1,-1,14,12,-1,-1,-1,-1],"split_conditions":[9.41E1,4.3E1,1.6741323E-1,-5.884998E-2,5.74E1,-7.2044977E-3,-7.4259534E-2,8.078668E-3,-1.2706936E-3,9.57E1,-2.594564E-1,3.4678876E-2,-4.276831E-2,-4.7478937E-2,-1.0753573E-1],"split_indices":[5,5,7,8,5,0,0,0,0,5,8,0,0,0,0],"split_type":[0,0,0,0,0,0,0,0,0,0,0,0,0,0,0],"sum_hessian":[3.3729976E3,3.3320767E3,4.0921047E1,2.8739627E2,3.0446804E3,2.758599E2,1.1536356E1,6.739649E2,2.3707153E3,1.1176519E1,2.9744528E1,8.463824E0,2.1280703E1,4.3226833E0,6.853836E0],"tree_param":{"num_deleted":"0","num_feature":"9","num_nodes":"15","size_leaf_vector":"1"}},{"base_weights":[-1.0882425E-2,-8.677712E-3,-5.4822916E-1,-1.469901E-1,-3.6198948E-2,-2.5184757E-1,-4.3762815E-3,-8.0691127E-4,6.3154906E-2,-3.6198948E-2,3.684167E-2],"categories":[],"categories_nodes":[],"categories_segments":[],"categories_sizes":[],"default_left":[0,0,0,0,0,0,0,0,0,0,0],"id":58,"left_children":[1,5,3,-1,-1,9,7,-1,-1,-1,-1],"loss_changes":[3.9937286E0,3.5116658E0,4.4030466E0,0E0,0E0,1.9278109E0,2.9604814E0,0E0,0E0,0E0,0E0],"parents":[2147483647,0,0,2,2,1,1,6,6,5,5],"right_children":[2,6,4,-1,-1,10,8,-1,-1,-1,-1],"split_conditions":[4.034172E-3,2E0,2.5267088E-1,-1.469901E-1,-3.6198948E-2,8.73E1,4.687846E-1,-8.0691127E-4,6.3154906E-2,-3.6198948E-2,3.684167E-2],"split_indices":[8,6,7,0,0,5,7,0,0,0,0],"split_type":[0,0,0,0,0,0,0,0,0,0,0],"sum_hessian":[3.371055E3,3.3572805E3,1.3774586E1,7.4422703E0,6.3323154E0,5.8354244E1,3.2989263E3,3.2866514E3,1.2274702E1,5.2116867E1,6.237379E0],"tree_param":{"num_deleted":"0","num_feature":"9","num_nodes":"11","size_leaf_vector":"1"}},{"base_weights":[-6.830707E-3,-2.2881742E-1,-1.4968921E-3,4.5003153E-2,-2.2888048E-2,1.1559715E-2,1.4374818E-3,-7.947815E-3,1.4374818E-3,-1.5214248E-1,-6.806439E-1,-3.7106413E-2,3.1250687E-3,-1.179855E-1,-5.4131113E-2],"categories":[],"categories_nodes":[],"categories_segments":[],"categories_sizes":[],"default_left":[0,0,0,0,0,0,0,0,0,0,0,0,0,0,0],"id":59,"left_children":[1,9,3,5,7,-1,-1,-1,-1,11,13,-1,-1,-1,-1],"loss_changes":[4.035486E0,2.7704873E0,3.310595E0,3.688185E0,3.0254612E0,0E0,0E0,0E0,0E0,1.6055757E0,9.712558E-1,0E0,0E0,0E0,0E0],"parents":[2147483647,0,0,2,2,3,3,4,4,1,1,9,9,10,10],"right_children":[2,10,4,6,8,-1,-1,-1,-1,12,14,-1,-1,-1,-1],"split_conditions":[3E0,-1.20184265E-1,-2.3935564E-1,1.14E1,3.7E1,1.1559715E-2,1.4374818E-3,-7.947815E-3,1.4374818E-3,5.6094036E0,-4.5204535E0,-3.7106413E-2,3.1250687E-3,-1.179855E-1,-5.4131113E-2],"split_indices":[6,8,8,4,6,0,0,0,0,1,1,0,0,0,0],"split_type":[0,0,0,0,0,0,0,0,0,0,0,0,0,0,0],"sum_hessian":[3.4082278E3,7.996969E1,3.328258E3,1.0486659E3,2.2795923E3,8.076532E2,2.4101266E2,1.0844535E3,1.1951388E3,6.836791E1,1.1601774E1,3.8921844E1,2.9446068E1,7.383339E0,4.2184353E0],"tree_param":{"num_deleted":"0","num_feature":"9","num_nodes":"15","size_leaf_vector":"1"}},{"base_weights":[9.648875E-4,-9.221073E-3,6.773029E-2,2.3532902E-1,3.7865218E-2,9.095873E-3,9.920444E-2,-4.853389E-2,7.2097145E-3,-9.404877E-4,-9.567297E-2,-7.288345E-2,-9.748039E-3,1.6865726E-3,-6.2798746E-3],"categories":[],"categories_nodes":[],"categories_segments":[],"categories_sizes":[],"default_left":[0,0,0,0,0,0,0,0,0,0,0,0,0,0,0],"id":60,"left_children":[1,9,3,5,7,-1,-1,-1,-1,13,11,-1,-1,-1,-1],"loss_changes":[2.2888281E0,2.0903926E0,2.2298703E0,5.880375E0,2.7356327E0,0E0,0E0,0E0,0E0,2.4349818E0,2.4552872E0,0E0,0E0,0E0,0E0],"parents":[2147483647,0,0,2,2,3,3,4,4,1,1,10,10,9,9],"right_children":[2,10,4,6,8,-1,-1,-1,-1,14,12,-1,-1,-1,-1],"split_conditions":[6.1E1,-9.07418E-2,6.4E1,-1.359529E1,6.5E1,9.095873E-3,9.920444E-2,-4.853389E-2,7.2097145E-3,4.8E1,5E0,-7.288345E-2,-9.748039E-3,1.6865726E-3,-6.2798746E-3],"split_indices":[6,8,6,1,6,0,0,0,0,6,6,0,0,0,0],"split_type":[0,0,0,0,0,0,0,0,0,0,0,0,0,0,0],"sum_hessian":[3.365547E3,2.9200522E3,4.4549475E2,6.737755E1,3.7811722E2,5.130368E1,1.6073868E1,1.5514408E1,3.6260278E2,2.664811E3,2.5524127E2,1.0872552E1,2.4436871E2,2.240477E3,4.2433398E2],"tree_param":{"num_deleted":"0","num_feature":"9","num_nodes":"15","size_leaf_vector":"1"}},{"base_weights":[6.38191E-3,-1.1140335E-1,1.7245524E-2,-1.7576743E-2,-5.328838E-1,1.568584E-1,9.298058E-3,2.9582415E-2,-1.0955724E-2,-1.0601711E-1,-4.5760345E-2,5.4656127E-3,-1.6910301E-3,2.2882156E-3,-2.766838E-2],"categories":[],"categories_nodes":[],"categories_segments":[],"categories_sizes":[],"default_left":[0,0,0,0,0,0,0,0,0,0,0,0,0,0,0],"id":61,"left_children":[1,3,5,13,9,7,11,-1,-1,-1,-1,-1,-1,-1,-1],"loss_changes":[4.334385E0,1.1311822E1,3.4411337E0,1.607086E0,2.6625738E0,2.8475947E0,2.1432462E0,0E0,0E0,0E0,0E0,0E0,0E0,0E0,0E0],"parents":[2147483647,0,0,1,1,2,2,5,5,4,4,6,6,3,3],"right_children":[2,4,6,14,10,8,12,-1,-1,-1,-1,-1,-1,-1,-1],"split_conditions":[1.1E1,4E0,1.7E1,-1.2417861E-1,-3.8739575E2,5E0,-2.1875878E-1,2.9582415E-2,-1.0955724E-2,-1.0601711E-1,-4.5760345E-2,5.4656127E-3,-1.6910301E-3,2.2882156E-3,-2.766838E-2],"split_indices":[6,0,6,8,1,0,8,0,0,0,0,0,0,0,0],"split_type":[0,0,0,0,0,0,0,0,0,0,0,0,0,0,0],"sum_hessian":[3.3873547E3,2.8604068E2,3.1013142E3,2.3395888E2,5.208179E1,1.6703325E2,2.934281E3,1.2916371E2,3.7869526E1,2.0324102E1,3.175769E1,1.188934E3,1.745347E3,1.9824216E2,3.571673E1],"tree_param":{"num_deleted":"0","num_feature":"9","num_nodes":"15","size_leaf_vector":"1"}},{"base_weights":[-4.8679668E-3,1.8634218E-3,-9.6461914E-2,-4.7299247E-2,-3.1516904E-1,-8.438836E-2,-2.3560436E-2,2.3562035E-2,-1.9311648E-2,1.3503043E-3,3.525353E-2,-6.148902E-3,8.3644775E-4,-2.3560436E-2,-6.148902E-3],"categories":[],"categories_nodes":[],"categories_segments":[],"categories_sizes":[],"default_left":[0,0,0,0,0,0,0,0,0,0,0,0,0,0,0],"id":62,"left_children":[1,7,3,13,5,-1,-1,9,11,-1,-1,-1,-1,-1,-1],"loss_changes":[2.0816486E0,1.4450761E0,4.604853E0,7.956599E-1,4.7869973E0,0E0,0E0,5.0676312E0,1.9362092E0,0E0,0E0,0E0,0E0,0E0,0E0],"parents":[2147483647,0,0,2,2,4,4,1,1,7,7,8,8,3,3],"right_children":[2,8,4,14,6,-1,-1,10,12,-1,-1,-1,-1,-1,-1],"split_conditions":[8E-3,6.78E1,5E0,3.94E1,5.61E1,-8.438836E-2,-2.3560436E-2,6.62E1,7.43E1,1.3503043E-3,3.525353E-2,-6.148902E-3,8.3644775E-4,-2.3560436E-2,-6.148902E-3],"split_indices":[3,5,0,5,5,0,0,5,5,0,0,0,0,0,0],"split_type":[0,0,0,0,0,0,0,0,0,0,0,0,0,0,0],"sum_hessian":[3.3762144E3,3.1450767E3,2.3113788E2,1.5917752E2,7.196035E1,2.7760454E1,4.4199898E1,1.5533379E3,1.5917386E3,1.4748651E3,7.8472824E1,4.8931516E2,1.1024235E3,1.1272684E1,1.4790485E2],"tree_param":{"num_deleted":"0","num_feature":"9","num_nodes":"15","size_leaf_vector":"1"}},{"base_weights":[5.4759844E-3,-1.9896023E-2,3.6587007E-2,8.345492E-3,6.4075366E-2,1.6902825E-2,2.975757E-3,-2.2021496E-1,-1.4472177E-2,-1.3920134E-2,-1.13425024E-1,-1.5113346E-3,-4.7032442E-2,1.8427813E-2,1.084914E-3],"categories":[],"categories_nodes":[],"categories_segments":[],"categories_sizes":[],"default_left":[0,0,0,0,0,0,0,0,0,0,0,0,0,0,0],"id":63,"left_children":[1,7,3,13,5,-1,-1,9,11,-1,-1,-1,-1,-1,-1],"loss_changes":[2.6741486E0,2.027421E0,2.319691E0,7.607913E-2,3.089941E0,0E0,0E0,3.6302547E0,1.7962055E0,0E0,0E0,0E0,0E0,0E0,0E0],"parents":[2147483647,0,0,2,2,4,4,1,1,7,7,8,8,3,3],"right_children":[2,8,4,14,6,-1,-1,10,12,-1,-1,-1,-1,-1,-1],"split_conditions":[2.3143722E-1,3.51E1,2.6E1,2.84E1,3.8E1,1.6902825E-2,2.975757E-3,1.38E1,9.57E1,-1.3920134E-2,-1.13425024E-1,-1.5113346E-3,-4.7032442E-2,1.8427813E-2,1.084914E-3],"split_indices":[7,5,6,5,6,0,0,4,5,0,0,0,0,0,0],"split_type":[0,0,0,0,0,0,0,0,0,0,0,0,0,0,0],"sum_hessian":[3.3877744E3,1.8659946E3,1.5217799E3,3.8409857E2,1.1376813E3,4.373625E2,7.003188E2,4.9191322E1,1.8168033E3,4.1920513E1,7.2708087E0,1.8020345E3,1.4768768E1,4.273192E0,3.7982538E2],"tree_param":{"num_deleted":"0","num_feature":"9","num_nodes":"15","size_leaf_vector":"1"}},{"base_weights":[2.4931227E-5,3.6895536E-3,-3.0745974E-1,-7.1200337E-3,7.570429E-2,-2.077143E-3,2.233593E-2,-1.1099731E-2,7.432473E-5,-4.3550804E-1,-1.5188509E-1,-7.662852E-2,-3.8180556E-2,-2.7281169E-2,-1.9745061E-2],"categories":[],"categories_nodes":[],"categories_segments":[],"categories_sizes":[],"default_left":[0,0,0,0,0,0,0,0,0,0,0,0,0,0,0],"id":64,"left_children":[1,3,9,7,5,-1,-1,-1,-1,11,13,-1,-1,-1,-1],"loss_changes":[3.8313918E0,2.6157076E0,1.503048E0,1.7587492E0,3.8642778E0,0E0,0E0,0E0,0E0,9.944401E-1,1.648295E-2,0E0,0E0,0E0,0E0],"parents":[2147483647,0,0,1,1,4,4,3,3,2,2,9,9,10,10],"right_children":[2,4,10,8,6,-1,-1,-1,-1,12,14,-1,-1,-1,-1],"split_conditions":[-1.8621182E-2,6.1E1,3.102593E-1,1E1,0E0,-2.077143E-3,2.233593E-2,-1.1099731E-2,7.432473E-5,4.3E1,1E0,-7.662852E-2,-3.8180556E-2,-2.7281169E-2,-1.9745061E-2],"split_indices":[8,6,7,6,2,0,0,0,0,6,2,0,0,0,0],"split_type":[0,0,0,0,0,0,0,0,0,0,0,0,0,0,0],"sum_hessian":[3.400167E3,3.3601213E3,4.004579E1,2.9215833E3,4.3853812E2,2.2443898E2,2.1409912E2,2.6144394E2,2.6601392E3,3.0733553E1,9.312237E0,1.843458E1,1.2298972E1,4.9015365E0,4.4107003E0],"tree_param":{"num_deleted":"0","num_feature":"9","num_nodes":"15","size_leaf_vector":"1"}},{"base_weights":[2.8568788E-3,-1.175642E-1,1.0625961E-2,-6.9509856E-3,-1.920285E-1,-3.632502E-2,-1.5957344E-2,2.0147687E-2,-3.8371846E-2,8.383975E-4,7.3593794E-3,-6.9509856E-3,-1.1845703E-3],"categories":[],"categories_nodes":[],"categories_segments":[],"categories_sizes":[],"default_left":[0,0,0,0,0,0,0,0,0,0,0,0,0],"id":65,"left_children":[1,3,7,-1,5,-1,-1,9,11,-1,-1,-1,-1],"loss_changes":[3.146142E0,2.6361868E0,1.4738276E0,0E0,2.029665E0,0E0,0E0,1.3211515E0,7.563331E-1,0E0,0E0,0E0,0E0],"parents":[2147483647,0,0,1,1,4,4,2,2,7,7,8,8],"right_children":[2,4,8,-1,6,-1,-1,10,12,-1,-1,-1,-1],"split_conditions":[1.0003539E-1,-2.960418E-1,-1.1920828E-1,-6.9509856E-3,0E0,-3.632502E-2,-1.5957344E-2,2.7517673E-1,1.7913781E-1,8.383975E-4,7.3593794E-3,-6.9509856E-3,-1.1845703E-3],"split_indices":[7,8,8,0,2,0,0,7,7,0,0,0,0],"split_type":[0,0,0,0,0,0,0,0,0,0,0,0,0],"sum_hessian":[3.3628237E3,2.038062E2,3.1590176E3,2.2885387E1,1.8092082E2,1.1806018E2,6.2860638E1,2.645015E3,5.1400275E2,1.9226951E3,7.223197E2,1.2262013E2,3.913826E2],"tree_param":{"num_deleted":"0","num_feature":"9","num_nodes":"13","size_leaf_vector":"1"}},{"base_weights":[8.9100925E-3,1.2397834E-2,-4.133524E-1,-8.161983E-2,2.023475E-2,1.6168352E-2,-2.438933E-2,1.3753343E-2,1.3763005E-3,-6.109103E-1,-2.0047729E-1,-2.6062047E-2,-8.716664E-2,-9.402519E-2,-5.3060316E-2],"categories":[],"categories_nodes":[],"categories_segments":[],"categories_sizes":[],"default_left":[0,0,0,0,0,0,0,0,0,0,0,0,0,0,0],"id":66,"left_children":[1,3,9,5,7,-1,-1,-1,-1,13,11,-1,-1,-1,-1],"loss_changes":[4.999631E0,2.4807997E0,1.3188734E0,5.656118E0,2.565467E0,0E0,0E0,0E0,0E0,3.4876776E-1,9.8310304E-1,0E0,0E0,0E0,0E0],"parents":[2147483647,0,0,1,1,3,3,4,4,2,2,10,10,9,9],"right_children":[2,4,10,6,8,-1,-1,-1,-1,14,12,-1,-1,-1,-1],"split_conditions":[1.8E1,4.21E1,6.85E1,2E0,5.04E1,1.6168352E-2,-2.438933E-2,1.3753343E-2,1.3763005E-3,2.3939978E-1,-1.7421062E-1,-2.6062047E-2,-8.716664E-2,-9.402519E-2,-5.3060316E-2],"split_indices":[0,5,5,0,5,0,0,0,0,7,8,0,0,0,0],"split_type":[0,0,0,0,0,0,0,0,0,0,0,0,0,0,0],"sum_hessian":[3.394746E3,3.3669365E3,2.7809464E1,2.590585E2,3.107878E3,8.801021E1,1.7104831E2,3.1493307E2,2.792945E3,1.5309939E1,1.2499525E1,8.0502E0,4.449325E0,9.85051E0,5.4594293E0],"tree_param":{"num_deleted":"0","num_feature":"9","num_nodes":"15","size_leaf_vector":"1"}},{"base_weights":[1.188726E-5,-2.9472783E-3,1.9343029E-1,7.0279294E-1,9.52415E-2,6.678211E-2,1.2381394E-2,2.0206276E-2,-2.580207E-2,-3.637266E-4,7.878814E-3,-3.637266E-4,-7.841414E-3,5.4110363E-2,1.2874071E-1],"categories":[],"categories_nodes":[],"categories_segments":[],"categories_sizes":[],"default_left":[0,0,0,0,0,0,0,0,0,0,0,0,0,0,0],"id":67,"left_children":[1,7,3,13,5,-1,-1,9,11,-1,-1,-1,-1,-1,-1],"loss_changes":[1.9336758E0,1.7607856E0,2.5830677E0,6.860914E-1,2.1106777E0,0E0,0E0,2.089064E0,1.4295598E0,0E0,0E0,0E0,0E0,0E0,0E0],"parents":[2147483647,0,0,2,2,4,4,1,1,7,7,8,8,3,3],"right_children":[2,8,4,14,6,-1,-1,10,12,-1,-1,-1,-1,-1,-1],"split_conditions":[4.1274878E-1,3E0,5.16E1,4.26E1,-2.1295442E-1,6.678211E-2,1.2381394E-2,6.98E1,7.11E1,-3.637266E-4,7.878814E-3,-3.637266E-4,-7.841414E-3,5.4110363E-2,1.2874071E-1],"split_indices":[7,0,5,5,8,0,0,5,5,0,0,0,0,0,0],"split_type":[0,0,0,0,0,0,0,0,0,0,0,0,0,0,0],"sum_hessian":[3.37834E3,3.3274321E3,5.090787E1,8.327295E0,4.2580574E1,1.2052616E1,3.0527958E1,1.6529103E3,1.6745219E3,9.156719E2,7.372384E2,9.746255E2,6.998964E2,4.170823E0,4.156472E0],"tree_param":{"num_deleted":"0","num_feature":"9","num_nodes":"15","size_leaf_vector":"1"}},{"base_weights":[2.5046817E-3,-1.870145E-1,5.7392493E-3,-1.2656544E-1,-1.1663597E-1,6.5684454E-3,-8.090955E-2,7.178536E-4,1.0295637E-1,-3.0145528E-2,5.1701586E-3],"categories":[],"categories_nodes":[],"categories_segments":[],"categories_sizes":[],"default_left":[0,0,0,0,0,0,0,0,0,0,0],"id":68,"left_children":[1,3,5,9,-1,7,-1,-1,-1,-1,-1],"loss_changes":[2.0751607E0,2.4387083E0,1.7335832E0,9.1716063E-1,0E0,2.7321088E0,0E0,0E0,0E0,0E0,0E0],"parents":[2147483647,0,0,1,1,2,2,5,5,3,3],"right_children":[2,4,6,10,-1,8,-1,-1,-1,-1,-1],"split_conditions":[2E0,8E-3,9.3E1,1.1636746E1,-1.1663597E-1,9E1,-8.090955E-2,7.178536E-4,1.0295637E-1,-3.0145528E-2,5.1701586E-3],"split_indices":[6,3,6,1,0,6,0,0,0,0,0],"split_type":[0,0,0,0,0,0,0,0,0,0,0],"sum_hessian":[3.3851511E3,5.6805088E1,3.328346E3,5.234942E1,4.455671E0,3.323958E3,4.387848E0,3.3195352E3,4.422891E0,3.2053722E1,2.0295694E1],"tree_param":{"num_deleted":"0","num_feature":"9","num_nodes":"11","size_leaf_vector":"1"}},{"base_weights":[1.2300626E-2,1.4346962E-2,-2.4987869E-1,-4.7656484E-2,-9.148107E-2,-4.8838206E-2,4.1015927E-2,1.5793743E-2,-2.8944105E-1,-9.174441E-2,-1.7787075E-2,1.7698038E-3,2.6776005E-2],"categories":[],"categories_nodes":[],"categories_segments":[],"categories_sizes":[],"default_left":[0,0,0,0,0,0,0,0,0,0,0,0,0],"id":69,"left_children":[1,7,3,5,-1,-1,-1,11,9,-1,-1,-1,-1],"loss_changes":[1.8164489E0,1.4765478E0,2.4063325E0,3.2543564E0,0E0,0E0,0E0,1.3860917E0,2.1085837E0,0E0,0E0,0E0,0E0],"parents":[2147483647,0,0,2,2,3,3,1,1,8,8,7,7],"right_children":[2,8,4,6,-1,-1,-1,12,10,-1,-1,-1,-1],"split_conditions":[8.4E1,1.9E1,1.1E1,8.7E1,-9.148107E-2,-4.8838206E-2,4.1015927E-2,7.8E1,5.3E1,-9.174441E-2,-1.7787075E-2,1.7698038E-3,2.6776005E-2],"split_indices":[6,0,0,6,0,0,0,6,6,0,0,0,0],"split_type":[0,0,0,0,0,0,0,0,0,0,0,0,0],"sum_hessian":[3.385645E3,3.3594248E3,2.6220234E1,1.8138155E1,8.082079E0,7.2414155E0,1.089674E1,3.343502E3,1.5922965E1,7.6606517E0,8.262314E0,3.3056123E3,3.7889668E1],"tree_param":{"num_deleted":"0","num_feature":"9","num_nodes":"13","size_leaf_vector":"1"}},{"base_weights":[-1.7001882E-2,-1.464648E-1,-1.1644198E-2,-2.4590747E-2,-6.488645E-1,-2.102479E-2,4.691801E-2,-9.3440255E-3,-3.502661E-1,-2.3374656E-2,-1.2149054E-1,-9.645432E-4,-2.3374656E-2,-6.9099784E-2,-1.2058729E-1],"categories":[],"categories_nodes":[],"categories_segments":[],"categories_sizes":[],"default_left":[0,0,0,0,0,0,0,0,0,0,0,0,0,0,0],"id":70,"left_children":[1,3,7,5,13,-1,-1,11,9,-1,-1,-1,-1,-1,-1],"loss_changes":[2.3239298E0,8.152284E0,2.505928E0,5.664737E0,8.500328E-1,0E0,0E0,1.3321917E0,4.488464E0,0E0,0E0,0E0,0E0,0E0,0E0],"parents":[2147483647,0,0,1,1,3,3,2,2,8,8,7,7,4,4],"right_children":[2,4,8,6,14,-1,-1,12,10,-1,-1,-1,-1,-1,-1],"split_conditions":[5E0,3E0,2.35E1,3E0,9.3E0,-2.102479E-2,4.691801E-2,8.4E1,4.1E1,-2.3374656E-2,-1.2149054E-1,-9.645432E-4,-2.3374656E-2,-6.9099784E-2,-1.2058729E-1],"split_indices":[6,0,4,6,4,0,0,6,6,0,0,0,0,0,0],"split_type":[0,0,0,0,0,0,0,0,0,0,0,0,0,0,0],"sum_hessian":[3.3504111E3,1.3314244E2,3.2172686E3,1.0714984E2,2.5992594E1,7.903424E1,2.8115604E1,3.1955623E3,2.1706314E1,1.2719669E1,8.986646E0,3.1694414E3,2.612075E1,1.8292885E1,7.699709E0],"tree_param":{"num_deleted":"0","num_feature":"9","num_nodes":"15","size_leaf_vector":"1"}},{"base_weights":[-5.231821E-3,-4.7941183E-4,-1.5920645E-1,-3.890729E-3,2.3401262E-1,-7.031503E-3,1.0244893E-1,-2.3023944E-4,-3.9538234E-2,-1.12894855E-1,-5.672015E-1,-1.1868878E-1,-4.4206258E-2,-1.7995914E-2,3.846005E-2],"categories":[],"categories_nodes":[],"categories_segments":[],"categories_sizes":[],"default_left":[0,0,0,0,0,0,0,0,0,0,0,0,0,0,0],"id":71,"left_children":[1,3,9,7,5,-1,-1,-1,-1,13,11,-1,-1,-1,-1],"loss_changes":[2.461008E0,2.6097572E0,1.9026563E0,2.0465744E0,7.467474E0,0E0,0E0,0E0,0E0,9.439014E-1,9.4706225E-1,0E0,0E0,0E0,0E0],"parents":[2147483647,0,0,1,1,4,4,3,3,2,2,10,10,9,9],"right_children":[2,4,10,8,6,-1,-1,-1,-1,14,12,-1,-1,-1,-1],"split_conditions":[7.5E1,7.2E1,1.41E1,7.1E1,2.3939978E-1,-7.031503E-3,1.0244893E-1,-2.3023944E-4,-3.9538234E-2,3.3039826E-1,7.9E1,-1.1868878E-1,-4.4206258E-2,-1.7995914E-2,3.846005E-2],"split_indices":[6,6,4,6,7,0,0,0,0,7,6,0,0,0,0],"split_type":[0,0,0,0,0,0,0,0,0,0,0,0,0,0,0],"sum_hessian":[3.3631594E3,3.2624644E3,1.0069491E2,3.215684E3,4.6780315E1,3.0776716E1,1.6003601E1,3.193142E3,2.2542099E1,9.043041E1,1.0264493E1,4.4982915E0,5.766202E0,8.5113396E1,5.3170185E0],"tree_param":{"num_deleted":"0","num_feature":"9","num_nodes":"15","size_leaf_vector":"1"}},{"base_weights":[2.5569873E-3,-4.258318E-3,7.152232E-2,-2.5206193E-1,1.1460597E-1,3.8614333E-2,2.6501408E-3,-5.832974E-2,-8.9346375E-3,2.3970436E-3,-1.4636903E-1,-1.4321826E-2,-1.16041064E-1,4.8123566E-3,-1.6848316E-3],"categories":[],"categories_nodes":[],"categories_segments":[],"categories_sizes":[],"default_left":[0,0,0,0,0,0,0,0,0,0,0,0,0,0,0],"id":72,"left_children":[1,9,3,7,5,-1,-1,-1,-1,13,11,-1,-1,-1,-1],"loss_changes":[1.588057E0,2.9081814E0,4.2362127E0,3.0075443E0,4.6091747E0,0E0,0E0,0E0,0E0,1.5617007E0,3.716238E0,0E0,0E0,0E0,0E0],"parents":[2147483647,0,0,2,2,4,4,3,3,1,1,10,10,9,9],"right_children":[2,10,4,8,6,-1,-1,-1,-1,14,12,-1,-1,-1,-1],"split_conditions":[8.6E1,8.38E1,1.1719976E-1,9.3E1,8.8E1,3.8614333E-2,2.6501408E-3,-5.832974E-2,-8.9346375E-3,-2.3728935E-1,1.2E1,-1.4321826E-2,-1.16041064E-1,4.8123566E-3,-1.6848316E-3],"split_indices":[5,5,7,5,5,0,0,0,0,8,0,0,0,0,0],"split_type":[0,0,0,0,0,0,0,0,0,0,0,0,0,0,0],"sum_hessian":[3.378657E3,3.0747974E3,3.0385968E2,3.570337E1,2.681563E2,9.132793E1,1.7682837E2,2.9143864E1,6.5595055E0,2.937239E3,1.3755815E2,1.3119403E2,6.3641148E0,9.025529E2,2.0346863E3],"tree_param":{"num_deleted":"0","num_feature":"9","num_nodes":"15","size_leaf_vector":"1"}},{"base_weights":[7.7537104E-4,-1.16914414E-1,1.0663686E-2,-9.900949E-2,-1.3303906E-1,1.8425937E-1,6.0197026E-3,7.569287E-2,8.013265E-3,-1.1938674E-4,9.846925E-3,-1.4116941E-2,6.1485596E-2],"categories":[],"categories_nodes":[],"categories_segments":[],"categories_sizes":[],"default_left":[0,0,0,0,0,0,0,0,0,0,0,0,0],"id":73,"left_children":[1,3,5,11,-1,7,9,-1,-1,-1,-1,-1,-1],"loss_changes":[3.937004E0,4.2557836E0,2.5159297E0,1.4093623E0,0E0,3.9681256E0,1.4704124E0,0E0,0E0,0E0,0E0,0E0,0E0],"parents":[2147483647,0,0,1,1,2,2,5,5,6,6,3,3],"right_children":[2,4,6,12,-1,8,10,-1,-1,-1,-1,-1,-1],"split_conditions":[1E1,9.21E1,1.3E1,9.1E1,-1.3303906E-1,4.1E0,8.6E1,7.569287E-2,8.013265E-3,-1.1938674E-4,9.846925E-3,-1.4116941E-2,6.1485596E-2],"split_indices":[6,5,6,5,0,4,5,0,0,0,0,0,0],"split_type":[0,0,0,0,0,0,0,0,0,0,0,0,0],"sum_hessian":[3.383009E3,2.6220926E2,3.1207998E3,2.571304E2,5.078832E0,8.131096E1,3.039489E3,1.9150805E1,6.2160152E1,2.7644148E3,2.750741E2,2.5289386E2,4.236559E0],"tree_param":{"num_deleted":"0","num_feature":"9","num_nodes":"13","size_leaf_vector":"1"}},{"base_weights":[-1.4692413E-2,-1.3964284E-2,-7.6151386E-2,-1.4809727E-2,5.465047E-2,-1.722934E-3,-6.125033E-2],"categories":[],"categories_nodes":[],"categories_segments":[],"categories_sizes":[],"default_left":[0,0,0,0,0,0,0],"id":74,"left_children":[1,3,-1,5,-1,-1,-1],"loss_changes":[1.3951285E0,1.2304802E0,0E0,2.3752506E0,0E0,0E0,0E0],"parents":[2147483647,0,0,1,1,3,3],"right_children":[2,4,-1,6,-1,-1,-1],"split_conditions":[9.3E1,8.9E1,-7.6151386E-2,8.5E1,5.465047E-2,-1.722934E-3,-6.125033E-2],"split_indices":[6,6,0,6,0,0,0],"split_type":[0,0,0,0,0,0,0],"sum_hessian":[3.3549485E3,3.3506765E3,4.27186E0,3.3441675E3,6.508977E0,3.3328013E3,1.1366406E1],"tree_param":{"num_deleted":"0","num_feature":"9","num_nodes":"7","size_leaf_vector":"1"}},{"base_weights":[-1.4848519E-2,-1.249481E-2,-3.7758067E-1,-1.23232685E-1,-1.9503774E-1,-1.5565012E-1,-9.152586E-3,2.4842676E-3,-2.9871475E-3,1.3791731E-2,-2.520416E-2,-2.5354905E-2,-6.836897E-2],"categories":[],"categories_nodes":[],"categories_segments":[],"categories_sizes":[],"default_left":[0,0,0,0,0,0,0,0,0,0,0,0,0],"id":75,"left_children":[1,5,3,-1,11,9,7,-1,-1,-1,-1,-1,-1],"loss_changes":[2.8662813E0,1.5959257E0,2.750206E0,0E0,5.964414E-1,7.614498E-1,1.273601E0,0E0,0E0,0E0,0E0,0E0,0E0],"parents":[2147483647,0,0,2,2,1,1,6,6,5,5,4,4],"right_children":[2,6,4,-1,12,10,8,-1,-1,-1,-1,-1,-1],"split_conditions":[2.35E1,3E0,-1.3467323E2,-1.23232685E-1,4.1E1,8E-1,2E0,2.4842676E-3,-2.9871475E-3,1.3791731E-2,-2.520416E-2,-2.5354905E-2,-6.836897E-2],"split_indices":[4,6,1,0,6,4,0,0,0,0,0,0,0],"split_type":[0,0,0,0,0,0,0,0,0,0,0,0,0],"sum_hessian":[3.3571792E3,3.3355356E3,2.1643435E1,6.1236167E0,1.5519817E1,7.609688E1,3.2594387E3,1.0706943E3,2.1887444E3,9.697457E0,6.639942E1,1.0072492E1,5.4473257E0],"tree_param":{"num_deleted":"0","num_feature":"9","num_nodes":"13","size_leaf_vector":"1"}},{"base_weights":[-6.925456E-3,-8.502763E-2,-3.7501953E-4,-2.7995571E-2,-3.1559682E-1,-6.2552534E-2,2.907472E-2,1.5122149E-2,-1.2994439E-2,4.8232142E-2,-1.4566193E-2,-2.9291403E-2,-2.5154394E-4,-4.281111E-2,8.432034E-3],"categories":[],"categories_nodes":[],"categories_segments":[],"categories_sizes":[],"default_left":[0,0,0,0,0,0,0,0,0,0,0,0,0,0,0],"id":76,"left_children":[1,3,9,7,5,-1,-1,-1,-1,13,11,-1,-1,-1,-1],"loss_changes":[1.7211096E0,3.4231324E0,2.1410005E0,2.1674395E0,4.609187E0,0E0,0E0,0E0,0E0,4.403783E0,6.395408E0,0E0,0E0,0E0,0E0],"parents":[2147483647,0,0,1,1,4,4,3,3,2,2,10,10,9,9],"right_children":[2,4,10,8,6,-1,-1,-1,-1,14,12,-1,-1,-1,-1],"split_conditions":[4.21E1,3.99E1,5.74E1,2E0,2.9741797E-1,-6.2552534E-2,2.907472E-2,1.5122149E-2,-1.2994439E-2,6E0,6.01E1,-2.9291403E-2,-2.5154394E-4,-4.281111E-2,8.432034E-3],"split_indices":[5,5,5,0,7,0,0,0,0,6,5,0,0,0,0],"split_type":[0,0,0,0,0,0,0,0,0,0,0,0,0,0,0],"sum_hessian":[3.3641343E3,2.603162E2,3.103818E3,2.086952E2,5.162099E1,3.9494404E1,1.2126587E1,6.9437065E1,1.3925813E2,7.013995E2,2.4024185E3,1.3584448E2,2.266574E3,2.959051E1,6.7180896E2],"tree_param":{"num_deleted":"0","num_feature":"9","num_nodes":"15","size_leaf_vector":"1"}}]},"name":"gbtree"},"learner_model_param":{"base_score":"4.8114306E-1","boost_from_average":"1","num_class":"0","num_feature":"9","num_target":"1"},"objective":{"name":"binary:logistic","reg_loss_param":{"scale_pos_weight":"1"}}},"version":[2,1,1]}